tree
version=v4
num_class=1
num_tree_per_iteration=1
label_index=0
max_feature_idx=65
objective=lambdarank
feature_names=horse_runs_last_3_positions horse_runs_last_5_positions horse_days_since_last_run horse_runs_last_90_days horse_going_group_place_rate horse_distance_place_rate horse_course_place_rate horse_weighted_form horse_place_rate_last_10 horse_improvement_index horse_avg_position_pct_last_5 horse_best_rpr_last_5 horse_best_rpr_rp_last_5 horse_avg_rpr_last_3 horse_last_rpr horse_avg_class_last_3 horse_class_delta horse_form_trend trainer_win_rate_90d trainer_win_rate_course_90d trainer_course_going_win_rate trainer_dist_alltime_win_rate trainer_win_rate_going_90d trainer_win_rate_dist_band_90d trainer_fresh_win_rate trainer_fresh_runs jockey_win_rate_90d jockey_win_rate_course_90d jockey_dist_win_rate_90d jockey_trainer_combo_win_rate jockey_runs_90d is_handicap race_grade prize_money_log is_class_dropper pace_hold_up_horses pace_pressure_index distance_furlongs collateral_beaten_win_rate collateral_beaten_place_rate collateral_beaten_count weight_lbs weight_vs_top weight_vs_field_avg horse_age runner_official_rating rating_vs_top rating_vs_field_avg field_avg_rating career_runs career_place_rate position_consistency avg_speed_last_3 best_speed_last_5 last_run_speed trip_change_furlongs weight_change_lbs last_run_btn_lengths avg_btn_last_3 jockey_upgrade_signal trainer_win_rate_14d trainer_runs_14d sex_encoded is_female horse_pu_rate horse_nc_last_5
feature_infos=[0:9216] [1:28] [0:3488] [0:14] [0:1] [0:1] [0:1] [-4.2999999999999998:0.95999999999999996] [0:1] [-24.666666666666668:21.5] [0.040000000000000001:4.5] [30:180] [1:184] [1:178] [1:184] [1:7] [-5:5] [-10.5:10.000000000000002] [0:1] [0:1] [0:1] [0:1] [0:1] [0:1] [0:1] [0:2653] [0:1] [0:1] [0:1] [0:1] [0:421] [0:1] [0:1] [0:13.238012582507181] [0:1] [0:13] [0:1] [12:34.5] [0:1] [0:1] [0:72] [114:177] [-42:0] [-27.909090909090907:24] [3:17] [3:180] [-104:0] [-74.400000000000006:55.333333333333329] [3:172] [0:156] [0:1] [0:16.263455967290593] [-529.58660888671875:255.93085479736328] [-529.58660888671875:319.68746948242188] [-529.58660888671875:319.68746948242188] [-18:18] [-47:61] [0:147] [0:147] [-1:1] [0:1] [0:190] [0:4] [0:1] [0:2] [0:4]
tree_sizes=11141 11147 11176 11183 11151 11113 11157 11135 11147 11155 11098 11119 11140 11142 11117 11143 11123 11134 11141 11160 11100 11161 11166 11153 11130 11150 11127 11177 11121 11145 11093 11165 11142 11167 11117 11135 11136 11086 11167 11136 11147 11118 11151 11114 11153 11131 11126 11135 11093 11112 11167 11084 11173 11066 11171 11158 11123 11115 11096 11062 11105 11096 11098 11183 11119 11198 11140 11155 11127 11103 11143 11101 11138 11114 11145 11070 11095 11089 11114 11121 11084 11149 11140 11101 11169 11087 11140 11053 11070 11058 11141 11106 11126 11101 11096 11115 11109 11050 11044 11094 11105 11121 11096 11039 11057 11098 11068 11114 11024 11057 11047 11090 11062 11087 10992 11119 11087 11054 11138 11004 11066 11118 11062 11061 11090 11073 11060 11063 11076 10987 11098 11003 11038 11055 11039 11073 11030 11052 11045 11058 11075 10992 11040 11069 11063 11038 11021 11092 11077 10983 10988 11019 11035 10995 11083 11073 11006 11064 11046 11019 11000 10980 11055 11069 11019 11035 11029 10974 11071 11034 10958 10953 10994 10960 11074 10979 11046 11010 11064 10996 11022 11002 11016 10927 10973 10961 10944 11125 11093 10970 11014 11017 10983 11012 10893 11082 11011 10894 10956 10909 10926 11051 8030 11009 11025 10966 10910 10932 10942 10932 11016 11035 10956 11005 10977 10995 11013 10944 11021 11083 10946 10893 10959 10993 11060 10965 10915 11013 10985 11013 10906 11009 10935 11023 10903 10950 11056 10979 10989 11030 11031 10858 11021 10996 11010 10960 10898 10945 10903 11040 10999 10995 10926 10919 10927 11011 10917 10939 10831 10878 11057 10913 10903 4898 11028 11010 10977 10927 10947 10976 10884 10977 10857 10984 10959 11072 10980 10933 10862 11013

Tree=0
num_leaves=100
num_cat=0
split_feature=8 29 65 45 13 13 65 24 60 44 44 65 45 24 43 21 13 43 1 13 24 49 13 44 13 45 43 17 2 16 13 11 13 13 24 24 45 2 17 43 16 16 1 21 21 45 49 1 24 16 24 44 21 45 43 15 60 60 29 21 16 16 17 43 39 25 21 44 45 24 16 16 17 42 17 43 39 1 11 24 42 45 16 16 21 51 2 11 2 2 60 43 43 9 13 16 54 4 17
split_gain=4219.48 2081.17 1033.03 773.546 708.126 604.328 558.635 441.6 297.051 263.676 259.804 228.102 215.978 193.859 180.543 148.614 133.556 131.772 122.308 107.853 95.2454 94.7585 92.0025 91.0117 80.2315 71.4641 69.3095 68.0103 67.1996 64.5692 62.7223 57.2696 55.8438 54.4884 53.3121 53.0008 52.6215 51.4175 49.7636 48.0708 47.982 47.5138 46.9314 45.7942 45.5037 44.9362 44.7537 43.8422 43.7937 41.3227 40.5876 40.3148 38.937 38.8214 38.0536 37.7411 36.9584 36.8753 36.8129 34.0259 32.3722 31.1314 30.8844 30.1286 29.9597 29.6258 28.9832 28.8548 28.3975 28.2032 28.1214 27.9031 27.5136 27.4524 27.2224 27.1316 26.7684 26.5965 26.1498 26.045 25.9831 25.0294 24.5021 24.2756 24.2706 23.7968 22.9688 22.8972 22.4314 21.6308 21.3853 21.2842 21.0795 20.9703 20.8251 20.1647 20.1267 20.4048 20.0758
threshold=0.11805555555555557 0.1178513071895425 1.0000000180025095e-35 71.500000000000014 85.166666666666671 86.166666666666671 1.0000000180025095e-35 0.14674482727189866 0.033908045977011504 7.5000000000000009 6.5000000000000009 1.0000000180025095e-35 71.500000000000014 0.098322682636014111 1.1846590909090937 0.13045117712636897 99.166666666666671 0.58114035087719185 4.4500000000000011 64.833333333333357 0.081655178627742506 12.500000000000002 106.83333333333336 7.5000000000000009 104.83333333333336 109.50000000000001 2.3651515151515246 -0.39230769230769219 117.50000000000001 0.66666666666666674 73.166666666666671 109.50000000000001 67.166666666666671 92.833333333333357 0.19153907337442835 0.11080521882140733 110.50000000000001 49.500000000000007 -0.071428571428571466 0.90238095238095195 -2.1666666666666661 1.0000000180025095e-35 6.9000000000000012 0.23534617386777723 0.098366456672815669 104.50000000000001 11.500000000000002 2.7083333333333335 0.072738482232933541 -1.0000000180025095e-35 0.099793124989303275 7.5000000000000009 0.040018198362147414 110.50000000000001 2.7905701754385892 4.8333333333333348 0.09039836567926457 0.028174603174603175 0.055300713557594298 0.092972864076760184 -0.83333333333333337 1.416666666666667 0.085714285714285784 3.1702898550724545 0.10028735632183909 597.50000000000011 0.23959080583452896 7.5000000000000009 119.50000000000001 0.035749786992331729 0.66666666666666674 0.33333333333333343 0.17142857142857157 -4.4999999999999991 9.5161973539299151e-17 3.5092592592592529 0.042438271604938273 2.2916666666666674 99.500000000000014 0.076963099335627963 -1.0000000180025095e-35 106.50000000000001 0.66666666666666674 1.166666666666667 0.25876005103760419 1.5257045792034714 37.500000000000007 108.50000000000001 8.5000000000000018 8.5000000000000018 0.098476102516739786 -0.98076923076922629 0.51000000000000523 1.0000000000000009 109.41666666666667 0.66666666666666674 26.938199996948246 0.56594202898550738 -0.818131868131868
decision_type=8 10 10 10 10 10 10 10 10 10 8 10 10 10 10 8 10 10 8 8 8 2 10 10 8 10 10 8 10 8 8 10 8 10 10 8 10 10 10 8 8 8 8 10 8 10 2 10 8 8 10 10 10 8 10 8 10 10 10 8 8 8 8 10 8 2 10 8 8 10 8 8 10 10 8 10 10 8 8 8 10 10 8 8 8 8 10 8 8 8 8 8 10 8 8 8 10 10 8
left_child=3 2 4 5 8 15 7 18 12 14 17 13 20 30 27 42 43 49 23 68 54 22 60 39 96 66 48 64 31 73 57 -11 69 -4 93 38 92 81 75 90 -29 -37 61 63 -42 -24 -28 -38 53 77 -30 55 -32 72 85 -34 -15 -5 -31 -33 -16 -1 95 -7 -6 -18 -26 -35 -10 -14 -66 -22 -20 -17 -43 -21 -44 -9 -54 -13 -27 -25 -49 -61 -51 -2 -40 -79 -23 -50 -3 -73 -12 -8 -94 -41 97 -19 -53
right_child=1 6 33 11 9 16 34 10 19 28 36 79 32 56 21 29 65 24 26 35 71 88 45 37 25 80 46 40 50 58 52 59 51 67 -36 41 47 -39 86 62 44 74 76 -45 -46 -47 -48 82 89 84 -52 98 78 -55 -56 -57 -58 -59 -60 83 -62 -63 -64 -65 70 -67 -68 -69 -70 -71 -72 91 -74 -75 -76 -77 -78 87 -80 -81 -82 -83 -84 -85 -86 -87 -88 -89 -90 -91 -92 -93 94 -95 -96 -97 -98 -99 -100
leaf_value=-0.066240205271359723 -0.0062717728358656034 0.0084629840930390068 -0.0621551900401291 -0.037492212549464193 -0.053406657923902416 -0.03765303764658693 -0.026532891155750245 0.028016331480318419 -0.01564145476996151 0.0081914246313474527 0.019622618252784014 -0.072111741573426605 -0.036724719230006357 -0.0066994107787736153 -0.014647758450761578 -0.067637078438449641 0.0003647588354109395 0.016623094905206033 -0.016423201800555488 -0.01688182739781249 -0.044311950731551697 0.030437337047368781 0.044147712980824053 0.021056943038692395 0.04986261611255028 0.02896800103445445 0.022155197600673832 -0.035104356923463725 -0.029221867131637009 -0.042378060901876867 -0.025951445708798544 -0.015186297682022405 -0.013309901932859941 -0.023231023959143119 0.0025224824936499446 -0.0048231357348019737 0.022906324808260548 -0.010825806697119357 0.015862249583791805 0.013430599022570249 -0.00019495922032881466 -0.0025518669978165744 -0.079592421796085847 0.021050096438222535 0.013102680434769913 0.025543337025322774 0.0029401735543961817 0.0026498398083038702 0.035912583093563759 0.02674937817876662 -0.0049007165843674688 -0.032025842593443633 0.0015024099887806482 -0.023480829411512871 -0.024947156853572204 0.0047954693592103751 0.014135256614104691 -0.015468927016761955 -0.0076163867228138497 -0.0050945556076826565 0.016154883671332776 -0.041014236393224421 0.03118987544655822 -0.010521280076801967 -0.013349686770328424 0.03540109795663663 0.065672992933293109 -0.048457976222587761 -0.045236236702712464 -0.016116092436411301 0.0036927103747917199 -0.029973966251930148 0.010732854504438191 -0.042520788808814693 0.022052497211989694 0.0053486743587345224 -0.064991130638749173 0.029072923469438443 -0.015855337999450474 -0.040478984497579008 0.044647917402055579 0.0072781361092412542 0.019110580742359686 0.0097236720938382107 0.044504315611445619 -0.053402374855715015 -0.011506089719866537 -0.0015763351906317785 0.0023498819916677261 0.0041623166538787603 0.020082303049706193 -0.0092571712753980028 0.026657376664331631 -0.048031306159552666 0.048973079821372674 0.030116033302289832 0.039356476350396026 0.037120542710497528 -0.013690076053403511
leaf_weight=279.26240189705277 22.723697984300088 497.13272930303356 459.22291476506507 556.05054263107013 27.605828578321962 438.81476553715765 234.10301541036461 171.35212174072512 181.86157372721937 838.1596494987607 310.40986934071407 145.27716145251179 262.83489801554242 281.5037446229253 71.154377224156633 190.23417532315943 174.94994244497502 278.77353937551379 120.55278481164714 467.72520240169251 91.803484932286665 61.607372587779537 381.42736781446729 417.41277024865849 633.46331420727074 357.63232804162544 639.41617686938844 51.662300719530322 310.96569224243285 130.1884728600271 399.47607925877674 547.84702325513354 416.68203198350966 142.39635377650848 92.708616495248862 261.05925644619856 559.38217568962136 228.06159422302153 263.93890947767068 432.58788003528025 795.94555497003603 107.13770911324536 761.09986781328917 33.365868085646071 1425.3214966789528 821.28001162450528 389.59245817334158 676.72696055780398 44.912931545521133 626.79054897720926 245.67905027346569 145.52096931671258 298.53022237197729 242.22118174051866 130.80983143209596 507.26754564786097 423.07491271593608 210.71803178358823 115.21766610560007 1035.9846776275954 1311.5307569625147 154.61466972331982 1200.9804691213649 101.58513678121381 450.2903994936496 66.534744972595945 376.3900610259152 257.59650397929363 101.69476642052177 271.69090305391001 334.98499528932734 159.52341693209019 192.99315692984965 166.31140458711889 516.55490569470567 141.49120324107935 391.13188098307 62.960012403782457 405.58294981752988 84.078632205724716 533.01766051561572 716.96186366904294 246.16647003730759 278.81955903116614 206.90734505403088 585.78591040836181 78.804892186482903 208.17771131941117 711.27229117951356 916.24618453014409 882.08828258677386 265.22272588062333 210.73949541547336 151.8329382246593 142.26209804811515 219.78218922542874 280.32468028378207 151.09255008213222 684.28265410696622
leaf_count=5081 287 5577 9291 11188 542 7552 3535 1615 2798 10340 3053 3565 4808 4255 970 3596 2172 3095 1872 8025 1467 599 2966 4303 5009 3599 7296 861 5036 2527 6823 8204 5862 2190 1175 3237 5467 3074 3070 4583 10192 1514 17573 370 15644 8261 4850 8192 396 6308 3271 2584 4378 4085 2760 7235 5047 3499 1671 13277 14905 2943 10620 1419 6087 580 2216 4674 1846 4170 4350 3414 2300 2808 6790 1987 8468 574 6324 1641 3968 8024 2481 3431 1640 13921 1188 2496 9258 12015 8796 4877 2082 2528 1038 2137 2311 1254 10394
internal_value=0 0.0067616 -0.00403529 -0.0347852 -0.00137333 -0.050516 0.0195943 0.0213145 -0.013904 0.00594169 0.0302005 -0.0179335 -0.0218039 -0.014131 0.0111699 -0.0627302 -0.0177192 0.0370802 0.013806 -0.00069326 -0.0366712 0.0183267 0.0224241 0.018152 0.0428284 0.0476189 0.00595728 0.00337721 -0.00439731 -0.0438078 -0.0216434 -0.00148424 -0.0136389 -0.0516265 -0.0277252 0.00325322 0.0177323 0.00846915 -0.00404137 0.0222293 0.0073396 0.0111156 -0.0699037 -0.0294356 0.00833229 0.0314538 0.014892 0.0130444 -9.56539e-05 0.0253115 -0.0185095 -0.00978134 -0.0148146 -0.0100692 -0.0469521 -0.00335658 0.00579388 -0.0314559 -0.0261074 -0.00584464 0.0145609 -0.0572793 0.0269306 -0.0325753 -0.00768725 0.0100688 0.0557677 -0.0395079 -0.0262987 -0.0262726 -0.00606427 -0.0219326 0.000253076 -0.0559562 0.0178065 -0.0116989 -0.0746467 0.0142447 -0.00847881 -0.0605695 0.0383656 0.012359 0.00705368 -0.00194293 0.0311706 -0.0516624 0.00953417 0.00549627 0.00460463 0.00565872 0.015903 -0.0170666 0.0281882 -0.0350226 0.0356856 0.0190706 0.0299917 0.0238562 -0.0169204
internal_weight=35684.9 29877.3 16225.2 5807.6 15366 3003.31 13652.2 13173.5 5664.42 9701.54 6032.57 2804.29 3544.15 2574.94 6444.08 2188.06 815.25 3886.88 7140.94 2120.27 1255.87 3358.27 2585.39 4595.01 2610.69 1900.5 2545.93 3085.81 3257.46 601.952 1870.36 2700.81 2288.28 859.216 478.645 1836.71 2145.69 1362.44 951.96 3232.57 2272.93 884.752 1586.11 573.766 2221.27 1202.71 1029.01 1482.28 1516.93 1276.19 556.645 1753.75 1103.59 555.767 739.319 923.95 704.579 766.769 245.406 1862.65 1382.69 433.877 1853.35 540.4 812.881 241.485 1009.85 399.993 283.556 534.526 785.275 516.55 313.546 356.546 623.693 609.216 1152.23 442.49 704.113 229.356 890.65 1134.37 922.893 1314.8 833.698 608.51 342.744 271.138 772.88 961.159 1379.22 424.746 663.411 385.936 353.002 652.37 710.191 429.866 829.804
internal_count=473627 370147 226583 103480 210428 56760 143564 136326 92234 118194 56398 46720 61779 41514 74635 44667 12093 34085 79928 30455 26726 36959 27102 47114 21452 14792 32814 37676 43559 10602 32212 35252 35053 16155 7238 25811 22313 15401 14270 31713 26697 11541 34065 9341 25836 11227 12146 16140 20668 12633 8307 26075 17525 8257 16968 13097 9302 14687 4198 24912 15875 8024 17340 8971 10979 2752 7225 6864 4644 8978 10437 9758 4172 6404 8304 10012 26041 4685 10702 5206 7567 12327 10673 16708 7948 14208 4258 3070 9857 12411 14373 8291 6173 6063 3120 6720 6660 4349 12978
is_linear=0
shrinkage=0.0446


Tree=1
num_leaves=100
num_cat=0
split_feature=13 46 46 21 21 13 50 50 4 11 11 18 13 26 52 40 54 61 54 52 13 16 13 43 2 2 26 20 46 25 54 54 40 2 46 51 61 21 46 27 54 16 54 20 43 49 21 43 21 59 2 30 21 26 27 59 42 46 26 16 41 20 46 54 52 18 1 51 13 54 30 52 19 26 27 27 41 42 41 40 16 11 41 11 4 49 1 1 16 41 16 41 26 28 23 40 46 50 59
split_gain=5831.2 2315.99 2163.69 3380.72 1070.79 1017.38 798.892 725.506 475.54 473.702 420.957 385.563 362.24 352.839 314.821 311.294 277.284 269.272 260.636 247.483 240.209 224.414 203.881 198.101 195.04 192.858 187.174 174.886 169.93 162.573 158.563 152.235 150.837 144.324 139.522 136.365 130.774 128.17 127.439 119.403 116.964 115.14 113.863 113.228 113.011 112.558 111.794 110.842 106.696 104.948 104.76 102.262 99.2957 99.212 95.3408 94.8913 93.391 309.086 92.099 90.1832 104.999 97.9655 89.6818 88.9514 87.2788 86.7782 86.2258 85.2665 84.6272 82.7334 82.5553 76.5175 76.3053 75.4087 74.9652 74.726 74.3227 74.0083 73.5402 73.2431 71.7271 92.327 71.4097 72.4 71.2771 70.3886 92.5577 69.6089 68.8687 67.4493 66.8535 66.4287 66.2624 65.6765 65.5635 65.129 64.4554 64.1206 64.0448
threshold=97.833333333333357 -1.0000000180025095e-35 -28.499999999999996 0.12403840463932779 0.25876005103760419 78.166666666666671 0.6478537360890303 0.41413339382940112 0.14550264550264552 113.50000000000001 98.500000000000014 0.054135460761966799 111.16666666666667 0.12793453102612148 2.2730191548665371 5.5000000000000009 -64.056301116943345 11.500000000000002 -6.9418430328369132 18.45300992329916 82.166666666666671 1.166666666666667 57.166666666666679 3.340579710144937 9.5000000000000018 6.5000000000000009 0.1714748035136385 0.18533452807646358 -34.499999999999993 684.50000000000011 20.396518707275394 -46.792078018188469 5.5000000000000009 187.50000000000003 -27.499999999999996 0.96175944541781722 13.500000000000002 0.06661506707946338 -1.4999999999999998 0.1601526717557252 80.086994171142592 1.166666666666667 -135.71014404296872 0.12681311751103638 5.1464285714285731 20.500000000000004 0.23534617386777723 -5.0166666666666648 0.1250482625482626 -0.014713909945459123 84.500000000000014 61.500000000000007 0.084514213591119033 0.10420688545688547 0.09987834549878348 0.026081888217638526 -8.4999999999999982 -14.499999999999998 0.19664096657420907 -1.8333333333333333 161.50000000000003 0.16499849864878394 -28.499999999999996 -65.208957672119126 21.898635228474941 0.20518418990034712 6.4500000000000011 1.1377339247471163 109.41666666666667 -32.610511779785149 110.50000000000001 -90.09534645080565 0.3278451001053741 0.20281369573822408 0.069044970602256492 0.054092554092554097 162.50000000000003 -26.499999999999996 164.50000000000003 12.500000000000002 0.3333333333333332 96.500000000000014 158.50000000000003 101.50000000000001 0.36899313501144165 17.500000000000004 9.5500000000000025 5.9000000000000012 -0.66666666666666652 161.50000000000003 1.0000000180025095e-35 147.50000000000003 0.36164202428176467 0.14009345794392528 0.40085470085470093 11.500000000000002 -2.4999999999999996 0.35751879699248129 0.084893052359912152
decision_type=10 8 10 10 10 8 8 8 10 8 8 10 10 10 8 2 10 2 10 10 10 10 8 8 10 10 10 10 8 2 10 10 2 10 10 8 2 10 10 8 10 10 10 10 10 2 8 10 8 10 10 2 8 10 10 10 10 10 10 8 8 10 10 8 8 10 8 10 10 10 2 10 10 8 10 8 8 8 10 2 8 8 10 10 8 2 8 8 8 10 8 10 10 10 8 2 10 8 10
left_child=2 9 3 5 7 15 16 20 13 24 11 22 29 44 31 -1 71 97 45 67 32 27 -4 41 -2 -13 50 49 -10 40 48 55 -5 42 -20 -21 90 77 -28 56 76 47 -26 69 52 54 74 -9 85 -18 65 -33 66 -25 62 -12 79 -58 -19 -37 -61 -62 -11 -54 -40 87 -7 -14 82 -24 -49 -3 98 91 -29 -69 -8 -17 -31 -36 81 -30 83 -44 -47 86 -27 -16 -22 -66 -15 -64 -51 -73 -67 -50 -89 -6 -53
right_child=1 6 10 4 17 8 12 23 28 18 14 25 19 36 26 37 21 58 34 35 88 -23 43 53 33 30 38 46 80 78 -32 51 -34 -35 39 59 -38 -39 64 -41 -42 -43 68 -45 -46 84 -48 70 95 92 -52 72 63 -55 -56 -57 57 -59 -60 60 61 -63 73 -65 89 94 -68 75 -70 -71 -72 93 -74 -75 -76 -77 -78 -79 -80 -81 -82 -83 -84 -85 -86 -87 -88 96 -90 -91 -92 -93 -94 -95 -96 -97 -98 -99 -100
leaf_value=-0.066953777751752333 0.026290193246410916 -0.026450423714929429 -0.030468765836472921 -0.04676878773588717 -0.028026059417085747 -0.032987840115120994 0.010528050740946359 -0.026294053698828018 -0.078200239520831716 -0.081548723005475374 -0.020953392216108542 0.027239630197596842 0.027565414175708406 -0.041744643962114643 -0.0011966429266710413 -0.0037821269986364897 0.0014507360790562104 0.02038752532230937 -0.056891256825355709 0.042968067093789218 -0.029012453352281684 0.031187778109309498 -0.013633539720885312 -0.0068289789783168428 -0.0043519340799485478 0.002330425192294512 0.00091261258077266231 0.0066653777051916699 0.012408703063035143 0.031569187098034586 0.013332665779171615 -0.013217132169338145 -0.023562442140023548 -0.013033516541596688 -0.002732260769202664 -1.449788826268122e-05 0.0025783276847343153 -0.031685869541952703 -0.0086949404972624985 0.0070929354807744089 0.028247085631846018 0.031672214266760264 0.022349837832010153 0.010878269728224079 -0.012412810489742186 -0.033602429532173551 0.033776516807985379 -0.0088244491065080071 0.0020302194504063253 0.010830467247006443 -0.016199474006152351 -0.0071747601832491499 -0.075076802610403587 0.018256070238627919 0.00023860488213798834 -0.0091262623242719543 -0.044189121913979286 -0.0015126303798332476 0.041022324015619865 0.036517457790490433 0.015482927233476206 0.033003115758473145 0.0036532392002305032 -0.030344966509891273 0.037931069831654708 0.015755077115992232 -0.050267926460064935 0.0047320385312669497 0.018387039945705178 -0.0014611586393371212 0.0024655937689726567 -0.0050038212504490125 0.012514917507813984 0.0058341138348849148 0.020989369098534976 0.02037314917910998 -0.0045855877300669447 -0.056522574447361598 0.0055487464448719789 0.0096767185795097795 0.00019908478835727587 -0.025940674605246326 0.0023167264729121737 0.0082175454339761655 -0.012065739655779464 -0.011581812407114072 -0.026366493345773824 -0.013526263632578023 -0.007316865764170232 0.014067298055697036 -0.018491971480668404 -0.011869261957600479 0.044267185210004618 0.0082286323303983767 -0.014645497356848163 0.013544135265643114 -0.0001643964039380689 0.0060720227416626539 0.011942679131048965
leaf_weight=1879.7386923348531 1190.597807969898 224.56691947113723 676.21699352981523 1031.0501386313699 146.48888806346804 800.54898242186755 2701.0463447617367 491.01778613962233 66.862476541660726 33.196184904780239 3892.2525183723774 818.62559912819415 1688.5071421368048 310.08057497395203 5064.2222715534735 56.551273423247039 3255.6171217621304 740.33222562912852 79.499804127961397 2044.1580063328147 372.51407485175878 1240.1223345492035 2115.5105412655976 412.05623100139201 1184.1987058883533 3671.2344982870854 2106.0493295649067 1218.1629716930911 160.6773893488571 1251.8490403778851 3252.7016203245148 3164.1850230540149 1219.4662539847195 654.96023564273492 1547.7491451131646 198.08945184852928 523.9592397082597 1127.8472580644302 183.41240553371608 6495.2490159685258 597.48872168175876 165.75818313844502 972.21649596188217 810.5476434121374 311.58014018833637 378.57161250687204 824.70334879588336 3102.7803238928318 2103.5341828083619 5338.5070645157248 1396.079227022361 3076.9293319208082 93.214092242531478 1304.5696279034019 4548.2378729307093 2072.3201220061164 356.52842292096466 6366.7260070939083 1037.9002248104662 2813.1321703367867 1310.8777835178189 1238.170064243488 626.43389621982351 1883.9762545442209 431.25130989030004 739.73180628474802 2080.7633155081421 955.1526558836922 2016.0785152567551 2343.7321762687061 2200.7552063968033 1786.9346112711355 576.20900856191292 688.24089543800801 1812.833947841078 1680.7698374595493 849.90933606121689 956.04850530484691 262.54218826349825 2429.189365752507 1327.7962681963108 554.71329187322408 2667.8085774378851 2813.1718848575838 1610.5356985477265 1248.4312569899485 238.04268009774387 2358.7522950519342 1343.650344112888 524.47045684559271 1214.0152129158378 4339.2027219526935 120.81422571837902 1280.7168378224596 173.97520055994391 1829.8432303047739 1035.096388703445 435.94645827449858 392.68023888627067
leaf_count=19388 2224 664 5714 7539 692 4656 5482 1889 313 170 17573 1669 2542 1828 15500 360 8375 1430 343 2507 1821 1975 11224 1136 3518 12499 5858 2707 436 1910 8599 12251 5421 2352 5362 383 1638 7114 449 15504 1057 293 2191 3043 1219 1743 1239 9032 5960 11489 5772 10914 811 2278 11598 7533 1255 16477 1403 3924 2359 1749 2523 10397 685 1626 16162 1883 4253 10541 5236 4878 1423 1706 3157 2715 1828 8221 488 8489 4605 1898 6017 7233 5710 4859 1536 10181 5312 1029 5803 13870 179 2577 521 4417 3233 1049 1033
internal_value=0 0.00869316 -0.00893447 -0.0188799 -0.00357078 -0.0349404 0.0171738 -0.00912456 -0.0268545 0.00151617 -0.00305821 0.00201419 0.0238474 -0.0322997 -0.00662372 -0.0536994 0.0103087 0.0238172 -0.00147663 0.0282581 -0.0246126 0.0130815 -0.00741083 -0.0011203 0.00919487 0.00627278 -0.00196914 0.0112943 -0.0082218 0.0145542 0.00488129 -0.0115736 -0.0341996 0.00721922 0.0020494 0.0331049 -0.0166221 -0.0420536 0.00741876 0.00232262 0.0099837 -0.00496668 0.00859457 -0.00444972 -0.0385078 -0.00646043 0.0192053 -0.00601688 0.00185613 0.00779284 -0.00479956 -0.00721007 -0.0401787 0.0122276 -0.00457214 -0.0168462 -0.000571929 -0.00377756 0.0324383 0.0294766 0.0305683 0.023998 -0.00842167 -0.0324601 0.0194367 -0.00310006 -0.0454711 0.0197324 0.0104062 -0.00723859 -0.00413725 -0.00131915 -0.00250902 -0.0079901 0.0152366 0.0147101 0.00690724 -0.0535892 0.0270662 0.00484433 -0.00592568 -0.0173104 0.00791099 0.0118504 -0.0161708 -0.00236153 0.000579889 -0.00451162 -0.0120333 0.0248482 -0.0232308 -0.0099086 0.0115727 0.00051666 0.00995331 0.00738969 -0.00945458 -0.00248335 -0.0050076
internal_weight=149342 75693.1 73648.7 27352.7 14004.3 13348.4 34694.7 11643.6 9328.19 40998.4 46296 19108.4 17591.7 7218.14 27187.6 4020.19 17103 2360.67 29499.4 11928.9 3966.68 13810.8 5946.01 7676.94 11499 13162.4 14013 12570.6 2110.05 5662.84 12343.8 13174.6 2250.52 10308.4 17274.9 7604.43 2048.06 2140.45 3245.18 17195.4 4148.44 5960.31 9653.47 5269.79 5170.08 12224.4 3855.7 5794.55 9091.09 8714.94 10767.9 7210 4858.5 1716.63 10235.3 5964.57 10700.2 6723.25 1778.23 5560.27 5362.18 2549.05 5687.07 1977.19 1139.13 9371.78 2881.31 4324.43 8469.28 4459.24 5303.54 3292.22 4045.82 5653.88 3031 2635.92 3550.96 1012.6 1514.39 3976.94 2043.19 715.391 6453.2 3785.39 1989.11 5157.71 3909.28 8458.07 1716.16 955.722 1524.1 4965.64 5459.32 3067.65 913.707 3933.38 3393.85 582.435 3469.61
internal_count=473627 178605 295022 129380 44531 84849 66067 39957 49766 112538 165642 70061 28827 42514 95581 35083 37240 4574 84750 18062 20093 29121 30522 19864 27788 39539 44854 27146 7252 10765 37870 50727 12960 25564 47430 10922 9269 15695 8021 47087 8367 16450 23212 24808 33245 37320 7103 16157 29271 20043 36833 25621 32026 3414 29867 25106 31583 17732 2833 8415 8032 4108 18269 11208 2163 31061 20818 7140 19694 21765 14268 8119 13370 18099 5864 4598 7310 8581 2398 13851 6939 2334 15441 9424 7453 18894 14035 28914 7133 1714 7631 16393 11668 7455 2147 10377 13414 1741 11947
is_linear=0
shrinkage=0.0446


Tree=2
num_leaves=100
num_cat=0
split_feature=7 21 46 7 12 46 12 12 46 7 18 60 44 16 2 65 21 21 0 65 12 56 65 2 2 18 16 20 16 46 18 28 12 46 58 58 7 61 6 58 12 42 2 64 27 44 46 7 44 58 16 16 16 27 11 46 42 46 44 11 7 61 7 16 0 65 16 17 61 64 39 21 58 0 21 3 2 39 53 64 6 65 2 42 53 11 58 16 29 12 12 60 2 60 7 20 16 12 58
split_gain=7911.58 1927.33 1952.47 1166.13 734.489 673.372 725.922 624.672 616.408 529.426 405.246 392.12 276.294 267.068 256.576 230.797 222.132 191.791 190.563 177.749 168.464 163.775 160.311 160.066 144.616 141.047 140.065 137.216 137.026 136.005 134.67 133.428 131.689 140.248 123.214 122.392 118.212 113.767 112.993 111.212 109.989 107.59 105.011 104.189 101.913 100.288 97.7504 95.0366 94.4165 90.8337 87.9149 86.4885 86.0941 83.6414 80.7836 80.5062 80.1799 101.351 89.1848 80.1484 111.899 80.0298 76.7431 76.1788 74.5757 73.3178 72.2635 70.9171 70.4235 70.0636 69.866 67.7254 67.6433 67.1864 65.9059 65.8171 63.9469 65.6185 62.9267 65.2448 62.5784 62.464 61.9643 61.8441 66.5076 60.7812 60.3865 60.2056 59.6249 57.7791 57.6411 57.2199 57.2163 65.4282 57.0703 56.9035 56.6384 56.3972 73.6709
threshold=0.52000712250712267 0.11043317052832213 -29.499999999999996 0.67167293233082714 93.500000000000014 -2.4999999999999996 113.50000000000001 96.500000000000014 -29.499999999999996 0.32713809455406101 0.17781017168772276 0.088562091503267992 6.5000000000000009 0.66666666666666674 6.5000000000000009 1.0000000180025095e-35 0.06661506707946338 0.23080060233404445 8364.5000000000018 1.0000000180025095e-35 157.50000000000003 14.500000000000002 1.0000000180025095e-35 8.5000000000000018 80.500000000000014 0.088270391688895153 1.0000000180025095e-35 0.20055865921787713 -0.83333333333333337 -31.499999999999996 0.087010599178022938 0.16956719128329301 98.500000000000014 -1.4999999999999998 0.87500000000000011 18.500000000000004 0.38096348096348104 11.500000000000002 0.91287878787878796 8.7500000000000018 105.50000000000001 -5.4999999999999991 73.500000000000014 0.085960591133004943 0.021390986044383439 3.5000000000000004 -1.4999999999999998 0.37513347219229581 8.5000000000000018 7.7500000000000009 0.66666666666666674 1.8333333333333337 0.83333333333333359 0.055375180375180376 103.50000000000001 -24.499999999999996 -1.0000000180025095e-35 -8.4999999999999982 9.5000000000000018 141.50000000000003 0.48564142379359782 20.500000000000004 0.29895270665274326 0.66666666666666696 3589.5000000000005 1.5000000000000002 -0.83333333333333337 -1.2296703296703295 40.500000000000007 0.016807909604519777 0.13655788655788659 0.067888810514770262 6.2500000000000009 731.50000000000011 0.23959080583452896 2.5000000000000004 25.500000000000004 0.26933760683760694 67.000057220458999 0.081356867071152791 0.18465909090909094 1.5000000000000002 21.500000000000004 -2.4999999999999996 68.062450408935561 105.50000000000001 0.075000001117587103 -2.5833333333333326 0.16917420814479642 115.50000000000001 104.50000000000001 0.28035087719298252 34.500000000000007 0.064866760168302964 0.467883227883228 0.079042029534267325 -0.41666666666666669 102.50000000000001 3.1250000000000004
decision_type=10 10 10 10 8 8 8 8 10 8 10 10 8 8 10 10 8 10 2 10 10 10 10 10 10 10 10 10 8 8 10 10 8 8 8 8 10 2 10 10 10 8 10 10 8 10 8 8 8 8 8 10 10 8 8 10 10 8 10 8 8 2 10 8 2 10 8 10 2 10 8 8 10 2 10 2 10 10 8 10 10 10 10 8 10 10 8 10 10 8 10 10 10 10 10 8 8 8 10
left_child=1 2 4 11 45 14 25 8 21 30 22 19 28 59 34 39 41 -15 23 29 24 36 44 97 64 -7 76 49 87 -2 71 -30 33 -31 -5 38 92 -19 56 80 70 -6 48 53 47 -1 -39 67 89 51 -29 66 -38 73 90 -37 58 -58 91 86 -61 -23 -47 -26 -14 -57 -25 -9 94 -51 -27 -4 -56 -18 -28 81 77 -20 79 -33 -11 95 -32 84 -55 -42 -12 -8 -44 -34 -46 -16 -3 -94 -49 -10 -72 -13 -99
right_child=3 7 9 5 16 6 12 10 75 15 13 18 20 17 35 -17 43 37 26 -21 -22 61 -24 27 63 40 74 50 31 32 82 78 42 -35 -36 55 52 46 -40 -41 85 -43 88 -45 54 62 -48 68 -50 69 -52 -53 -54 83 72 65 57 -59 -60 60 -62 -63 -64 -65 -66 -67 -68 -69 -70 -71 96 -73 -74 -75 -76 -77 -78 -79 -80 -81 -82 -83 -84 -85 -86 -87 -88 -89 -90 -91 -92 -93 93 -95 -96 -97 -98 98 -100
leaf_value=-0.034477847717724379 -0.064504521392963574 -0.057923801272388727 -0.040861313944208923 0.043989424955306305 -0.049685833874708145 -0.0021082938461254746 -0.0062995430985623487 -0.032593882915455799 -0.012849486186018619 -0.0073740454016909757 0.023390671360625847 0.0082187225552196961 0.0042242209134773015 0.0040879439100317116 0.0069287897445664262 -0.040294944083177298 0.040874399381120093 0.0017771569874337481 -0.016833040743424416 -0.027238557351453759 0.038430399234200253 -0.027318140045252993 -0.030517806445208826 -0.0035786531764842753 -0.01601943288039576 -0.0077053188672373193 0.0084393002202140938 0.011296152188794964 0.026076040985648138 -0.0022009181502890382 -0.030968042702973649 0.032074462536054352 0.0021428129334610858 -0.019924604099380266 0.0087647213464008573 -0.036874235899337325 -0.03195898420521387 -0.0053413263015937868 0.015430918732109604 -0.016760409880139961 0.019437040270695812 -0.031137632504735363 -0.010239932348104851 -0.057132699380359718 0.0026087742638689583 -0.06915607832655031 0.030164071545658196 -0.012383096971938991 -0.004499975141752972 0.0050276854472133415 0.025358306901625612 0.046321978905636225 0.017679031461049381 -0.02528251873144876 -0.0020379095720819522 0.0005300551672226064 -0.024566335049707483 0.0041583947872961685 -0.0074004112090350757 -0.023248233338898503 0.0075929490321829775 0.0089353069346415973 -0.053598294055093414 0.0099485221812483735 0.020191642638488855 -0.053019302998841375 0.0099204148109520787 -0.012897434351127 0.0086499325881561652 -0.0086160320788413822 -0.0040551693595303698 -0.025297088651620284 -0.01133606239739733 -0.029602682931073772 0.034237868793179846 -0.015892549100408042 0.0014968720531196578 -0.00094785753036860957 0.041459109026940069 -0.0070027760916263893 0.0017918353688955052 -0.058995624943913361 -0.0097927035608116591 -0.0018666553754813798 0.021670189202001238 0.0020972731173307954 -0.0017762946921210305 0.019726926392699528 0.0084752682719257504 0.0091453042719764569 0.028419076955148045 0.0173353955841129 -0.059676006946412619 -0.027846780738616364 -0.0021090115869000551 0.0010303555802020931 0.012664755624135176 0.034990969611328866 -0.0050707293131575367
leaf_weight=308.32821173779666 65.958864465355873 671.76230919966474 1418.6404995191842 545.98859943728894 1205.7465524820145 2008.9452338116243 207.75318844243884 550.18548599304631 817.38394973776303 7540.8436619401909 205.01597958058119 290.71219030022621 710.93435703264549 2959.9107575225644 7886.3539431174286 448.65613120631315 27.380099777132273 462.56407670397311 974.83196121267974 511.01123664877377 616.50002546980977 279.47771800030023 550.15428444067948 902.87192936148494 430.53991077374667 652.05644549475983 2063.2521357918158 2837.332806737395 4887.3831523619592 3301.8335331669077 407.07733496511355 1260.5573150357231 4915.1192242959514 1215.8593492312357 311.00832532346249 125.86399176949635 815.80980037199333 170.37987971678376 3127.8208333710209 2180.402648977004 2869.8788866400719 1297.2386688394472 1901.7081844159402 155.81937619578093 575.40304278256372 1294.3850032077171 1572.7323504230008 3168.2170642367564 2352.8542179297656 1941.4950162232853 1288.8923197677359 120.52312689647079 75.648754924535751 648.933752999641 6466.8660911745392 2828.0661212075502 371.97603182867169 710.613415222615 778.55227208323777 785.48009117413312 332.58009148668498 213.09173525311053 1253.9284397843294 469.64790305681527 3254.7038347483613 51.782378647010773 6177.0965007254854 1083.0115967602469 502.25430138129741 1218.5123996683396 521.29759286344051 924.17474012053572 2051.6656595366076 1193.3046879298054 218.24251163844019 1242.4176597392652 3457.7529147267342 1105.6704859286547 2471.2729063723236 90.595356138423085 1841.4638240446802 40.017976538278162 855.07573291403241 644.57722572423518 65.840965637937188 469.4984272280708 2528.5296892459737 1161.489584768191 411.26013213582337 4490.4361801669002 246.3317560814321 1215.0672277328558 195.90783469332382 381.11444084811956 1632.8169905259274 2084.8757302775048 1761.1729686241597 853.69255567342043 101.66017382405698
leaf_count=2414 383 5768 11774 724 10590 6033 501 2812 3676 32564 392 619 1629 7155 20871 4669 75 1085 3388 3890 864 1438 4119 2554 1145 1739 4688 5960 8247 12187 2192 1777 14508 6402 695 667 4722 451 6910 10468 5158 8609 7208 1171 1746 16288 2355 11881 7631 4912 2311 156 230 3927 18868 9302 1364 1651 2534 2686 861 714 12918 1137 5774 481 14101 4120 1489 4054 1333 6033 6471 7595 345 5021 10186 3123 3234 169 6716 425 4237 2541 234 964 6637 1892 1024 11899 534 2635 1830 2563 5093 7253 3652 1380 226
internal_value=0 -0.0129408 -0.0226195 0.00863168 -0.0403954 0.0139281 0.0188405 -0.00591374 -0.0179231 -0.0134038 -0.00274526 0.00344922 0.0245183 0.00488317 0.00740302 -0.00890343 -0.0304704 0.0115116 0.00730393 -0.00128708 0.0164552 -0.0348318 -0.0068339 0.0101324 0.0136685 0.00817179 0.0016117 0.00881175 0.0289029 -0.000575541 -0.028395 0.0309662 -0.000348037 -0.00697364 0.0312205 0.00620838 -0.0401705 0.0214683 0.00795146 -0.00768431 0.0114655 -0.0400777 0.00177829 -0.0216764 -0.00603264 -0.0585927 0.0266866 -0.0101286 0.00348779 0.00607054 0.0156917 0.00883709 -0.0277331 -0.0195303 -0.00298951 -0.00195893 0.00581633 -0.00570024 0.00707947 -0.00400341 -0.0140633 -0.0116099 -0.0615056 -0.00245792 0.0173322 -0.000428684 0.00819723 -0.0195402 -0.00722787 -0.000229558 0.00516005 -0.0347269 -0.00427877 -0.0280118 0.0109125 -0.0072821 -0.0022176 -0.00839681 0.0372157 0.0294453 -0.00557377 -0.00364207 -0.016632 -0.011905 -0.0209404 0.0170028 0.000106828 0.0157691 -0.006907 0.00548726 0.0103608 0.00831944 -0.0490393 -0.0386747 -0.00889144 -0.00287456 0.00884075 0.0254765 0.0307153
internal_weight=140889 56373.4 23711.8 84515.9 8095.48 41797.3 23844.2 32661.6 6817.51 15616.3 25844.1 42718.6 15561.4 9017.19 17953.1 12011.4 5238.84 5165.59 23552.5 19166 5482.33 2632.81 16826.9 15732.8 4865.83 8282.85 7819.75 14486.7 10079.1 18655 3604.97 8709.81 18589.1 4517.69 856.997 17096.1 2140.24 2205.68 14090.4 11562.7 6273.9 2502.99 14071.4 2735.86 16276.8 2856.64 1743.11 6936.49 11758.4 10360.5 4126.23 7200.49 891.459 2580.04 9340.27 3005.71 10962.6 1082.59 9879.97 3851.61 1118.06 492.569 2548.31 900.188 3965.64 2879.85 7079.97 1633.2 5303.29 3160.01 2934.53 2342.82 8518.53 1220.68 2281.49 4184.7 5538.26 2080.5 3822.43 1351.15 9382.31 2942.28 1262.15 1359.35 714.775 3339.38 2733.55 1369.24 2312.97 9405.56 821.735 9101.42 1248.78 577.022 4801.03 2902.26 2282.47 1246.06 955.353
internal_count=473627 257410 145015 216217 66362 93082 45248 112395 33640 78653 78755 123135 26369 21622 47834 54417 34742 11046 58003 65132 10549 17265 57133 36273 9685 18879 21730 34048 15820 61242 24236 13427 60859 18589 1419 46415 15113 3891 35965 49748 12846 19199 42270 15543 53014 31620 2806 25395 34038 25777 8271 16811 4952 14372 27619 10450 29055 3015 26040 10576 3547 2152 29206 2282 7403 9783 16655 6932 18463 8966 6724 17807 25339 7670 5033 16375 16697 6511 5180 1946 39280 11354 6429 6702 4161 6122 7029 2393 8232 26407 2280 23506 10161 4393 16974 10929 4985 2225 1606
is_linear=0
shrinkage=0.0446


Tree=3
num_leaves=100
num_cat=0
split_feature=14 10 47 26 47 11 21 14 24 14 44 24 10 47 65 65 24 10 24 65 10 16 16 11 47 43 28 12 16 39 47 61 16 61 2 21 12 12 14 47 26 24 3 16 61 15 14 61 26 15 43 39 52 57 1 24 47 16 43 59 43 52 24 43 2 43 18 11 22 22 2 22 15 17 26 2 24 16 16 54 43 43 2 10 2 10 21 44 18 43 5 47 65 43 1 24 12 17 65
split_gain=5202.83 1801.68 1293.96 1152.56 879.775 720.743 578.134 529.477 422.457 415.842 351.693 317.071 282.065 275.078 269.47 267.58 226.589 158.674 155.809 153.832 145.502 136.395 134.591 131.349 155.356 123.678 123.554 122.195 110.065 108.013 106.632 237.419 151.067 106.151 105.285 103.291 99.8167 98.872 97.1575 96.5197 92.2045 91.3651 102.263 91.0925 87.9409 87.8267 113.06 85.8561 85.4803 84.9756 82.6054 78.1918 77.9798 74.6159 105.423 74.1829 74.062 72.092 69.8075 69.5639 68.8892 68.1167 67.7518 67.5055 65.1023 63.9638 63.1883 62.6191 61.9011 61.7179 59.0707 59.0305 58.7843 58.634 58.34 92.7353 58.2669 55.9175 55.2374 55.9198 54.4884 54.3246 53.6042 52.6409 52.6286 52.0376 50.0866 49.611 58.9624 49.59 48.7669 48.6189 56.511 50.5826 48.3711 47.7466 48.4755 47.5804 47.2505
threshold=102.50000000000001 0.66386169386169402 -16.656862745098028 0.11130468447541619 -15.386752136752134 105.50000000000001 0.23080060233404445 115.50000000000001 0.099793124989303275 111.50000000000001 8.5000000000000018 0.089982698961937738 0.49999437696806132 10.861904761904762 1.0000000180025095e-35 1.0000000180025095e-35 0.045407685098406751 0.37318238778765095 0.19153907337442835 1.0000000180025095e-35 0.23953729019518497 -1.333333333333333 0.66666666666666696 118.50000000000001 -1.7735042735042723 -0.37171052631579465 0.16720430107526885 154.50000000000003 1.0000000180025095e-35 0.17871660859465741 -17.486842105263154 10.500000000000002 1.0000000180025095e-35 9.5000000000000018 8.5000000000000018 0.06661506707946338 128.50000000000003 95.500000000000014 87.500000000000014 18.607692307692307 0.2496537396121884 0.10205189567683752 1.5000000000000002 0.83333333333333359 7.5000000000000009 4.166666666666667 122.50000000000001 11.500000000000002 0.052786377708978337 3.1666666666666674 3.340579710144937 0.26405826558265594 13.654120763142904 1.8750000000000002 5.366666666666668 0.090972752737458626 -4.3779761904761889 -0.33333333333333309 -11.980000000000002 -0.086856299565462231 1.4472222222222231 -3.0719995498657222 0.18519990578814111 2.5751879699248126 13.500000000000002 11.559027777777773 0.16458300776162946 111.50000000000001 0.080229885057471279 0.31096096096096099 397.50000000000006 0.17025922140667102 3.1666666666666674 -0.14285714285714282 0.11943600581164973 21.500000000000004 0.19153907337442835 1.0000000180025095e-35 0.4166666666666668 65.226745605468764 5.803846153846167 9.8786764705882337 252.50000000000003 0.57884106634106647 127.50000000000001 0.2355310517655719 0.16107674731850416 10.500000000000002 0.29638935417829898 4.8377192982456174 0.19139194139194141 -3.2278846153846099 1.0000000180025095e-35 -1.982758620689651 1.2916666666666667 0.11471591583811037 106.50000000000001 1.6538461538461542 1.0000000180025095e-35
decision_type=10 10 10 10 10 10 10 10 8 10 8 10 8 8 10 10 8 8 10 10 8 8 8 10 10 10 10 10 8 10 10 2 8 2 10 10 10 10 10 10 8 8 2 10 2 10 10 2 10 10 8 10 8 8 10 10 10 8 10 10 10 8 10 10 10 10 10 10 8 10 10 10 8 10 10 10 8 8 10 10 10 10 10 8 10 8 8 8 10 8 10 8 10 10 10 8 10 8 10
left_child=1 3 11 4 8 9 14 39 12 29 13 37 80 23 17 38 44 57 52 74 -10 -11 90 36 25 59 72 43 86 60 31 50 -33 51 -31 -14 64 -3 41 48 49 42 -6 -26 98 46 78 -24 66 87 -19 -30 -15 54 -32 -16 -27 -5 -37 -25 -2 71 82 -48 -9 -54 -7 95 -59 -55 91 -28 -13 -17 75 -18 -35 -60 79 -23 -1 94 -36 -44 -40 -43 -22 -12 -89 -74 -8 93 -93 -69 -20 96 -50 -97 -4
right_child=5 2 16 6 15 7 22 10 20 21 40 26 35 18 55 73 19 30 81 -21 28 45 47 24 27 56 61 -29 33 34 53 32 -34 76 62 58 -38 -39 84 -41 -42 85 83 -45 -46 -47 63 -49 67 -51 -52 -53 65 69 -56 -57 -58 68 77 -61 -62 -63 -64 -65 -66 -67 -68 70 -70 -71 -72 -73 89 -75 -76 -77 -78 -79 -80 -81 -82 -83 -84 -85 -86 -87 -88 88 -90 -91 -92 92 -94 -95 -96 97 -98 -99 -100
leaf_value=-0.020817375629461458 -0.004619315237067813 -0.062579838863932563 -0.030003845214674248 -0.003349587418717511 -0.016534935482198483 -0.01339115664270339 -0.0033938569058922143 0.027384981096975878 0.012411291254939259 0.0074219133183971893 -0.0026213027997498799 -0.0054246709956503377 -0.049571073234843208 0.00684381739055761 -0.043092811734656719 -0.039329737869708219 -0.024246669273414893 -0.02163094393569925 0.066526900065505559 -0.038013697156714508 -0.036474523952297708 0.014059161457735012 0.0082702297487806838 -0.022431974122465524 0.0074639218613780089 -0.039348058757712322 -0.053410691164600795 0.025855390820116869 -0.023114270323500059 0.032961253908181762 -0.0012345281441860797 -0.015434112716499838 0.0043086933719877363 -0.0084126188973228447 0.011114199033511527 -0.00060912722089812986 0.039635447477587696 -0.029607987785644805 -8.3377385016317166e-05 0.036972612643811881 0.015896798745617838 0.011412282842961172 -0.004352396968693887 0.019642831483927953 -0.0091059506479985574 0.034660027133283332 0.024150116232437305 0.027551030110416916 -0.020093714102566409 0.0077427684103328464 -0.0028817469882197336 0.0060248589296718284 0.026991557945752427 -0.0050121427467288088 0.011036380894925854 -0.016331412627828508 -0.0064040163574284594 -0.00018218352960676856 -0.05184858111243118 0.0056438861703913329 0.0093974554002828423 0.0076257851870040133 0.023332662278683011 0.038992292095075716 0.012134919041415141 0.005520684079397464 0.0081511224750358581 -0.0063769794838406599 0.0097103337756945657 0.012103972474055275 -0.042613127821498342 -0.0044014833947336809 -0.046589972257422597 -0.017426973987763921 0.00060408789953250979 -0.0042296787881856597 0.0097996997639136635 -0.030827548689207469 0.032955333589155943 0.027123417909820462 0.0081545130168840605 0.014574868584839158 -0.0099444604449182069 -0.015693601031476965 -0.012459182237083151 -0.0041996646281827251 -0.01715556758887497 -0.012632422415778406 -0.079051352953636397 -0.0067450356451748605 0.012071007797765404 0.00049283321456328926 -0.030910041143339739 -0.033351251422608766 0.036904891831306741 0.0085624533919620785 0.0030996192891418134 0.034911891994830059 -0.058042710231172724
leaf_weight=2153.5596925895661 1245.1198275769129 1825.8277248651721 1164.8162000535522 1766.2917992272414 3235.1519919892307 1696.4201649916358 617.69935916317627 691.41426104400307 420.16116776689887 920.50503878854215 2765.4208228664938 89.303336085751653 1271.6444714227691 942.20226613525301 303.31200748938136 517.11040268884972 666.22310086362995 2145.0545519853476 126.49329605698586 313.59141346090473 575.26819169335067 2922.9059857241809 612.15852742735296 189.67303933366202 8774.6626976418775 225.56851532170549 99.417918527498841 955.02590090315789 1445.3993790731765 516.14075837470591 3971.4627867378294 1026.5848221327178 3095.2482039132155 1421.9175810748711 5283.3955511730164 125.9281603761483 363.08558593643829 202.44810874201357 7241.6464307080023 130.67103005386889 636.66808304656297 464.94654936809093 4344.2352911215276 1421.2230403888971 406.68633677111939 1680.4154914114624 1364.2070319941267 1865.1468516038731 202.86365623213351 1282.7889100974426 599.64272471144795 209.03460429375991 1408.6935457568616 5989.4648720743135 2143.6387097379193 650.75748182542156 343.61586809018627 1761.9164285236038 321.19723631860688 2336.5256837955676 1583.6721282331273 201.57818003883585 905.07795474119484 1113.1114849802107 2902.6761954631656 345.1055417554453 321.56515600066632 1058.9837497910485 4380.3672857424244 450.2096859626472 71.311486368067563 97.327806007117033 818.47455137223005 464.11514716525562 1716.6831971325446 1496.6535496595316 462.76989614125341 1206.3667204356752 488.81938160583377 842.75406305585057 136.73820399679244 191.09203697554767 251.2911962904036 1003.6833583018743 754.984376904089 4867.2152239237912 504.34095952147618 875.83222969947383 27.50024544633925 68.017828825861216 1175.4767780741677 5760.850303635234 116.28248900175095 159.48683700151742 891.88655241113156 1250.0713484007865 1538.5403155880049 153.5038225594908 134.49049333389848
leaf_count=11485 3771 24086 9935 4914 17140 6474 1706 1198 1022 2191 9464 422 13897 2054 2931 5583 3981 11991 137 3255 3414 6081 1508 830 21338 885 899 1893 8427 822 10984 4253 8777 5763 11829 692 593 1553 23113 179 1453 1260 17426 2555 2606 2456 2577 3108 645 3267 2293 807 2436 20057 6978 3826 1013 5020 2630 7163 3774 916 1606 1609 6090 745 891 3746 9593 1138 306 525 8101 3854 6274 7634 1205 9156 719 1516 449 396 807 5913 3153 17480 2286 3089 99 393 2630 15318 717 606 1220 2517 3703 277 2130
internal_value=0 -0.00780453 -0.0261763 -0.00520342 -0.0110575 0.00987542 0.000756935 0.00648165 -0.0219146 0.0170037 0.00991668 -0.0480816 -0.0308143 0.0124434 -0.00155215 -0.00619384 -0.0135402 -0.000738311 0.0231861 -0.00796064 -0.0127007 0.02374 0.0160531 0.0101379 0.00813958 -0.000696608 -0.0315212 0.0105935 -0.0149877 0.0105773 -0.00290729 -0.00737604 -0.000605525 -0.0111793 0.0135661 -0.0399958 0.0173289 -0.0592949 -0.0051728 -0.00115272 -7.7631e-05 -0.00742432 -0.0102733 0.00916276 -0.0272469 0.0255241 0.0232417 0.0227915 -0.00155777 -0.00213408 -0.0175392 -0.0194253 0.0172109 -0.000462246 0.00306504 -0.0248521 -0.0194813 0.00458657 -0.0326244 0.00353105 0.00322356 -0.0105476 0.0120097 0.030824 0.0150721 0.0227735 -0.00995238 8.38429e-05 0.00687069 -0.00381363 -0.00221726 -0.0292287 -0.0400701 -0.0289823 -0.00552824 -0.0104011 -0.00393428 -0.0352557 0.0188239 0.0169862 -0.0190824 0.0364952 0.0101559 -0.00648316 -0.00125333 -0.00283607 -0.027461 -0.00559086 -0.0146682 -0.0435465 0.00673703 -0.00180954 -0.000126451 -0.00991773 0.0405964 0.00533155 0.000390719 0.0114529 -0.0329157
internal_weight=134279 75003.4 9301.54 65701.8 33147.4 59275.1 32554.4 40157.7 10254.3 19117.4 27697.2 3402.4 5215.43 22108.9 28284 22893.1 5899.14 27329.9 3905.47 4193.15 5038.89 9332.72 4270.48 18203.5 14246.3 3095.38 1374.12 11150.9 4618.73 9784.7 19421.3 6866.53 4121.83 3539.12 6955.91 2925.14 3957.18 2028.28 21911.9 12460.6 5588.21 13915.2 8583.07 10195.9 1705.99 8412.21 6731.8 2477.31 12329.9 4951.54 2744.7 1654.43 2696 12554.8 6115.1 954.069 569.184 7908.58 1653.49 2526.2 2828.79 398.324 6439.76 2477.32 3594.09 1753.8 2017.99 10311.9 6142.28 6439.67 7166.91 196.746 975.796 981.226 3879.56 2162.88 1884.69 1527.56 4254.48 3765.66 2290.3 1209.47 5534.69 5347.92 7996.63 5332.16 1079.61 3668.75 903.332 886.492 1793.18 7095.6 5877.13 1218.47 1018.38 3144.98 1741.4 1403.58 1299.31
internal_count=473627 330572 72710 257862 156155 143055 101707 103297 61233 39758 67918 36895 38309 50546 92755 94922 35815 85998 6988 21144 22924 17149 8952 43558 35677 9891 11256 25786 21902 22609 66471 27314 13030 16202 15064 26375 7881 25639 85485 35379 17372 59219 40479 23893 14671 14958 12502 4616 35200 15919 14284 9234 5235 39157 17962 6757 1898 19527 12478 7993 7545 2340 14242 4186 7288 3181 7365 27835 14613 21195 20693 1424 8916 9437 17889 11615 6968 11786 8316 7597 11934 1753 12636 23339 26266 18740 5700 12652 3188 8494 4336 20387 16035 4352 1357 7142 4348 2794 12065
is_linear=0
shrinkage=0.0446


Tree=4
num_leaves=100
num_cat=0
split_feature=14 7 46 49 60 46 14 46 21 29 45 50 18 45 21 45 51 12 7 7 26 12 44 47 45 26 21 44 43 47 14 26 14 18 3 26 26 47 27 18 21 38 64 47 43 21 52 43 46 45 15 45 47 45 53 14 45 12 14 57 44 14 7 56 14 45 12 60 53 3 7 12 59 7 45 7 64 54 21 27 25 52 45 14 45 21 54 64 44 56 43 59 7 13 12 12 44 46 45
split_gain=4005.06 1790.8 1374.01 799.18 755.464 699.399 481.462 605.948 434.947 328.21 316.471 294.104 233.161 211.711 203.636 184.255 182.427 169.595 156.605 151.722 145.368 134.761 131.934 131.674 130.091 128.138 125.139 119.137 106.933 106.917 103.988 103.677 100.641 99.3597 103.686 93.9304 90.9817 97.1025 83.9103 83.1629 82.7982 80.8526 80.7384 80.5753 77.3021 74.4718 74.2283 78.8818 68.3283 68.1596 68.0747 67.9189 66.8878 66.6181 75.7642 65.6942 65.6949 103.257 65.5715 65.4702 72.3176 64.9405 64.4776 62.1387 60.6633 59.3134 67.5004 59.2008 58.2357 57.6659 57.0627 56.9012 55.9521 55.7366 54.5527 54.3673 53.1975 52.5686 52.487 51.4129 50.6088 50.5989 50.4097 56.8498 50.1229 48.3801 48.0789 55.5145 47.8101 47.2685 46.4137 45.9695 45.8425 44.9851 47.2073 44.318 53.3299 56.2553 44.3057
threshold=99.500000000000014 0.40000644994840051 -29.499999999999996 14.500000000000002 0.087228260869565227 -29.499999999999996 113.50000000000001 -1.0000000180025095e-35 0.25876005103760419 0.14314171883893004 115.50000000000001 0.49712643678160923 0.040134228187919473 102.50000000000001 0.076101221043021819 100.50000000000001 1.1377339247471163 93.500000000000014 0.58214455297788648 0.59631076984018183 0.20031347962382448 124.50000000000001 8.5000000000000018 9.0217391304347831 122.50000000000001 0.19236835719485565 0.23959080583452896 6.5000000000000009 1.0199999999999962 17.033333333333335 105.50000000000001 0.11546123199509654 118.50000000000001 0.16375287813028508 1.0000000180025095e-35 0.10129370434394692 0.056753073802223671 -15.970588235294114 0.085801928133216493 0.10148605900095639 0.18183312905443785 0.098126750700280124 0.15849282296650721 -8.9814814814814792 -8.1396103896103806 0.06191568370467454 31.81207974751791 -0.65942028985506329 -5.4999999999999991 121.50000000000001 3.8333333333333335 92.500000000000014 4.0208333333333295 109.50000000000001 68.062450408935561 107.50000000000001 117.50000000000001 123.50000000000001 140.50000000000003 3.1250000000000004 6.5000000000000009 128.50000000000003 0.54015512265512278 -14.499999999999998 122.50000000000001 109.50000000000001 109.50000000000001 0.037386443046820407 44.70710754394532 3.5000000000000004 0.21432260920897289 116.50000000000001 -0.0061503395397893039 0.61905118472509801 111.50000000000001 0.53832029082029087 0.15184453227931491 -12.184762954711912 0.27274776621034519 0.16632088520055327 427.50000000000006 14.123582839965822 90.500000000000014 81.500000000000014 97.500000000000014 0.076981175923774126 9.1428279876709002 0.10300618921308578 6.5000000000000009 15.500000000000002 -7.7752525252525251 0.11862377148438645 0.76111166611166625 105.83333333333336 149.50000000000003 107.50000000000001 4.5000000000000009 -3.4999999999999996 97.500000000000014
decision_type=10 8 10 2 10 10 10 8 10 10 10 10 10 8 8 8 8 10 8 10 10 10 10 8 10 10 10 8 8 10 10 8 10 10 2 8 10 10 8 8 10 8 10 10 10 8 8 10 8 10 8 10 8 10 10 10 10 10 10 10 10 10 10 10 10 10 10 8 8 2 10 10 10 8 10 8 10 10 10 8 2 10 10 8 8 8 8 8 8 8 8 10 10 10 10 10 8 10 10
left_child=1 2 9 6 5 11 13 10 19 17 32 14 -4 30 -3 -5 58 40 95 20 36 49 42 -10 -23 27 35 64 50 33 45 75 53 34 -17 85 37 -6 67 -13 70 52 62 44 -26 -2 -25 -48 -35 68 -11 -47 -38 -8 -55 86 -57 -58 -9 60 79 -45 82 -19 -18 66 -37 -14 69 -12 -1 -67 -24 -70 -34 -16 -33 -50 -52 -21 -60 -65 -7 -84 -61 90 89 -88 -79 -36 -20 -30 -86 -29 -95 96 97 -15 -32
right_child=3 4 12 15 8 22 7 16 23 28 21 39 38 18 31 29 25 63 26 59 -22 24 72 46 43 -27 -28 93 91 -31 98 76 74 48 55 65 41 -39 -40 -41 -42 -43 -44 61 -46 51 47 -49 77 -51 78 -53 -54 54 -56 56 57 -59 80 84 -62 -63 -64 81 -66 71 -68 -69 73 -71 -72 -73 -74 -75 -76 -77 -78 88 -80 -81 -82 -83 83 -85 92 -87 87 -89 -90 -91 -92 -93 -94 94 -96 -97 -98 -99 -100
leaf_value=-0.065346750402568834 -0.0064568702492393305 -0.037152066906612526 -0.024676701237061192 0.015702781506534935 -0.025822413297968728 0.0016115355990870388 0.029608855269341112 0.027621951167167692 0.0038509808264465544 -0.0032611172608106769 -0.0067758432657017541 -0.014380807998747219 -0.021299499876487344 0.014146816391987966 -0.040660355050390735 -0.018103085475679168 0.014862036572588165 0.01016870853157765 -0.062372359818507403 0.0056206302552271395 0.0063012340431834951 0.022502026617080652 -0.016040363350738818 0.0064838828888711597 2.6236592432695499e-05 0.026331363949965537 0.021244746372248539 0.026867461446615566 -0.013526040101952149 0.022800788363702029 0.042904113582675554 -0.0094880148194002121 0.05137385610336162 -0.0036260401025334124 -0.021395345734257241 0.0065265069756529097 -0.0027371959387944029 -0.0065160107967927984 -0.0037080130126408866 0.0043686172226897035 -0.026962681654022581 -0.00014564746517751375 -0.011906592196816621 -0.00020589080687212523 -0.060665200769015493 0.04059240699833197 0.0079890143736474194 0.033051274376411977 -0.0020025792091343652 -0.013949285756282147 -0.04741863211685534 0.011651282320549398 -0.014418846703302532 0.00065972547026947788 0.024038420304754428 0.0035468842699861629 -0.022860206720345021 -0.0023115492654933226 0.028608926110935375 0.0064884161603380366 0.00092233928224044444 0.0091159999687926291 0.0016679926662079921 -0.042624561650929767 0.024689961061567858 -0.0037303437760869188 0.017616905992229405 -0.0093918277797449823 -0.0088562575688782997 -0.058597667372817637 -0.051284062344179884 0.012695957302331005 -0.0061308392790301513 0.01155284010124445 0.026897605652798084 -0.022397820608317093 -0.061009464856648613 0.023323324373727271 0.015791873398636722 0.015993249498488453 0.05405047457901551 -0.014301605178382446 -0.017921474807744843 -0.0047162237717181688 -0.011479578236638539 0.0020775950871707782 -0.00044546501596861134 -0.038460218909596978 0.0072531757166050615 0.01862331952337198 -0.008131284071715086 0.019974593556728235 0.013847001232852775 0.0039879024141996847 0.021701695023953076 4.361708528795942e-05 -0.012742580839583099 -0.041436372222969753 0.022039867450411133
leaf_weight=966.12348581640981 413.64652935555205 2052.7384392728563 2356.3254954975564 1283.4175339275971 820.25965121993795 1625.0792709977832 512.99647179339081 2315.9073405005038 942.13203604705632 105.58756180759519 491.09829168207943 1006.1632119906135 1219.5439174459316 291.53001219313592 416.1560597945936 1072.6807845532894 2547.2966810055077 70.142624251544476 32.809447702020407 2223.4158988690469 2516.8551435647532 1031.6161353895441 2306.3973128555808 386.99383740220219 102.42662635166198 3105.7011676384136 1054.7448253016919 234.50530433282256 458.21353933494538 340.39218159765005 280.85124417021871 1515.4065698399208 281.86895802244544 1904.2125124386512 813.84371546050534 2655.1094413250685 1974.1182382395491 1413.7493215140421 3625.3215529504232 882.6348189660348 200.66267607314512 5564.5711453813128 1570.4408662926871 2126.0332322265022 69.998973000794649 179.02676719333977 310.2374746222049 1311.8415474491194 835.12607233878225 878.91406769026071 403.82275147363544 1672.2520432332531 1932.4165156204253 675.19596343487501 467.36260570213199 2986.0137056168169 564.80543520487845 3520.7518759523518 265.45570661686361 699.59398705977947 3087.0381623590365 4922.7182034502039 6908.0639332539868 417.8119458402507 2470.9806987103075 1269.3871477553621 1860.1849590828642 2625.7527733598836 364.06642200052738 46.90037951990962 1457.590265491046 626.17427993845195 2239.2047068530228 985.00630967970937 518.30419872142375 1508.5710580605082 41.041603349149227 496.20714060030878 27.635235926136374 1667.2765332628042 385.32775853201747 181.43549235584214 851.38358100969344 2740.5565255174879 1137.6032340447418 2780.2657078886405 841.412333548069 84.121424769051373 1444.3114245450124 62.946217637509108 766.01775741577148 98.851323444396257 162.05081733502448 2182.4700139071792 347.48471683077514 3762.4493731898256 1319.6411958578974 41.27963550388813 745.57372599700466
leaf_count=14681 1387 19709 21423 3048 5133 7860 974 3528 2304 470 1386 4713 8695 960 3849 4488 4785 346 185 6057 6588 2294 11968 832 386 4825 1920 513 2810 588 478 6958 427 5929 3260 5968 6885 5962 16237 2773 1735 18856 7455 6466 386 334 631 2164 1906 2822 3933 3742 8157 1662 950 8241 2117 11731 413 1645 8879 13725 23130 3891 4023 2995 3582 13525 1101 156 18640 1473 9811 2196 971 9736 348 860 100 3625 481 1189 4603 11265 3767 7347 2690 378 3141 181 2566 361 379 4558 637 11753 4949 131 1556
internal_value=0 -0.00768565 -0.0217089 0.00801308 -0.00383823 -0.00927448 0.0109566 0.014791 0.00149647 -0.0424612 0.00805537 -0.0208169 -0.0124415 0.00565016 -0.0260041 -0.000514083 0.0213407 -0.0494942 0.00358435 -0.000554573 -0.00342059 0.0048272 -0.00457693 0.0176235 0.00768312 0.0186666 0.00663078 0.0156064 -0.0212775 -0.00190551 0.0159773 -0.019427 0.0225351 -0.00248132 -0.00500321 0.0050866 -0.00551204 -0.0136102 -0.00858074 -0.0056128 -0.0546108 -0.00360059 -0.00239059 0.00556441 -0.0245431 0.0106318 0.0240758 0.0282654 0.00287613 -0.00368958 -0.0354842 0.0144567 -0.00851879 0.0162446 0.0102334 -0.00341832 -0.00147902 -0.00515528 0.0311512 0.00398463 0.00602399 0.00630263 -0.00115707 -0.0294159 0.0197037 0.0083181 0.0110982 -0.0131715 0.00108254 -0.0113164 -0.0568947 0.00168949 -0.0111615 0.00603616 0.035535 -0.0263529 -0.0108545 0.00734126 -0.0433417 0.0100687 0.0436917 -0.0340696 -0.00490018 -0.00784961 -0.00312704 -0.000698264 -0.0110206 -0.00391389 0.0113687 -0.0185084 -0.0103746 -0.00755946 -0.0083123 0.00816416 0.00642569 -0.00262716 -0.00871556 0.00721572 0.0277607
internal_weight=129360 66028.8 14214.8 63330.8 51814 25663.8 47080.6 27329.6 26150.2 4387.88 13474.5 7422.71 9826.94 19750.9 5533.91 16250.2 13855.1 3293.77 16459.6 23198.9 14222 11018.8 18241.1 2951.2 8252.79 10888.4 11044.7 7782.74 1094.11 14966.8 3291.35 3481.18 2455.73 14626.4 9946.58 9989.95 11705.1 2234.01 7470.62 1888.8 2624.38 9471.11 13695.5 7221.18 172.426 2264.93 2009.07 1622.08 4679.86 2765.99 537.046 1851.28 3906.53 1655.56 1142.56 8873.89 7071.57 4085.56 2966.69 8976.98 6977.73 7048.75 12125.1 669.39 5018.28 6410.86 4515.29 3845.3 1887.07 537.999 2423.71 1895.56 4545.6 1349.07 800.173 1924.73 1556.45 2775.64 431.458 3890.69 650.783 599.247 5217.02 3591.94 1999.25 3579.09 1802.32 925.534 1940.52 876.79 798.827 557.065 1299.65 2764.46 2529.95 5414.9 1652.45 332.81 1026.42
internal_count=473627 314078 108036 159549 206042 124178 110991 59665 81864 48156 35902 48086 59880 51326 40600 48558 23763 40482 43829 75933 51581 30918 76092 5931 23257 19341 26036 14516 7674 45510 7497 20891 4984 44922 33086 24116 44993 11095 38457 7486 35056 33898 54313 20963 772 5463 3627 2795 11836 7661 4503 4076 15042 3586 2612 28598 22089 13848 4422 24352 18561 20191 46858 5426 8808 14018 9550 22220 4839 1542 33321 4468 21779 3297 1398 13585 7306 5907 4033 9682 894 5080 23728 15868 5791 10098 6509 3068 4001 3441 2751 3171 4146 5708 5195 17793 6040 1091 2034
is_linear=0
shrinkage=0.0446


Tree=5
num_leaves=100
num_cat=0
split_feature=14 18 46 44 10 11 10 21 46 14 2 12 10 39 27 18 11 12 2 10 10 44 26 58 30 26 47 21 10 46 21 11 2 21 16 2 13 11 14 21 57 53 12 53 11 53 16 18 2 26 21 10 14 2 10 11 12 47 16 47 16 14 59 26 14 1 21 16 0 27 11 39 13 44 26 58 26 53 10 16 0 53 12 16 39 27 59 22 15 16 10 16 30 21 4 40 26 0 26
split_gain=3405.75 1258.87 1182.94 627.204 535.982 672.134 450.186 368.061 329.748 367.378 196.447 194.166 178.308 158.621 156.173 142.345 139.79 140.814 139.689 121.577 109.027 107.821 106.348 104.919 103.537 101.146 103.463 100.441 100.292 96.3836 93.5395 92.643 90.5129 90.2721 87.6198 85.7789 85.3561 83.8002 82.2589 79.5562 79.1117 78.7091 78.5761 78.0993 75.3566 71.2038 71.1536 70.8204 70.7962 70.6773 70.0618 69.3599 69.0345 66.0519 64.347 67.0049 63.6708 63.6674 61.3165 60.4618 59.5062 58.6691 57.8733 57.7739 56.1772 55.8978 55.5308 53.3703 53.3028 55.4215 52.7652 51.9443 51.8239 51.6201 51.1588 50.8888 54.3476 50.7957 50.7087 50.3764 56.9951 51.9542 50.1669 49.9033 49.2965 49.082 48.869 48.1233 47.6251 47.588 46.6099 56.2512 47.3832 87.5998 46.5687 46.5252 46.4042 46.3688 46.118
threshold=102.50000000000001 0.069035604149144961 -29.499999999999996 6.5000000000000009 0.55807886557886566 68.500000000000014 0.59374259727200918 0.18671351393593155 -1.4999999999999998 118.50000000000001 256.50000000000006 91.500000000000014 0.53227633477633485 0.22171717171717178 0.23000153069034138 0.21229645903334196 108.50000000000001 114.50000000000001 37.500000000000007 0.36082939119703833 0.31089105339105344 9.5000000000000018 0.15505948679683293 1.0000000180025095e-35 125.50000000000001 0.14308980921358774 -5.9827586206896575 0.16402639228726187 0.33604256854256859 -1.0000000180025095e-35 0.086101913171449607 98.500000000000014 46.500000000000007 0.14494897428789247 -1.333333333333333 317.50000000000006 73.583333333333357 121.50000000000001 146.50000000000003 0.25876005103760419 4.1250000000000009 75.448322296142592 111.50000000000001 63.449335098266609 101.50000000000001 83.000041961669936 1.8333333333333337 0.22645541041767461 53.500000000000007 0.11460391963109355 0.18394767596533904 0.2681560596266479 79.500000000000014 11.500000000000002 0.33035979543332489 70.500000000000014 162.50000000000003 -8.7817460317460228 1.0000000180025095e-35 -11.97916666666667 -1.8333333333333333 88.500000000000014 0.0074020781866280258 0.10420688545688547 91.500000000000014 7.2250000000000005 0.088677483014718075 -1.8333333333333333 2799.5000000000005 0.28604963112005372 141.50000000000003 0.25075757575757585 87.833333333333357 3.5000000000000004 0.085166827852998075 4.6250000000000009 0.14914703886788797 38.752031326293952 0.2355310517655719 0.33333333333333343 7523.5000000000009 58.562517166137702 99.500000000000014 1.166666666666667 0.20037878787878791 0.085207219925380676 -0.06166134203971161 0.19241053064582478 4.166666666666667 1.416666666666667 0.19076976944624005 -1.4166666666666665 93.500000000000014 0.29449033936757002 0.3133928571428572 32.500000000000007 0.2059312096931796 1144.5000000000002 0.17247450218552698
decision_type=10 10 10 8 10 10 10 10 8 10 10 10 10 10 8 10 8 10 10 8 10 10 8 8 2 10 10 10 8 8 8 8 10 10 8 10 10 8 10 10 10 8 10 8 10 8 10 10 10 8 10 10 10 10 10 8 10 10 8 10 8 8 10 8 10 8 8 8 2 8 10 10 8 10 8 8 10 8 10 8 2 8 8 8 10 10 10 10 10 10 8 8 2 10 10 2 10 2 10
left_child=1 2 6 8 7 11 19 13 16 28 14 18 32 25 21 90 42 -18 -6 43 27 31 40 47 59 26 30 -11 33 -17 -3 -5 -4 84 -30 41 -8 -19 46 -31 68 54 44 -1 88 -25 48 53 -33 64 77 56 97 -16 72 -56 -40 61 63 83 -29 -13 73 -43 -21 -23 94 -32 -7 -70 -53 -39 -15 -36 -62 -41 -77 -12 -47 80 -22 -81 87 -20 -10 -34 -35 -27 -2 -38 -9 -92 93 -93 -51 -28 -75 -14 -26
right_child=3 4 12 10 5 22 36 15 9 20 50 57 52 35 23 29 17 37 24 49 79 65 -24 45 98 82 95 60 34 39 67 38 85 86 62 -37 89 71 51 75 -42 58 -44 -45 -46 78 -48 -49 -50 66 -52 70 -54 -55 55 -57 -58 -59 -60 -61 74 -63 -64 -65 -66 -67 -68 -69 69 -71 -72 -73 -74 96 -76 76 -78 -79 -80 81 -82 -83 -84 -85 -86 -87 -88 -89 -90 -91 91 92 -94 -95 -96 -97 -98 -99 -100
leaf_value=-0.021814767221078411 0.0098196650411817906 -0.025478402614732588 -0.002787266861225976 0.020128092499335729 -0.048742926017618898 0.0094831338690878706 -0.059214059951637421 0.017768767049221649 -0.00093750822630924813 0.020227192801868864 -0.037217919275182428 -0.041011755456625588 0.013569845177770247 0.015468282920209431 0.031709591189711429 0.0036989864053020953 -0.0075229309155906456 0.013226353730814093 -0.051766127518403475 -0.03623269240477215 0.017670506654553407 -0.0050091953545337011 0.0028728341741767909 0.0022291519851503215 -0.015512555262527516 -0.016018279714803029 -0.0046658080905229819 0.0085651272116771988 -0.028659462734668767 0.0085232599227125054 -0.056601644838169839 0.002799664694530924 -0.018085645810264572 0.0079921991977234888 0.041804187115201147 -0.023054391134071574 -0.03982531234801652 -0.0072922900550413689 0.015135985643921488 0.0066267903072627019 -0.01506312764947005 -0.0093058066143608398 0.0259079265100731 0.0053892626202326176 0.00035957684034198953 0.039144431735522067 0.028239486918618526 0.028710782870771622 -0.0055519770447060995 -0.036282910901758565 0.0020863103719923515 0.033760750207360163 -0.0089468228540544696 0.0084246381717529451 -0.0323637897237712 -0.0030358409504231878 0.050402545167289113 0.0012337939849955753 0.010099596967369765 -0.011904581464485383 0.014850989625734312 -0.012960213571264308 0.012414135396110778 0.0048545635679210783 -0.016906791147443735 -0.039472219575887209 -0.010411168170779755 -0.0097348873818051927 -0.0092056095010574941 0.0063202029850041785 0.0010346500355661722 0.0053741060227877916 0.00099845937853729021 0.0019988137727544107 0.037712904579607721 0.012812671835811206 0.032331539172048805 -0.013775164295118649 0.011311354179328706 0.011368500876151943 -0.0028662123884570659 0.027335974169260126 0.0015525484281640846 -0.022900619675457298 0.013097164460864683 -0.00382739550088162 0.022212940836828357 0.0043609290782599883 0.031079437188534783 0.033296083297038245 -0.029193205743900955 0.00099153189388480269 0.0069329609305839894 -0.025086807953766693 -0.001647246693216646 0.02018311079092348 -0.042558907799570334 -0.020353494096690274 0.023511360471252536
leaf_weight=481.19277922576293 474.08292273059487 1077.4872249751352 6971.1366191254929 630.17512581124902 1030.8375025498681 499.63582986034453 1145.0109985508025 370.54540691524744 786.45229993388057 1746.7406086176634 261.7523725181818 215.55182999349199 81.759748708922416 628.46819722466171 290.16860132291913 1300.0080896839499 1659.4307928485796 2633.9983469322324 340.69424243387766 1959.2209629018325 743.53800262697041 2616.627332564909 2587.3987666410394 3340.7908215166535 160.01028336305171 729.68134457804263 2907.9644652260467 172.36728830449283 139.64341130852699 1032.6272901212797 49.144675202202052 11482.651997083565 1421.3678543497808 587.14564464241266 63.565983470529318 310.72225909214467 491.77160401595756 772.70106998179108 286.00545328436419 281.11628701910377 2037.9519226213451 836.44183821184561 978.31072545144707 371.32707588654011 825.00947840418667 145.89643135294318 198.30445237085223 734.49940247833729 2449.05199754145 439.45338453026488 383.78689112048596 114.68367896322161 1970.9107714763377 1490.0854902602732 158.18985739070922 7824.9081271602772 159.4468674659729 368.99962169537321 2528.3638449441642 185.86621966538951 214.82622318342328 482.32987242098898 2163.668404718861 1820.100167916622 356.14297404652461 97.224101031199098 607.07401413610205 3394.1455129799433 2406.3041496509686 563.69627911737189 679.74776747915894 3849.5429240575759 2283.3629465131089 2132.4712280007079 2285.124817693606 383.24817110411823 1119.3968937397003 628.24936221819371 1250.087149427738 605.43560098297894 419.57208446692675 1245.9607684593648 3280.1606489596888 186.09040001872927 1349.2822210658342 728.9169391267933 2724.6274286489934 335.7132169213146 379.0412605330348 18.180630417540669 117.05125163029879 2070.8394671082497 2137.1657091393135 292.28946847002953 94.577452190220356 157.87231776397675 47.510851865634322 3219.6847288256977 96.570954428287223
leaf_count=2525 1180 7716 29463 1260 11874 2084 18707 851 1992 3033 1086 1901 469 1625 468 3457 5308 6452 3960 19476 1294 9342 9210 8964 1301 2790 10696 322 495 2344 362 32625 8280 1178 128 1503 5930 2772 672 588 11458 3249 1878 1497 2143 261 340 1206 8197 3953 998 227 11452 3174 802 27366 253 1586 7357 1113 387 2997 4830 5251 2447 624 3315 15623 12871 2298 1916 11201 6539 5712 3262 829 1819 2339 3103 1159 913 2062 9751 2070 2821 3438 4754 971 595 99 550 6248 5603 954 518 510 129 28514 412
internal_value=0 -0.00664396 -0.0159546 0.00814517 -0.00274276 -0.0113203 -0.0326575 -0.000184327 0.0127101 0.0165859 0.00328474 -0.0291017 -0.00903299 -0.00269224 0.004124 0.00761626 0.00687191 0.00419434 -0.0373013 -0.025058 0.0240957 0.00197005 -0.004582 0.00968101 -0.0251197 -0.00660414 -0.00971213 0.0285612 0.0109991 0.0137557 -0.0140021 0.00336477 -0.00525696 0.0150824 0.00610434 0.000154848 -0.0524365 0.00687564 0.00267667 0.0183934 -0.00808639 0.000604097 0.0158539 -0.00995148 0.00998536 0.00576823 0.00170917 0.0170462 0.00133066 -0.0287804 -0.0138136 0.0136927 -0.0155634 0.0122268 -0.00154765 -0.00361853 0.027787 -0.0137186 0.00512786 -0.0338667 0.0340041 -0.021642 0.00720862 0.00039144 -0.0332653 -0.00624837 -0.0196697 -0.0104074 -0.00398497 -0.00625477 0.0057744 0.00325403 0.0041257 0.00218303 0.0357532 0.0241005 0.0273614 -0.0206835 0.014229 0.0175454 0.0102518 0.022121 -0.00117532 -0.0415925 0.00792344 -0.013258 0.0196954 -0.00958528 0.0192797 -0.0371944 0.00254706 0.00132287 0.0021193 -0.00222894 -0.0301717 -0.00338225 0.00102207 -0.0195097 -0.000777482
internal_weight=125186 68946.7 20357.7 56239.3 48589 11161.9 5963.95 37427 29000.1 17427.9 27239.2 3066.95 14393.8 28322.7 25965.4 9104.29 11572.1 8915.67 2000.07 4308.99 7433.57 18713.9 8094.99 7251.53 969.232 11932.2 7586.61 4419.06 9994.37 4116.4 4520.78 16000.1 9121.42 5447.51 4546.86 16390.6 1654.96 7256.24 15369.9 2816.39 5507.59 16079.8 2656.44 852.52 1678.13 4736.77 14130 2514.75 13931.7 3456.47 1273.79 1239.88 5272.36 1780.25 10894.9 7983.1 445.452 1066.88 5184.91 712.651 2672.32 697.882 4407.22 2656.54 2315.36 2713.85 1141.1 3443.29 3469.64 2970 794.431 4622.24 2911.83 2243.55 2499.95 1783.76 1502.65 890.002 1395.98 3014.51 1163.11 1851.4 4345.56 526.785 2135.73 2150.28 3311.77 1065.39 853.124 509.952 4987.89 4617.35 4500.29 2363.13 534.031 3065.84 2179.98 3301.44 256.581
internal_count=473627 330572 140083 143055 190489 65135 58467 125354 66000 34471 77055 27214 81616 102111 72632 23243 31529 25733 20730 33731 12432 55456 37921 17176 8856 48419 34907 7004 22039 9037 23701 45490 41181 10745 11294 53692 24736 20425 44230 5580 28711 52189 5796 4022 3918 12328 41162 4848 40822 29709 4423 3068 40435 3642 36332 28168 925 6484 15857 7143 3971 4898 10799 8500 21923 9966 7786 15985 17253 15169 2143 13973 8164 5969 3649 3236 2648 3425 3364 5428 2207 3221 13512 6030 4813 11718 5932 3761 1775 6029 14206 13355 12805 7202 4471 11206 5841 28983 1713
is_linear=0
shrinkage=0.0446


Tree=6
num_leaves=100
num_cat=0
split_feature=7 24 46 24 7 46 21 46 8 21 3 7 61 7 8 0 42 24 20 16 59 51 44 45 54 54 0 21 24 27 3 42 27 0 44 58 42 19 64 16 8 63 6 47 11 47 0 16 54 16 52 53 21 53 16 52 61 58 42 64 16 54 64 17 58 58 64 54 23 61 64 53 17 42 54 56 16 59 41 17 64 44 64 11 16 46 7 52 54 45 52 10 27 20 17 1 24 16 17
split_gain=3092 1395.1 1346.21 543.875 410.993 393.651 287.484 307.185 422.731 263.204 214.212 209.132 193.073 171.343 166.128 149.817 132.702 130.453 129.484 122.243 116.685 113.418 108.781 107.778 107.37 106.654 153.594 101.36 96.1279 94.4485 90.625 88.5259 80.9795 79.2801 76.5602 75.3966 74.0232 72.306 67.6441 67.3119 66.0112 65.8824 65.0804 64.2925 63.3663 63.1623 63.0502 62.6479 62.4747 61.9823 61.8495 60.0529 58.9083 55.3985 55.0788 58.1568 54.6902 54.5738 59.6451 54.2142 53.3142 53.2961 52.1337 51.8371 50.9163 48.6095 48.3117 47.0076 46.9686 46.8292 59.192 46.7366 46.475 46.1092 45.9813 45.9173 45.7041 51.0538 46.0641 45.7693 45.4285 44.9484 44.6119 44.5071 44.4331 45.7424 43.9459 43.7051 43.424 42.6964 42.3674 42.3625 47.8617 59.8989 41.7452 41.7092 41.2032 41.1159 40.8343
threshold=0.57158910533910545 0.08891883797544177 -29.499999999999996 0.11920114336044939 0.30933594183594187 -1.0000000180025095e-35 0.22225740623460702 -28.499999999999996 0.2678571428571429 0.23959080583452896 1.0000000180025095e-35 0.37809676434676437 10.500000000000002 0.69831990925740939 0.31666666666666671 8380.0000000000018 -5.4999999999999991 0.070204776154432921 0.22904116465863456 -2.1666666666666661 0.19058947067732532 1.6188374471454288 8.5000000000000018 96.500000000000014 13.250017166137697 -65.208957672119126 3543.5000000000005 0.05129604747508678 0.042921866577509099 0.13363095238095241 1.0000000180025095e-35 -5.4999999999999991 0.13054402447017702 1083.5000000000002 6.5000000000000009 0.40000000596046453 -5.4999999999999991 0.151564027370479 0.21103238866396765 0.58333333333333337 0.31666666666666671 1.0000000180025095e-35 inf -6.9827586206896575 83.500000000000014 1.37797619047619 7545.5000000000009 1.0000000180025095e-35 12.052059173583986 0.66666666666666674 -21.700651804606114 30.784988403320316 0.086984754376058737 112.47210693359376 -0.83333333333333337 16.528590520222988 2.5000000000000004 0.15000000223517421 -1.0000000180025095e-35 0.35504201680672276 -1.8333333333333333 50.878620147705085 0.16749174917491752 1.3038461538461543 3.8750000000000004 23.500000000000004 0.05594679186228483 99.20597076416017 0.096930786094581903 4.5000000000000009 0.15047169811320757 100.84838867187501 -4.7580986769649563e-17 -16.499999999999996 81.565044403076186 19.500000000000004 1.5833333333333337 0.042857984410795143 160.50000000000003 2.3038461538461545 0.027973395931142415 7.5000000000000009 0.29520697167755999 93.500000000000014 1.0000000180025095e-35 -2.4999999999999996 0.29072332895862313 21.898635228474941 7.4547767639160165 69.500000000000014 20.896030426025394 0.25791373229453729 0.050139664804469283 0.093121797398502182 -1.4928571428571422 12.633333333333335 0.1840886103107951 -0.66666666666666674 -0.10000000000000013
decision_type=10 8 10 10 8 8 10 10 8 10 2 10 2 10 10 2 8 10 10 8 8 8 10 10 10 10 2 8 8 10 2 8 10 2 10 8 8 10 10 8 10 2 8 10 10 8 2 8 10 8 8 8 10 10 8 8 2 10 10 10 8 10 8 10 8 10 10 10 10 2 8 10 10 10 8 8 10 8 10 10 10 10 10 8 10 10 8 8 8 10 10 10 8 10 10 8 10 8 10
left_child=1 2 4 10 40 23 7 8 16 13 17 27 36 34 31 25 48 91 56 -15 -20 53 35 46 66 26 -12 86 60 87 -13 52 67 -32 45 74 -10 -23 68 -18 -1 49 72 -17 -31 -7 -5 -16 -3 64 98 -51 -6 73 -47 -56 -8 81 90 -33 -27 82 65 -19 -37 -44 -25 -30 -14 70 -29 -45 -35 -21 83 -42 77 79 -79 -58 -39 -26 -38 -9 85 -60 -4 -11 -70 -49 -59 -2 93 -93 -43 -41 -36 -92 -28
right_child=3 6 11 5 14 9 18 22 12 29 15 30 38 19 47 43 39 63 20 21 -22 37 -24 24 57 28 50 69 32 44 33 59 -34 42 96 41 61 80 -40 95 75 94 62 71 -46 54 -48 89 -50 51 -52 -53 -54 -55 55 -57 76 58 84 -61 -62 -63 -64 -65 -66 -67 -68 -69 88 -71 -72 -73 -74 -75 -76 -77 -78 78 -80 -81 -82 -83 -84 -85 -86 -87 -88 -89 -90 -91 97 92 -94 -95 -96 -97 -98 -99 -100
leaf_value=-0.058957166159645309 -0.0049234015532547502 -0.046308247766347017 -0.036750942266093198 0.025391053642052172 -0.046072109270453125 0.028969634559061798 -0.015299862575134278 0.023672001240627804 -0.024636490854435537 0.0076982043523998655 -0.0089840292253520679 -0.016858778377748782 -0.0073241347936416285 -0.013979186045223158 -0.026078692636374072 -0.0083387132947882747 -0.02676205915242905 0.0029022233372915929 0.0085380244058021124 -0.021278678030070299 0.030051889940104416 0.0075758999740987241 -0.0065967210594236958 0.002947444290012962 0.015997759008664597 -0.039094101945903598 -0.015547807316397459 -0.014992013084693803 0.0060638101757417347 0.025083979293670792 0.0082700773645022121 -0.024481561698128276 0.014663744637880581 -0.0067484631682932375 -0.0050082445189664889 0.0037225201545461896 -0.0098504217405346768 0.021872682552711659 -0.041613335185524888 -0.0052391728233201363 -0.04465433257105339 -0.02060604131263984 -0.0072044969024784361 -0.00060515093066333648 0.040736549421285739 -0.0065364401201769865 0.0068432037486413876 -0.0035667297083515122 -0.021518572974077058 -0.0031755369159948222 0.010913729905427086 0.0083080168212492245 -0.029111855755006473 0.037620515732085892 0.0038092686058277432 0.015883917189703882 -0.0073095521769493939 -0.00046273111401867446 -0.024180215632746617 -0.075642813670320913 0.0024890557576250391 0.022327745822159881 -0.024021898151175045 -0.020589939289550975 -0.003981926399827509 -0.031666572968608087 -0.0052108672589678733 0.021149295757663229 -0.0064223973626870096 -0.0091275548375266604 -0.038221995972527942 0.013602636445560732 0.002118226254342099 0.022662254299606003 0.031135061338370008 0.0088909467658844447 0.033394548290652741 0.0028921304610177788 0.021647230932910121 0.047767496061592342 0.0029143392598465407 0.0016151025064666126 -0.077320239008205061 0.0042738592971915254 0.012497993082149767 0.0060324647623783865 -0.020602916143217902 0.023529482803802085 0.0063402921426447371 -0.072835176554365777 -0.00078006513123305451 -0.036419542473490121 -0.011428965945724578 -0.0058590062271653099 -0.0040983378156423658 -0.05994658092363904 0.010378472911684805 0.0134031569115885 0.0029209214011839545
leaf_weight=1205.8972148449393 522.7515986841172 681.88224518438801 585.51634766673669 814.20973969530314 1091.9205546667799 330.77922745049 330.03456422314048 278.53258428256959 928.26543436874636 547.61531726364046 2109.0132024376653 1425.6076826648787 923.98218969069421 243.63546267151833 473.57407057844102 2124.0562251410447 763.25429994892329 1879.6792389713228 1361.3131622313522 48.120473874732852 796.10756971687078 2142.8348644040525 4472.6706429363694 4511.9198821526952 2203.9131142860278 62.226757214404643 305.51005852036178 1083.1817141387146 7031.2924524038099 1097.0936572290957 839.30844990070909 1801.8439992642961 4253.7013222938403 2298.5209847600199 1288.5244032545015 2725.6926178876311 1318.7241782038473 1809.1286865826696 73.164409330114722 665.32616012962535 94.491681217681617 355.53503273776732 4512.4616324570961 3600.9818251109682 980.26732867769897 422.10615636594594 664.09296800009906 722.62585100438446 290.61181355314329 1207.9788213279098 2167.7285514352843 3605.702348916675 658.39013062277809 537.34975726529956 1419.1519387755543 1808.721516658552 859.53090933384374 989.44594079814851 317.5185386762023 42.410147734452039 4116.4539697715081 103.48946953564882 448.39762336248532 207.42362916283309 4558.8232985704672 167.93570307269692 2123.0595604090486 437.21684952825308 650.00178122147918 2177.6541324991267 274.61709707439877 527.89091340405867 2404.6918874669354 2538.0753947943449 176.52696321718395 47.544699881225824 101.53943006228656 852.94709051027894 376.25748795922846 31.047706609591842 293.75164151005447 540.05825683521107 19.841678976081312 1534.4770560022444 160.59798435866833 144.46048956736922 798.42992397700436 959.18565036542714 2861.9494601390325 18.168647696264088 511.55264214146882 489.51231546862982 661.29343774076551 173.89764739293605 2160.2985896104947 28.988237679004669 473.19100134260952 1951.3997070486657 1078.0433360585012
leaf_count=20640 1994 8118 7425 1645 13886 540 1422 697 6327 1138 8882 8824 3783 776 3090 9502 6352 6240 3508 131 1419 4575 19091 12758 5058 299 1042 8243 18319 1812 2992 15212 9079 10977 3040 8528 6463 3249 463 4449 1009 1819 20886 12023 1443 1434 1664 3933 2369 5263 5378 11743 5679 842 3623 3877 3127 2823 1193 585 11694 308 2888 814 17262 1066 7105 1066 2382 13438 2806 1518 9467 4481 401 273 182 2243 817 61 628 1498 169 4233 345 345 7037 1723 8517 182 1722 3241 2900 792 8047 474 959 5072 2770
internal_value=0 -0.00742264 -0.0159155 0.00679813 -0.0337874 0.010914 -0.00181439 -0.00340374 -0.0101512 0.0155681 0.00266595 -0.00944835 -0.00450047 0.0126863 -0.0276816 0.0040441 -0.026143 -0.00707337 0.00843909 0.0170748 0.0164825 0.0181032 -0.000422796 0.00563341 0.00437618 0.00580698 0.00054719 -0.0172032 0.00767857 0.0263029 -0.00629371 -0.0325021 0.00974926 -0.00488116 0.00686621 0.00123961 -0.0148061 0.0133511 0.000914248 -0.0176145 -0.0555615 0.000129843 -0.00600505 -0.00203269 0.032476 0.0102923 0.0170671 -0.0134025 -0.0389129 0.00149623 0.00621095 0.00542373 -0.0396994 0.0245586 0.00859634 0.010579 0.00163283 0.00830643 0.00502748 -0.0256648 0.00186688 -0.00846966 -0.00948055 0.00056164 -0.00109744 -0.00808483 0.00033512 0.00694857 0.00161846 -0.0131911 -0.0196994 0.00120844 -0.00221246 0.0218399 0.00938521 -0.0266457 0.0041541 0.00274767 0.00864296 -0.00537558 0.0192302 0.0131714 -0.0108599 0.00726074 -0.00766941 -0.0147065 -0.0274436 0.017784 0.00397468 -0.00528241 0.00732065 -0.0157053 -0.0199509 -0.0284272 -0.00643604 -0.0075411 -0.000868523 0.0104524 -0.00114853
internal_weight=121888 58267.7 23173.2 63620.4 6156.87 31871.8 35094.5 30385.7 9309.48 16939.5 31748.7 17016.3 6879.42 13355.4 4808.93 27814.1 2430.06 3934.56 4708.78 7612.9 2157.42 7369.26 21076.2 14932.2 13453.9 21561.2 5660.3 4919.4 15900.9 3584.16 12096.9 3594.56 11722.2 10671.3 5742.47 16603.6 2370.32 4245.72 4509.1 1457.57 1347.93 14614 9832.01 6252.93 2077.36 3980.76 1478.3 1214.37 972.494 12098.2 3551.28 4813.68 1750.31 3123.55 3649.98 3227.87 2551.36 6818.95 4074.98 1844.25 4178.68 1442.06 5128.79 2087.1 7284.52 4680.4 6634.98 7468.51 4435.93 3535.45 1357.8 4128.87 4703.21 2586.2 1989.54 142.036 2221.32 2119.78 1229.2 890.579 2102.88 2743.97 1338.57 1813.01 622.577 461.979 1383.95 1506.8 3511.95 740.794 3452.4 1847.45 1324.7 663.41 2515.83 694.314 1761.72 2462.95 1383.55
internal_count=473627 300575 160538 173052 64489 75499 140037 127258 50174 34271 97553 96049 28412 28155 42567 81572 21762 15981 12779 14682 4927 13906 77084 41228 37919 58529 18072 38949 40457 6116 57100 35362 28464 48276 13473 57993 13267 8452 15145 11275 21922 52662 45284 23043 3255 9474 3309 7205 10487 42796 9190 17006 19565 5454 8934 7500 7852 18056 11500 15797 11993 6940 24840 7054 25790 21952 19863 19385 14682 24487 11049 13541 20444 4612 5331 1282 6430 6248 3060 3188 3877 6556 6632 4930 1883 1538 14462 2861 10899 4115 9617 8927 6933 4033 9866 4923 3999 6794 3812
is_linear=0
shrinkage=0.0446


Tree=7
num_leaves=100
num_cat=0
split_feature=14 7 46 26 7 46 65 24 46 14 24 65 21 65 2 21 24 46 24 45 14 45 7 21 24 43 7 43 46 57 28 2 54 25 51 14 24 43 2 1 26 7 47 53 2 22 19 22 14 8 14 2 45 45 2 2 26 45 14 45 65 54 65 25 47 14 45 14 47 34 14 26 42 2 14 58 45 45 53 14 21 51 19 52 1 56 14 2 5 55 45 14 47 43 27 21 43 7 7
split_gain=2761.28 1042.8 764.819 635.787 607.289 540.242 388.834 353.671 332.677 295.307 220.907 205.683 204.199 188.678 167.399 160.484 157.909 154.252 208.871 153.819 135.141 238.267 120.108 120.093 118.303 114.879 109.653 104.83 93.2523 92.5402 91.9317 90.7505 90.067 87.9103 82.1584 82.1081 81.8378 77.192 66.8474 66.1855 64.7396 62.6463 61.0433 59.7491 58.8321 57.3101 57.1647 56.4662 56.0827 56.0143 55.9744 55.5321 54.8509 53.3894 51.6433 50.8179 50.5414 50.2833 50.1331 66.478 49.2459 48.2701 47.5891 47.5514 47.476 47.4496 47.4436 46.8251 46.7615 46.113 45.6181 45.0734 44.9636 44.9336 44.767 44.2604 44.2051 44.0002 72.372 53.6041 43.0541 43.0382 42.5271 42.4984 41.9102 40.7809 40.6699 40.344 43.5087 40.2754 43.8848 45.143 41.5246 79.8491 40.058 41.8881 39.5466 39.3159 38.9543
threshold=97.500000000000014 0.34063285920428787 -30.499999999999996 0.079021706809396394 0.67167293233082714 -29.499999999999996 1.0000000180025095e-35 0.19635533416355336 -1.0000000180025095e-35 113.50000000000001 0.12493654822335028 1.0000000180025095e-35 0.14439082600849876 1.0000000180025095e-35 10.500000000000002 0.090329357549471412 0.1840886103107951 -29.499999999999996 0.08338765754019993 98.500000000000014 110.50000000000001 117.50000000000001 0.72926739926739936 0.27813699068947989 0.043440519323671503 1.7543103448275874 0.51786685536685562 4.9110671936758914 -1.0000000180025095e-35 1.1250000000000002 0.1434624697336562 21.500000000000004 10.312747955322267 684.50000000000011 1.7360509461936517 116.50000000000001 0.067821608919554036 4.2554347826087033 248.50000000000003 8.1000000000000014 0.15372558476006756 0.63964466089466099 10.333333333333337 98.718307495117202 6.5000000000000009 0.16141439205955338 0.26344707923655297 0.17025922140667102 145.50000000000003 0.10555555555555557 124.50000000000001 70.500000000000014 110.50000000000001 106.50000000000001 35.500000000000007 47.500000000000007 0.13894251394251397 94.500000000000014 109.50000000000001 108.50000000000001 1.5000000000000002 78.499938964843764 1.0000000180025095e-35 15.500000000000002 9.8153409090909083 88.500000000000014 109.50000000000001 146.50000000000003 10.510869565217392 1.0000000180025095e-35 45.500000000000007 0.023346656976744189 -4.4999999999999991 6.5000000000000009 159.50000000000003 6.2500000000000009 103.50000000000001 109.50000000000001 57.688140869140632 102.50000000000001 0.28414911828433115 1.7779506939675584 0.28541912632821725 67.330859184265151 5.291666666666667 1.0000000180025095e-35 105.50000000000001 6.5000000000000009 0.55718954248366026 2.2500000000000004 103.50000000000001 107.50000000000001 -4.3779761904761889 -6.489999999999994 0.11040952912118558 0.23534617386777723 3.2546296296296338 0.64816137566137588 0.77180735930735944
decision_type=10 8 10 10 8 10 10 10 8 10 8 10 10 10 10 10 10 10 8 8 10 10 10 10 8 8 10 8 10 10 8 10 8 2 10 10 8 10 10 8 10 10 8 8 8 10 10 10 10 10 10 10 8 8 10 8 10 10 10 8 10 8 10 2 10 8 10 10 10 2 8 10 8 10 10 8 10 10 10 10 10 10 8 10 10 10 10 8 10 10 8 10 8 10 10 10 10 10 8
left_child=1 2 12 5 15 10 7 17 14 33 26 24 27 36 29 51 34 18 22 54 62 35 69 45 -4 65 -3 49 38 -6 -14 70 -27 68 94 53 41 64 50 60 57 -7 -25 -28 96 83 73 84 -39 -1 -23 61 -37 -22 86 -12 81 -16 -59 -60 -8 89 77 -57 -30 -20 -31 -58 98 -5 -26 -61 -32 -36 -75 85 -42 78 -21 -80 -78 -18 -79 -9 -46 -44 -17 88 -38 90 91 -2 93 -92 95 -11 -19 -55 -10
right_child=4 3 11 6 8 13 39 23 9 16 55 -13 30 -15 40 19 56 44 25 20 21 28 -24 42 31 32 43 -29 37 66 72 -33 -34 -35 46 52 87 48 -40 -41 76 -43 75 -45 47 -47 -48 -49 -50 -51 -52 -53 -54 97 -56 63 67 58 59 71 -62 -63 -64 -65 -66 -67 -68 -69 -70 -71 -72 -73 -74 74 -76 -77 80 82 79 -81 -82 -83 -84 -85 -86 -87 -88 -89 -90 -91 92 -93 -94 -95 -96 -97 -98 -99 -100
leaf_value=-0.056844292124615531 0.0024106968837894639 -0.038239629977669144 -0.021748731662733823 -0.022882294036155805 0.028953080689919055 -0.011959958455595479 -0.018852778622698085 -0.0035312062557629397 -0.00084527973674667983 0.018403730446463776 -0.023594318790088317 -0.041551265952493893 -0.037531649836853226 -0.032537981847927513 0.021419255495377276 0.020324924473145854 0.028087621681583411 0.019923412049538153 -0.018054885942211458 -0.0026141811989193382 0.025555236293770649 -0.005308931028606031 0.012125744436561092 0.0046761302543463024 -0.050475390059783014 -0.011952918020301181 -0.025282347483907779 -0.010731135519615735 0.010923325315938637 0.014081990452633827 -0.026384677695487416 -0.0012889911594545214 0.0081283355906430921 0.01779671193639077 0.040983331008970898 0.03931529936378364 0.0046636415643183469 0.00020942403730906802 -0.024295707251719933 -0.064901281218592358 0.022153288615021336 -0.0006979901605008419 -0.025748141297366991 0.0024558057936530601 -0.0033983240002350072 0.011254051258977382 0.024040928138121056 0.0039075198814056619 0.021823966271364233 -0.037867031458298735 0.002842966831050963 -0.014959694206549473 0.016382165495877971 0.0036336223179380812 0.0008213933434449653 -0.017199274017628677 0.030320441991250204 -0.0048102265581465645 0.018809082004667899 -0.014228404566670559 -0.043900860042169261 0.0094347570961861686 -0.023555152199073733 0.00037664333562740696 0.029654040303646784 -0.0053493647031414241 -0.023764916161070911 0.047103195271544392 0.0185688537137026 0.0094625044051163849 -0.014342267419138187 0.0032073083511990723 0.0060055386243033767 0.0061206543901986491 0.053161802372198398 0.032532527686474813 0.0063016851933869146 -0.0073897306382505034 -0.0011197184100315387 0.01192574556535197 0.025504707175272007 0.0036920269135234467 0.0046089432378397842 0.034376238829109992 0.0021072693952037761 0.022095387798961485 0.04524373089764544 -0.0023735988367525576 0.04837272793497862 -0.010660230381183531 -0.00018103897893193458 0.02799839739691817 -0.0020924694071192264 -0.041339922424858976 0.027230042908883031 -0.029025616712794609 -0.0045632442896607027 0.018615750890280759 0.0083824406776786785
leaf_weight=1348.8204005106818 834.2741246400401 1938.2709805101622 1211.4916652354877 2056.7264251363231 928.59652176778764 4141.5998967539053 956.65926074027084 1031.4833353939466 2062.5134597895667 1676.8077708091587 537.20636379625648 439.64844729122706 369.53156980930362 534.24339446541853 261.81531404703856 782.99585118144751 397.53486495651305 484.37012911960483 743.95587085839361 3317.5101372390054 302.64420735184103 2750.5821355218068 233.78435997478664 279.76893236115575 75.524892784655094 555.30074630305171 838.16628178674728 129.39138768380508 1110.9879985414445 173.11355263367295 135.02368495683186 2628.2191798810381 2215.8790602041408 1402.7136636041105 80.793872155249119 225.37475424725562 164.69955997169018 2198.3099221251905 239.68205771129578 80.543685234850273 458.49815086089075 1291.1316299699247 51.338395599275827 188.4144580475986 9160.2016974580474 2068.8169949213043 584.91429486870766 4805.5954701798037 268.04541401471943 407.49648358346894 4285.8418175154366 772.40979665797204 2747.8292837734334 2395.9397843526676 228.51255478616804 535.74120122077875 1620.5262050610036 1849.8935517547652 523.18487041443586 315.34500070288777 187.85296904901043 629.19605590635911 181.01782101718709 711.56395077938214 357.11254729703069 2757.5010678018443 106.34769786708057 420.0993389505893 442.69818250834942 91.034569843672216 923.63916899496689 4514.431409986224 230.24830798991024 2053.7393641592935 41.121493145823479 826.79023973364383 3715.5287631489336 2533.6966502019204 979.35452000424266 1731.2709369314834 248.28676964715123 227.34192272182554 763.67062022583559 62.356915540993214 3927.5287513555959 113.61629817448556 157.66920623928308 5337.7727857609279 62.889403279870749 1236.4139994925354 219.04002982540987 164.48101164959371 2454.6897448422387 164.70588595396839 1580.9670273009688 37.676679324358702 178.91844179853797 408.55360473878682 1625.5423961728811
leaf_count=24763 2734 22759 12980 15794 1714 24740 6786 3355 5409 3168 3520 6421 4160 6071 614 1674 682 1250 4301 10397 621 10051 742 724 770 2458 6163 1319 2116 379 1251 13914 6851 2681 128 395 523 4916 1046 1075 845 4954 138 953 31785 4979 1006 13787 552 4869 13860 4226 5948 6415 634 3563 2607 5336 1131 1190 1848 2182 1131 3164 565 11126 336 647 832 421 5796 13493 1221 4344 59 1468 9405 9181 3291 4440 549 478 2107 146 17514 216 240 22198 124 5364 971 383 9373 878 2646 96 499 881 3821
internal_value=0 -0.0070752 -0.0221169 -0.00465764 0.00653234 -0.011865 -0.00108721 -0.000132394 0.0114942 0.0162092 -0.0245255 -0.0123353 -0.0418154 -0.00664994 0.00636052 0.00259183 0.0213233 -0.00203612 -0.00695334 0.00405696 0.00336552 0.00571407 -0.0181991 0.0115473 -0.00967831 -0.00268168 -0.0319905 -0.0495922 0.00185706 0.0221812 -0.0218413 -0.0056436 0.00409998 0.00814661 0.0173372 0.0128234 -0.00539129 0.00738916 -0.00113268 -0.0257414 0.00475166 -0.0092857 0.0231272 -0.0201796 0.000256454 0.00688786 0.0116521 -0.000226383 0.00256346 -0.0524482 -0.000341939 -0.00373424 0.0181247 0.0077467 0.0198944 -0.0121162 0.0303751 0.00221611 0.0015164 0.00370505 -0.0229748 -0.00221168 -0.000904874 -0.00716286 0.0154879 -0.00805239 -0.000277236 0.0337815 0.00486669 -0.0215057 -0.0170859 0.00206638 -0.00593456 0.00831575 0.00704996 0.0283199 0.00902882 -0.000463897 0.00180044 0.00720793 0.00750762 0.0192315 -0.00460716 -0.00135898 -0.00174521 0.00713137 0.0245148 -0.0015875 0.0167957 -0.00365839 -0.0013991 0.00663688 -0.00423099 -0.0178785 0.0220958 0.0173543 0.0133 0.00582054 0.00321863
internal_weight=118843 57050.8 7899.04 49151.7 61791.8 16281.7 32870 31645 27350 14255 4749.36 5278.52 2620.51 11532.3 13095 34441.8 8721.52 27210.8 8654.18 27966.6 26797.4 17290.9 2381.55 4434.17 4838.87 6272.64 2964.85 1885.71 11210.6 1208.06 734.804 3627.38 2771.18 5533.47 6056.02 6080.34 10998.1 3934.46 7276.11 1225.06 11887 5432.73 1271.51 1026.58 18556.6 3162.66 2760.57 17893.3 2466.36 1756.32 7036.42 6475.21 2973.2 3107.14 1169.18 1784.51 2665.5 7464.67 7202.85 5352.96 1144.51 5702.8 9506.52 1247.31 1468.1 3501.46 279.461 2040.63 4130.75 2147.76 999.164 4829.78 365.272 2175.65 2094.86 991.745 4422.31 9325.5 6028.14 2710.63 3963.82 624.877 3297.37 1093.84 13087.7 164.955 940.665 5565.36 227.589 5073.6 3837.19 998.755 2838.44 383.746 3295.45 1714.48 663.289 2804.49 3688.06
internal_count=473627 303459 77464 225995 170168 98732 127263 117554 63596 28604 40122 39881 37583 58610 34992 106572 15861 106528 41693 80461 77913 47366 16957 11026 33460 24736 29875 30951 33106 2429 6632 20480 9309 12743 11447 14260 52539 8149 24957 9709 32563 29694 2546 7116 64835 8480 5537 63086 5468 29632 23911 26111 6343 7917 2548 10247 4414 21764 21150 15814 8634 21885 30547 6727 2681 15427 715 3254 10062 16215 6566 14683 2472 4531 4403 1822 10799 29416 18128 7731 9954 1160 11288 3501 49299 354 1914 22845 647 19703 14339 3117 11222 1849 5910 3264 1749 7296 9230
is_linear=0
shrinkage=0.0446


Tree=8
num_leaves=100
num_cat=0
split_feature=7 24 46 60 21 26 7 46 50 44 13 4 13 46 61 21 46 47 39 18 21 42 64 7 58 47 20 13 46 11 28 13 11 15 3 21 13 44 7 7 11 8 58 7 44 52 13 18 43 26 43 4 53 60 58 26 52 43 47 51 47 26 21 43 11 59 20 11 51 24 39 21 42 52 21 39 54 21 47 58 39 15 54 55 42 53 64 20 18 51 54 18 39 13 26 18 28 15 51
split_gain=2403.09 1021.68 1035.11 576.22 320.197 300.383 261.087 202.74 283.401 192.03 209.737 184.625 192.525 138.491 136.123 135.524 135.015 122.525 119.616 115.859 112.793 111.99 103.275 92.3645 91.469 88.5473 87.989 84.9983 84.5782 79.6572 80.252 72.0352 69.8859 68.8966 68.3647 65.7556 59.7873 71.6211 58.3349 58.2568 57.6247 56.9896 56.9589 56.601 55.6379 55.5755 53.4223 52.5761 51.2365 50.9659 50.1931 56.3069 49.8961 49.8243 87.703 49.6694 49.3642 48.9176 55.8649 48.6089 48.1793 47.6265 46.4246 45.7214 45.589 54.1517 45.4206 45.4098 49.0039 45.1973 45.1129 44.9648 44.8623 43.7349 42.9322 50.0313 42.8824 42.5162 42.4753 42.4501 42.4204 41.9699 41.2802 40.9217 40.909 40.6862 41.8578 40.6113 40.3847 39.4525 39.3356 39.0524 38.9409 41.3597 38.61 38.2795 43.5068 38.2589 38.207
threshold=0.52000712250712267 0.090972752737458626 -29.499999999999996 0.12917130144605118 0.23959080583452896 0.1714748035136385 0.30933594183594187 -28.499999999999996 0.37066905615292717 7.5000000000000009 112.16666666666667 0.91987179487179505 110.58333333333336 -1.0000000180025095e-35 5.5000000000000009 0.27813699068947989 -1.0000000180025095e-35 6.9791666666666723 0.048115079365079368 1.0000000180025095e-35 0.075193984962406021 -1.0000000180025095e-35 0.072077922077922088 0.28572874493927136 1.1250000000000002 17.033333333333335 0.14826762246117087 89.166666666666671 -1.4999999999999998 66.500000000000014 0.027212143650499818 115.83333333333336 107.50000000000001 3.4166666666666674 1.0000000180025095e-35 0.096173115461692632 102.58333333333336 7.5000000000000009 0.32713809455406101 0.85716089466089485 108.50000000000001 0.31666666666666671 12.500000000000002 -1.0000000180025095e-35 6.5000000000000009 61.563189188639335 100.41666666666667 0.18196869355809756 -7.4422222222222265 0.055674773485932291 3.0172413793103492 0.45584415584415588 -38.250017166137688 0.081356867071152791 4.8750000000000009 0.10208423795049935 -11.312389373779295 0.90238095238095195 8.8786764705882337 2.5155072169215331 13.800000000000006 0.07507225433526013 0.15353328577484157 8.7171428571428624 126.50000000000001 0.056754643088353429 0.17963123019302799 100.50000000000001 1.5703064107056541 0.031311274509803928 0.305260047281324 0.037789358053799169 -25.499999999999996 48.828338940938316 0.050069637883008368 0.18539562289562292 -2.231359481811523 0.092114046799241109 2.7549999999999959 0.15000000223517421 0.15227743271221536 2.5833333333333335 -65.208957672119126 4.1250000000000009 -5.4999999999999991 70.237590789794936 0.15849282296650721 0.22599846390168973 0.21771450515690149 1.2412282679704181 -135.71014404296872 0.18758378016085794 0.24461805555555563 99.166666666666671 0.025751547303271446 0.13143593519882182 0.34637237762237766 3.8333333333333335 0.71679496922166341
decision_type=10 8 10 10 10 10 8 10 8 10 10 8 10 8 2 10 8 8 10 10 10 8 8 10 8 10 10 10 8 8 10 8 10 8 2 8 8 8 8 10 8 10 10 10 8 10 10 10 10 8 8 10 8 10 8 8 8 10 10 10 10 8 10 10 10 10 10 8 8 8 10 8 8 10 10 10 10 8 10 8 8 8 8 8 8 10 10 10 8 10 10 10 10 8 10 8 8 10 8
left_child=1 2 6 9 11 7 41 8 21 10 26 24 18 -6 73 53 95 -17 39 23 27 33 28 -4 32 34 29 81 -14 -2 77 -15 60 -3 35 -11 40 64 43 59 -26 -1 85 -9 61 -39 -23 84 -33 74 51 -22 -36 54 62 -50 71 58 -30 -13 90 -18 -7 82 83 -66 -40 79 -69 -28 -45 -34 -58 -10 -25 -76 -35 88 -79 -32 -42 -8 -46 -38 97 86 -21 -63 -31 -65 -5 -64 93 -71 -29 -12 -97 -16 -57
right_child=3 5 19 4 13 15 20 38 14 25 16 12 22 31 47 17 44 -19 -20 42 50 46 -24 49 36 -27 69 94 57 30 67 48 56 76 52 -37 37 45 66 -41 80 -43 -44 70 63 -47 -48 -49 55 -51 -52 -53 -54 -55 -56 98 72 -59 -60 -61 -62 87 91 89 65 -67 -68 68 -70 92 -72 -73 -74 -75 75 -77 -78 78 -80 -81 -82 -83 -84 -85 -86 -87 -88 -89 -90 -91 -92 -93 -94 -95 -96 96 -98 -99 -100
leaf_value=-0.055353535193370641 -0.027480577130325302 -0.0014811961029327901 -0.034110904484689862 -0.034853925055799699 0.0094927643374091916 -0.0034888511916027938 0.016394000740918974 0.025532595828747333 -0.021551015663053938 -0.026200413993320595 1.9526157012760072e-05 -0.019526662012212349 0.01264321999151048 0.016986372435579985 -0.010095179381249706 -0.011688974714996591 0.0066960417620661296 0.028428297560252246 0.0087519637931663015 -0.006046563547285686 -0.027783146108546188 -0.0193951776159275 0.0036811767539126393 -0.030208843779700723 0.0010863248892922109 0.025454842309835642 -0.01057175740800363 -0.04597669454365387 0.012945756688611436 -0.0091624835221278973 0.015138903797460272 -0.01393000385099496 -0.060519872238954435 -0.047182328605016387 -0.020293318614955314 -0.0064710329587336054 0.012589274758766551 -0.0043995772570210277 -0.0029358040176542762 0.02117016734856781 -0.026588975298559286 -0.024139320858723872 -0.015758682538698641 -0.016736189497582675 -0.025260785781094468 0.017749975107691267 0.011658665762975085 0.0073842075718035683 0.011056236743642723 -0.0086440707062844201 -0.0071536717974245538 -0.0023503456170801524 -0.0021822355172093355 0.0043044266845334552 -0.013276430537453846 0.046715017068387536 0.042909903183428029 0.029203092518897238 0.05288153482125494 0.017026187434790233 0.038970209295726206 0.018353328790371586 0.032477538035443558 0.032149587608647869 -0.0040270716911578967 0.01802952802445076 0.0037949613962350607 0.006385479702768565 -0.0027331000368600459 -0.0043841551775100724 -0.0037069085957573754 -0.0029501950581852722 0.0060877568198536352 0.030641379682762447 -0.03513057892377771 -0.0037185389103708117 -0.027360904693686051 -0.0056026082084456473 0.0080440654570081357 0.0029774667688278657 -0.0062974560051188653 -0.041350948013744594 0.013122824597167947 -0.010856235623495872 -0.00098924165820389902 0.00035923971002909457 -0.01693208280887018 0.033304865409107293 -0.046595729931768082 -0.022437083635691087 0.012094581576799211 -0.007479318990880543 0.010027386825645078 0.0085345125407482163 -0.0060708099321208431 0.0062882383086444379 0.029428569472569575 -0.041992945117759133 0.030421452108634936
