tree
version=v4
num_class=1
num_tree_per_iteration=1
label_index=0
max_feature_idx=60
objective=lambdarank
feature_names=horse_runs_last_3_positions horse_runs_last_5_positions horse_days_since_last_run horse_runs_last_90_days horse_going_group_place_rate horse_distance_place_rate horse_course_place_rate horse_weighted_form horse_place_rate_last_10 horse_improvement_index horse_avg_position_pct_last_5 horse_best_rpr_last_5 horse_best_rpr_rp_last_5 horse_avg_rpr_last_3 horse_last_rpr horse_avg_class_last_3 horse_class_delta horse_form_trend horse_pu_rate horse_nc_last_5 trainer_win_rate_90d trainer_win_rate_course_90d trainer_course_going_win_rate trainer_dist_alltime_win_rate trainer_win_rate_going_90d trainer_win_rate_dist_band_90d trainer_fresh_win_rate trainer_fresh_runs jockey_win_rate_90d jockey_win_rate_course_90d jockey_dist_win_rate_90d jockey_trainer_combo_win_rate jockey_runs_90d is_class_dropper collateral_beaten_win_rate collateral_beaten_place_rate collateral_beaten_count weight_lbs weight_vs_top weight_vs_field_avg horse_age runner_official_rating rating_vs_top rating_vs_field_avg career_runs career_place_rate position_consistency avg_speed_last_3 best_speed_last_5 last_run_speed trip_change_furlongs weight_change_lbs last_run_btn_lengths avg_btn_last_3 jockey_upgrade_signal trainer_win_rate_14d trainer_runs_14d sex_encoded is_female horse_pu_rate_1 horse_nc_last_5_1
feature_infos=[0:9172] [1:28] [0:3488] [0:14] [0:1] [0:1] [0:1] [-3.5:0.96428571428571419] [0:1] [-20:20] [0.035714285714285712:4.5] [30:180] [1:184] [1:181] [1:183] [1:7] [-5:5] [-14.000000000000002:10.000000000000002] [0:1] [0:5] [0:1] [0:1] [0:1] [0:1] [0:1] [0:1] [0:1] [0:2653] [0:1] [0:1] [0:1] [0:1] [0:421] [0:1] [0:1] [0:1] [0:70] [124:177] [-42:0] [-27.333333333333343:24] [3:18] [40:180] [-104:0] [-74.400000000000006:51.25] [0:156] [0:1] [0:16.263455967290593] [-529.58660888671875:235.33557637532553] [-529.58660888671875:319.68746948242188] [-529.58660888671875:318.75076293945312] [-18.5:18.5] [-37:59] [0:166] [0:166] [-1:1] [0:1] [0:190] [0:4] [0:1] [0:2] [0:4]
tree_sizes=3704 3701 3692 3688 3699 3694 3697 3697 3701 3714 3701 3691 3684 3683 3690 3683 3658 3669 3684 3703 3693 3468 3691 3705 3696 3681 3667 3675 3684 3684 3571 3595 3570 3684 3694 3663 3698 3690 3683 3698 3687 3698 3688 3676 3676 3703 3688 3682 3701 3690 3557 3691 3697 3706 3684 3681 3704 3699 3686 3708 3563 3664 3665 3584 3666 3704 3575 3695 3565 3704 3699 3678 3706 3678 3474 3688 3678 3584 3582 3683 3702 3691 3584 3676 3673 3459 3668 3688 3675 3362 3663 3692 3700 3685 3674 3695 3683 3684 3569 3675 3687 3681 3659 3560 3577 3572 3696 3589 3601 3687 3685 3589 3575 3461 3685 3684 3576 3675 3709 3712 3568 3700 3452 3685 3563 3573 3561 3680 3677 3682 3590 3667 3691 3699 3684 3572 3441 3582 3593 3690 3655 3675 3319 3678 3686 3335 3668 3665 3672 3684 3686 3542 3243 3676 3572 3702 3558 3571 3457 3455 3666 3342 3104 3582 3571 3712 3576 3686 3444 3677 3671 3556 3566 3556 3687 3448 3683 3597 3672 3568 3562 3664 3662 3558 3571 3577 3557 3365 3455 3666 3549 3558 3577 3589 3340 3328 3577 3564 3686 3418 3687 3577 3539 3427 3332 3684 3675 3579 3657 3232 3657 3552 3565 3558 3461 3430 3261 3336 3672 3558 3572 3653 3561 3353 3012 3232 3685 3557 3215 3678 3667 3679 3581 3125 3518 3472 3679 3133 3351 3525 3344 3364 3549 3560 3231 3317 3233 3407 3695 3664 3650 3661 3317 3680 3446 3689 3343 2323 3249 3557 3242 3566 3590 3466 3690 3446 3426 3325 3468 3542 2645 3376 2913 3468 3354 3550 3525 3227 3110 3548 3564 3113 3449 3708 3669 3610 3153 3664 2787 3349 3211 3702 3677 3451 3546 3458 3453 3446 3249 3204 3327 3648 3445 3558 3462 3453 3425 3338 3135 3435 2668 3464 3358 3222 3419 3097 3326 3136 3552 3637 3088 3706 3465 3556 3564 3319 3134 3686 3673 3424 3551 3571 3442 3669 3324 3217 3657 3343 3196 3570 3099 2772 3638 3558 3601 2570 2897 3231 3002 3001 3219 3115 2781 3366 3106 3221 3117 2994 3532 3333 2896 3450 2768 3099 2339 2978 3220 3670 3111 3505 3334 2967 3221 3212 3328 3451 3552 3107 2985 3220 2975 2550 3229 3189 3117 3236 3346 3356 3463 3354 2443 3551 3318 3212 3572 3129 3367 3231 3318 3517 3247 3006 3112 3119 3244 3097 3210 3128 2787 3322 3463 2900 3237 3315 3194 3540 3008 3686 3019 3240 3568 2980 2680 2666 3092 3221 3559 3304 3440 3567 3238 2900 3323 3436 3552 3554 3439 3559 3216 3665 3013 3536 3650 3305 3349 3330 3666 3677 3004 2914 3687 3224 3337 3336 3639 2984 3555 3220 3526 3314 3574 2680 3237 3666 3236 2890 3436 3306 3233 3200 3342 3121 3361 3544 3334 3438 3338 3438 3465 3329 3013 3528 3130 2990 3561 3343 3119 2890 3243 2883 3593 3421 3130 3459 2782 3439 3545 3232 3459 3200 2786 3673 2775 2997 3344 3576 3219 3687 2887 3577 3340 3316 3688 2999 2778 3110 3133 3553 3002 3210 3446 3254 3190 3576 3331 2907 3570 3100 3112 3431 3339 3328 3471 3116 2824 3527 3554 3243 3202 3308 3114 3361

Tree=0
num_leaves=32
num_cat=0
split_feature=7 14 42 12 20 42 60 26 42 60 7 60 26 26 11 7 26 20 26 31 10 2 14 7 28 28 42 31 11 26 17
split_gain=6139.82 1407.47 1395.75 829.926 749.196 702.203 565.7 397.381 307.437 306.467 269.641 265.811 229.886 217.629 203.001 147.331 127.708 123.872 108.495 99.9445 97.3964 83.3365 81.0675 80.8548 80.5593 47.7057 31.6684 29.1181 22.2567 15.9106 14.5448
threshold=0.50234968023429571 97.500000000000014 -25.499999999999996 100.50000000000001 0.10430551264509866 -1.0000000180025095e-35 1.0000000180025095e-35 0.090972752737458626 -28.499999999999996 1.0000000180025095e-35 0.38096348096348104 1.0000000180025095e-35 0.19805342426825803 0.14457111600523961 112.50000000000001 0.32384356714713863 0.11010539536915685 0.10012853470437021 0.081672357659016925 0.091153470185728266 0.29764274396627344 74.500000000000014 106.50000000000001 0.66468646088211314 0.12920004300844043 0.17247450218552698 -28.499999999999996 0.13652714192282542 140.50000000000003 0.028602894902454375 0.83736263736263739
decision_type=8 10 10 10 10 8 10 10 10 10 10 10 10 10 8 10 10 10 8 10 10 10 10 8 8 10 8 10 10 8 10
left_child=2 4 3 10 8 14 7 15 18 12 16 -10 -6 22 21 -4 -1 26 -2 -12 -15 -3 -7 -16 -9 -19 -5 29 -11 -8 -29
right_child=1 5 6 17 9 13 27 24 11 28 19 -13 -14 20 23 -17 -18 25 -20 -21 -22 -23 -24 -25 -26 -27 -28 30 -30 -31 -32
leaf_value=-0.049425993104783641 -0.025767947623850238 0.018652708312503971 -0.024006394268210524 -0.051567957857155462 0.0074536573621056361 0.010824415335247311 -0.052396339514614122 -0.004542601725277466 0.00040237820724241551 -0.026784541528466134 -0.032893213911454368 -0.035587110598515631 0.024759181386251709 0.035501387046352466 0.0014443404055426146 -0.010611873208413948 -0.032043526543415482 -0.0022382789194171655 -0.0099647962610431556 -0.012742285197363246 0.024025025356636524 -0.00078231254429725545 0.021779692632151456 0.010013724459708171 0.004983937215916878 0.017741664073864388 -0.016473170962409921 -0.031078051494432851 0.0014502349682676678 -0.038942781588872349 -0.0060052069353721711
leaf_weight=1768.7767591211013 970.21964736247901 2223.5061882419395 1139.6586113540689 27.342833895469084 4216.6972058695101 957.97675668180455 116.39780542155495 1816.7247208144399 2811.41951209947 242.49211596284295 777.95529411913594 218.51694859639974 925.21066625407548 1623.4228154569282 2320.6916326097562 2821.7510799935553 548.21933555923169 344.69675783690764 770.76588288749917 354.30228603881551 1332.1910213679075 241.78706353608868 2206.2573290521977 2049.5482583181001 1696.8430970596673 179.58055701747071 348.35815843485761 146.037389407109 31.121963923214935 360.06741634773789 27.192532750312239
leaf_count=37053 20277 22390 20206 458 53107 10455 2712 24751 38993 4073 14457 4145 8982 11026 29071 42920 9727 4487 13172 5237 11210 3257 19591 23944 19612 1674 5568 2450 437 7134 383
internal_value=0 0.00958388 -0.0177801 -0.0321541 0.000839717 0.0164591 -0.0100852 -0.00763908 -0.0082444 0.00884258 -0.0391692 -0.00219438 0.010568 0.0241948 0.00953299 -0.0144659 -0.045315 -0.00526619 -0.0187727 -0.0265896 0.0303298 0.0167466 0.0184635 0.00546336 5.81441e-05 0.0046077 -0.0190422 -0.0382227 -0.0235735 -0.0422412 -0.0271491
internal_weight=35615.7 23141.8 12473.9 4349.23 10186.4 12955.4 8124.67 7474.98 4770.92 5415.52 3449.25 3029.94 5141.91 6119.85 6835.53 3961.41 2317 899.978 1740.99 1132.26 2955.61 2465.29 3164.23 4370.24 3513.57 524.277 375.701 649.695 273.614 476.465 173.23
internal_count=472959 274130 198829 78661 143186 130944 120168 107489 76587 66599 66474 43138 62089 52282 78662 63126 46780 12187 33449 19694 22236 25647 30046 53015 44363 6161 6026 12679 4510 9846 2833
is_linear=0
shrinkage=0.03144


Tree=1
num_leaves=32
num_cat=0
split_feature=14 7 42 40 28 42 23 28 23 23 14 44 55 31 23 60 42 41 60 23 13 3 16 38 60 60 26 41 16 10 29
split_gain=6995.45 3173.77 2248.59 2124.82 2043.68 1671.82 844.09 776.486 728.806 525.985 442.336 505.205 387.758 356.139 345.506 341.55 290.168 260.969 256.705 242.33 216.365 211.047 202.1 197.172 156.732 138.238 129.899 119.229 107.573 73.0032 52.1255
threshold=102.50000000000001 0.34091988258654937 -30.499999999999996 7.5000000000000009 0.11130468447541619 -29.499999999999996 0.08537955604275145 0.17444334487877292 0.25888908232504743 0.13309605836457597 113.50000000000001 10.500000000000002 0.03883861236802414 0.25378874856486805 0.081106578276389604 1.0000000180025095e-35 -1.0000000180025095e-35 102.50000000000001 1.0000000180025095e-35 0.23932339162464689 88.833333333333357 1.0000000180025095e-35 -1.8333333333333333 -1.0000000180025095e-35 1.0000000180025095e-35 1.0000000180025095e-35 0.26435151745753316 104.50000000000001 -0.33333333333333331 0.28001253132832088 0.12128567225654606
decision_type=10 8 10 8 10 10 8 10 10 8 10 2 10 10 10 10 8 8 10 10 10 2 8 8 10 10 10 8 8 10 8
left_child=1 2 9 7 5 6 -3 10 12 20 17 -12 -6 18 25 -7 -10 -2 21 22 -1 -5 -9 -11 -16 -4 27 -15 -21 -28 -20
right_child=3 4 14 13 8 15 -8 19 16 23 11 -13 -14 26 24 -17 -18 -19 30 28 -22 -23 -24 -25 -26 -27 29 -29 -30 -31 -32
leaf_value=-0.047281669614903876 0.015014202366981456 -0.028590121567517456 -0.016941790663557891 -0.010544663995260608 -0.0044551865108737503 -0.0032310479268081666 -0.011721420878842651 -0.0036293610758858699 0.00073886332639277205 -0.032322448502098186 0.01496497284532153 0.0042589364405749069 0.0027331918342532262 0.020939541408867324 -0.0035192008731295753 -0.020775507634268057 0.020374220892997921 0.0024733246259480745 -0.030500447635508052 0.014232555074502997 -0.015765146914508938 -0.00069902265176970742 0.015827482738307062 -0.0090950880525905303 -0.024084869198262224 -0.041062053811794862 0.037112498016330701 0.0032896811818692844 0.027659723036292126 0.010939247398006967 -0.012153953854282437
leaf_weight=2976.6283048687037 1895.5120319556445 4636.6360922881868 2338.1492526342627 2573.4850219325162 11146.412970616599 25124.120135506731 7976.9674398332136 554.20553415454924 1025.8848436651751 837.58632179920096 13293.683981357841 6481.1090949170757 22172.685860296013 431.19978286139667 4509.8445787399542 1146.7946349540725 2706.8885076548904 12173.573462551809 364.62464608997107 768.53962280787528 232.26542394934222 13139.3914649121 11015.727340300335 635.38318892917596 398.57910749944858 261.07739741890691 209.06800674833357 3080.2575143044814 2541.7675574105233 212.48522595502436 264.2125924793072
leaf_count=27645 3381 27614 16009 7142 38137 83854 31091 1351 2273 5897 24128 14679 54676 599 18934 9077 3855 27182 1455 1267 1350 32179 18221 3283 3458 3114 241 6385 3234 424 824
internal_value=0 -0.00586998 -0.0207618 0.00749719 -0.00347948 -0.00851425 -0.0179224 0.0110562 0.00180433 -0.0378612 0.0084244 0.0114562 0.000328417 -0.00105579 -0.010098 -0.003997 0.014978 0.00416305 -0.00310002 0.0170419 -0.0450011 -0.00231163 0.0148955 -0.0223046 -0.00518973 -0.0193662 0.00743786 0.00545767 0.024543 0.0239264 -0.0227956
internal_weight=157125 88125.9 12189.5 68998.8 75936.4 38884.5 12613.6 48724.1 37051.9 4681.86 33843.9 19774.8 33319.1 20274.7 7507.65 26270.9 3732.77 14069.1 16341.7 14880.2 3208.89 15712.9 11569.9 1472.97 4908.42 2599.23 3933.01 3511.46 3310.31 421.553 628.837
internal_count=472959 330267 79690 142692 250577 151636 58705 93443 98941 38175 69370 38807 92813 49249 41515 92931 6128 30563 41600 24073 28995 39321 19572 9180 22392 19123 7649 6984 4501 665 2279
is_linear=0
shrinkage=0.03144


Tree=2
num_leaves=32
num_cat=0
split_feature=7 23 42 12 11 40 12 12 42 60 60 13 21 16 3 26 26 0 16 41 12 41 22 60 43 7 16 15 12 44 60
split_gain=5860.79 2925.95 2824.04 1021.46 928.542 906.417 874.04 810.906 790.627 425.599 398.847 363.448 360.432 321.411 277.674 257.612 250.57 219.633 209.064 194.619 193.769 185.07 164.63 163.032 157.553 141.22 106.762 103.803 100.606 68.1278 57.3094
threshold=0.60000802768659922 0.10113031959601666 -29.499999999999996 105.50000000000001 62.500000000000007 6.5000000000000009 93.500000000000014 112.50000000000001 -2.4999999999999996 1.0000000180025095e-35 1.0000000180025095e-35 80.833333333333357 0.23547860004216745 1.0000000180025095e-35 1.0000000180025095e-35 0.070204776154432921 0.032316082617776749 8269.5000000000018 0.66666666666666674 98.500000000000014 142.50000000000003 110.50000000000001 0.15160027238678928 1.0000000180025095e-35 -1.6363636363636329 0.40556156806156812 -1.333333333333333 1.1666666666666667 107.50000000000001 19.500000000000004 1.5000000000000002
decision_type=10 10 10 8 10 8 8 8 8 10 10 10 10 8 2 10 8 2 10 10 10 10 10 10 8 10 8 8 10 2 10
left_child=1 2 6 4 13 7 25 17 21 16 12 -8 -5 -3 15 29 -4 22 -10 -6 23 -9 -2 -16 -22 -1 -19 -17 -12 -7 -11
right_child=5 3 9 10 19 14 11 8 18 30 28 -13 -14 -15 20 27 -18 26 -20 -21 24 -23 -24 -25 -26 -27 -28 -29 -30 -31 -32
leaf_value=-0.045798782758252596 0.0040805700252578413 -0.024697575405240427 -0.01093081027061839 0.00044885457355144299 0.00024895209695497132 -0.013704399692487421 -0.026074909003243125 0.018530645280466509 0.016816301884723595 -0.025301094555589865 -0.044096478198866605 -0.010026173078904653 0.0076406251286286067 -0.0095886887143940957 0.003421032343170002 0.011091767682794136 -0.0034544604987898492 -0.022613279909998056 0.029480293702421591 -0.0092455826768708203 -0.0097186307328060335 0.0038115225539716228 0.012055776959767867 -0.011516633153809866 0.013606099428994116 -0.031875943633324036 0.00011282263379035353 -0.0027569411560000199 -0.01399759727323859 -0.034001877324078861 -0.046799718314978873
leaf_weight=2097.3248761782888 6841.9828360877 3109.1820163640659 6717.1284601679072 24245.971543105785 8136.4505151209887 993.59026285540313 4291.5191447046818 964.36088371835649 13463.029534404865 650.85594531416427 125.96873006597161 2066.8101645319257 9621.9400783083402 2519.9341172473505 21322.602452284656 665.20127902925014 13020.616497161682 213.1267117979005 1425.1175494398922 2892.6335441870615 318.35207183891907 6782.3037357944995 4086.8558108871803 747.43701229221188 2832.7765102651902 1098.8542207279243 4890.0840459051542 2731.3817300619557 850.94183443812653 195.64649225189351 151.21353825903498
leaf_count=23764 15724 16347 32693 69071 28239 3724 27088 1741 20434 7105 996 9234 21454 12312 47656 1467 50666 823 1713 10037 1077 16350 7261 3688 5718 7724 13429 7328 5025 919 2152
internal_value=0 -0.00569162 -0.0134801 -0.00114064 -0.00754432 0.00678246 -0.0276011 0.0099584 0.0137902 -0.00691127 0.00192076 -0.0208585 0.00249207 -0.0179343 0.00266247 -0.00445393 -0.00599885 0.00454842 0.0180287 -0.00224127 0.00395642 0.00564412 0.00706301 0.00291509 0.0112494 -0.0410134 -0.000836764 -4.44557e-05 -0.0178835 -0.0170466 -0.0293603
internal_weight=150071 81597.3 30094.3 51503 16658.2 68473.8 9554.51 38666.9 22634.8 20539.8 34844.8 6358.33 33867.9 5629.12 29807 4585.82 19737.7 16032 14888.1 11029.1 25221.2 7746.66 10928.8 22070 3151.13 3196.18 5103.21 3396.58 976.911 1189.24 802.069
internal_count=472959 323907 160426 163481 66935 149052 67810 77475 40238 92616 96546 36322 90525 28659 71577 13438 83359 37237 22147 38276 58139 18091 22985 51344 6795 31488 14252 8795 6021 4643 9257
is_linear=0
shrinkage=0.03144


Tree=3
num_leaves=32
num_cat=0
split_feature=14 26 42 44 45 14 23 42 7 41 7 55 45 42 7 43 55 7 7 30 56 29 23 40 41 42 53 49 7 40 6
split_gain=4852.58 1966.62 2576.67 1034.85 999.233 897.704 617.815 567.893 446.821 415.416 399.993 385.97 341.588 500.742 295.186 292.232 237.995 210.255 205.358 193.371 183.108 176.136 154.157 144.167 136.621 108.257 98.7875 75.0215 68.6445 58.9427 57.836
threshold=91.500000000000014 0.11906208412891282 -29.499999999999996 14.500000000000002 0.24818840579710147 116.50000000000001 0.25888908232504743 -1.4999999999999998 0.40285307285307292 115.50000000000001 0.54556518487246053 0.088562091503267992 0.05634920634920635 -27.499999999999996 0.73838834776334794 9.2899159663865536 0.037749287749287756 0.30923945335710051 0.71076334776334804 0.14644659377628261 11.500000000000002 0.12128567225654606 0.092114046799241109 8.5000000000000018 94.500000000000014 -28.499999999999996 0.075000001117587103 -68.878219604492173 0.73213081036610461 6.5000000000000009 0.22649572649572652
decision_type=10 8 10 2 8 10 10 8 10 10 10 10 8 10 8 8 10 10 10 10 2 10 10 10 8 8 8 8 10 10 10
left_child=1 2 4 5 17 11 12 9 16 -7 -6 22 13 -3 -9 29 -4 -1 -13 -14 -17 24 -2 -10 27 -26 30 -5 -28 -8 -23
right_child=3 6 8 21 10 7 15 14 23 -11 -12 18 19 -15 -16 20 -18 -19 -20 -21 -22 26 -24 -25 25 -27 28 -29 -30 -31 -32
leaf_value=-0.045403514088491304 -0.0038809790002882634 -0.0239952808237444 -0.017320593370212148 -0.018523012460966666 -0.021468414034472357 0.02270361542700888 0.0067798066658012641 0.011678074495232371 -0.001535905596096369 0.0041281697724307618 -0.0033088454191644891 0.0044982525398643983 -0.0031182197347190124 0.00066833944875055343 0.020779638848305106 0.0024164065563234347 -0.0056395117004525309 -0.030667812481106404 0.011295689209903242 0.0033073305614170958 0.023049126227734276 0.0025675616536576162 0.0025325240679782645 -0.0081821684199653247 -0.047405963525151293 -0.0039356141017308308 -0.00074683258772087588 0.011993808598730225 0.010640838610081532 -0.0069483485329316043 0.012455463730618092
leaf_weight=1741.6708937182557 6040.4431825785432 1618.282807006035 4247.6273626018083 88.716635107062757 5151.6652635901701 1345.6453230129555 578.53272128431126 8122.0851630074903 12752.508293785853 10287.290544497082 1562.7021422479302 14126.356584789231 11757.592012390727 1636.4897461337969 6220.5119621613994 553.95478760171682 2902.3123142425902 2128.1969078630209 6376.352803086862 7636.1467380323447 1829.1424253010191 1064.0225824387744 9579.4472701172344 4318.5080027366057 56.778951243497431 12256.623834030703 5268.044562404044 769.4650648208335 580.82585099851713 663.68024242017418 1298.2144284700043
leaf_count=22145 20881 11226 30843 285 31348 2305 1289 13079 46706 26687 5943 34251 40138 6674 8367 1247 14522 18095 11114 19498 2878 2178 24709 18086 261 37234 14041 1869 1133 1718 2209
internal_value=0 -0.0067343 -0.0116359 0.00492717 -0.0245764 0.00698126 -0.000241111 0.011439 -0.00598092 0.0062771 -0.0172421 0.00377569 -0.00217 -0.0115949 0.0156256 0.011809 -0.0125792 -0.0373009 0.00661231 -0.000588198 0.0182534 -0.00103818 5.23138e-05 -0.00321728 -0.00329116 -0.0041365 0.00257584 0.00883697 0.000384203 -0.000554691 0.00800201
internal_weight=144560 61079 34805.2 83480.8 10584.2 62098.1 26273.8 25975.5 24221 11632.9 6714.37 36122.6 22648.5 3254.77 14342.6 3625.31 7149.94 3869.87 20502.7 19393.7 2383.1 21382.7 15619.9 17071 13171.6 12313.4 8211.11 858.182 5848.87 1242.21 2362.24
internal_count=472959 272356 187688 200603 77531 141393 84668 50438 110157 28992 37291 90955 77536 17900 21446 7132 45365 40240 45365 59636 4125 59210 45590 64792 39649 37495 19561 2154 15174 3007 4387
is_linear=0
shrinkage=0.03144


Tree=4
num_leaves=32
num_cat=0
split_feature=13 55 42 40 13 42 28 13 53 5 60 40 60 23 28 28 2 60 36 42 31 52 59 43 2 55 26 53 23 29 37
split_gain=3358.45 1733.9 1989.59 978.792 940.467 669.427 604.536 471.27 460.873 445.935 435.215 369.926 332.02 297.471 278.66 266.349 230.393 211.092 191.558 131.799 125.984 118.139 109.438 105.953 97.3854 82.1458 77.729 61.5295 56.1042 28.3403 20.9257
threshold=99.166666666666671 0.083771929824561414 -29.499999999999996 6.5000000000000009 78.166666666666671 -1.0000000180025095e-35 0.18700738534102901 110.58333333333336 1.0000000180025095e-35 0.32200460829493094 1.0000000180025095e-35 9.5000000000000018 1.0000000180025095e-35 0.25888908232504743 0.087937525437525463 0.088518620943952811 6.5000000000000009 1.0000000180025095e-35 9.5000000000000018 -27.499999999999996 0.031414473684210534 1.6250000000000002 0.01941930618401207 16.792857142857148 11.500000000000002 0.25817133091219829 0.24948979591836737 2.1250000000000004 0.078974723711565831 0.10019305019305021 152.50000000000003
decision_type=10 10 10 8 8 8 10 10 8 10 10 10 10 10 10 8 10 10 2 10 10 10 10 10 10 10 10 8 8 8 10
left_child=1 2 4 5 18 19 8 20 24 -6 14 16 -10 21 -4 -9 27 -18 -1 30 -7 -8 -21 25 -3 -13 -15 -5 -12 -25 -2
right_child=3 6 10 11 9 7 13 15 12 -11 28 23 -14 26 -16 -17 17 -19 -20 22 -22 -23 -24 29 -26 -27 -28 -29 -30 -31 -32
leaf_value=-0.041660682743420059 -0.024074098481558757 0.017709894763782087 -0.0071128667366189792 0.025560158393370336 -0.018787039136531014 0.00072939204739891513 0.0077935600897201703 0.0063913157280559747 -0.0028688227787031827 -0.0013346289327535771 -0.034797984868102365 -0.0086675582981927245 -0.025697847739473346 0.013034499428922635 -0.00040490001470782326 0.019003560480042665 0.0026598408512519683 -0.012827018785238307 -0.025414933295432741 0.0051391358954599141 0.0092794872097378168 -0.0011437026553649903 -0.001749160506761783 0.0016787371782497609 0.0055651839097195926 0.0018690836844565783 0.026630573302801348 0.0074994702087637366 -0.019225871135855443 0.025569776880102112 -0.061317833831547514
leaf_weight=1860.1573839054909 29.933306908234954 1016.3552462579682 12373.821341395727 524.18225361779332 6651.566757347784 2361.1932546244934 4279.2625744282268 2020.0002500480041 22351.430939899758 1849.6375316213816 379.7559593844926 4573.7848241673782 647.87707623885944 856.71813527401537 12114.865172265563 9167.1202109530568 27448.24579856731 898.34624630887993 1169.1868855524808 11790.230422324501 6115.8692135782912 2220.6243740138598 2826.3213436827064 81.608953859657049 1824.0113151101395 870.54486350133084 808.04378492990509 289.57424250524491 576.55913758999668 123.09844745136797 30.100551655516028
leaf_count=23009 133 1697 57182 819 42671 6261 9745 3866 80311 7041 5800 16338 5809 1508 43296 13296 70917 5100 9534 29088 11712 6398 7673 174 3753 2277 1155 774 5303 186 133
internal_value=0 -0.00480413 -0.00951646 0.00493125 -0.0203503 0.00869719 0.00031997 0.0124895 -0.00203645 -0.0149899 -0.00460699 0.00121599 -0.00351203 0.00777755 -0.00379437 0.0167263 0.00264253 0.00216899 -0.0353918 0.00361608 0.006898 0.00474025 0.00380718 -0.00614771 0.00991142 -0.00698274 0.0196352 0.0191353 -0.0254131 0.0160518 -0.0428291
internal_weight=140130 70979.9 36975.6 69150.2 11530.5 34340.8 34004.3 19664.2 25839.7 8501.2 25445 34809.4 22999.3 8164.65 24488.7 11187.1 29160.3 28346.6 3029.34 14676.6 8477.06 6499.89 14616.6 5649.04 2840.37 5444.33 1664.76 813.756 956.315 204.707 60.0339
internal_count=472959 304212 193836 168747 82255 72162 110376 35135 91570 49712 111581 96585 86120 18806 100478 17162 77610 76017 32543 37027 17973 16143 36761 18975 5450 18615 2663 1593 11103 360 266
is_linear=0
shrinkage=0.03144


Tree=5
num_leaves=32
num_cat=0
split_feature=7 12 42 56 14 42 42 26 20 16 7 51 23 44 41 14 16 20 7 26 28 48 12 23 26 41 35 35 7 43 32
split_gain=3912.28 1629 1213.2 1075.86 989.769 916.29 581.938 585.953 559.766 361.591 292.426 265.656 259.637 252.68 232.196 231.296 219.726 172.813 168.218 144.007 139.566 136.292 134.802 128.608 110.129 108.197 96.0262 83.5276 70.7851 68.2771 58.8472
threshold=0.54401579901579911 85.500000000000014 -34.499999999999993 5.5000000000000009 105.50000000000001 -28.499999999999996 -5.4999999999999991 0.18754042690815009 0.17363190286094479 0.66666666666666674 0.70010702260702284 14.500000000000002 0.11762729285262494 17.500000000000004 108.50000000000001 99.500000000000014 -0.83333333333333337 0.072939020028612314 0.40000644994840046 0.12605487110098279 0.11130468447541619 106.37397766113283 115.50000000000001 0.26491934779698117 0.081672357659016925 98.500000000000014 0.030583613916947253 0.21428571428571433 0.29051997022585269 8.6396103896103913 156.50000000000003
decision_type=10 8 10 2 10 10 8 10 10 8 10 8 8 2 10 10 8 10 10 10 10 8 10 10 10 10 10 10 10 8 2
left_child=1 2 11 5 10 12 14 13 15 -10 16 24 -3 -8 25 -5 27 28 -7 -13 -18 26 -16 -9 -1 -6 -12 -2 -4 -23 -19
right_child=4 3 17 8 6 18 7 23 9 -11 21 19 -14 -15 22 -17 20 30 -20 -21 -22 29 -24 -25 -26 -27 -28 -29 -30 -31 -32
leaf_value=-0.0455003132954689 -0.020897318814226084 -0.027297227274924514 -0.024622654421049262 -0.0058247943150700181 0.028134337282133243 -0.010415884376192647 0.0091190448433916445 0.014950764916794075 -0.00093298719287116015 0.011026481454289234 -0.0091354628782687464 -0.027738590538099336 -0.012828416356120916 -0.00066879964838809341 -0.007671871899545997 0.00082110365910782464 -0.0029151163649977453 -0.0054300553201788232 -0.002710521805250392 0.0011522731722513882 0.0021557579700404862 0.0061535388786467301 0.0020381314202741769 0.023848548944000687 -0.03199816621321968 0.0087486293682816456 0.0035223155687334811 -0.0070707787044952683 -0.012215979406635449 0.01536247473327714 0.0094286330629263747
leaf_weight=1348.6911788235884 612.07893380941823 3124.6517927332316 626.01645078742877 14869.180722619174 329.89452426182106 4588.5456353258342 19446.639571834356 4230.3606519293971 4718.7086268241983 5312.0636120443232 638.20944714080542 528.43477517226711 2018.0159538422013 3010.7386495051906 1641.7302733035758 7940.7051108974265 10984.005120614544 2193.204142503906 7187.5044867647812 251.76037981454283 10487.694236781914 1836.6207146767993 10150.812430307036 2589.2257190952078 1074.5441580822226 2069.8589081517421 8241.3465692023747 1467.1715939654969 1661.3712002523243 1404.6473078667186 299.33234477741644
leaf_count=19425 2468 26589 6782 67599 520 26407 35911 6863 13914 12056 1847 5229 10301 6997 4439 24425 39503 11173 29438 1049 26652 4560 28953 3722 10138 4301 21773 5017 10971 2896 1041
internal_value=0 -0.00622262 -0.0194063 -0.00410741 0.00454014 -0.0105483 0.00772521 0.010258 -0.00078921 0.00540052 0.000658832 -0.0343773 -0.02162 0.00780684 0.00250042 -0.00351119 -0.00138333 -0.00937235 -0.005713 -0.0184169 -0.000438284 0.00462676 0.000686262 0.0183294 -0.0395148 0.0114148 0.00261244 -0.0111419 -0.0156125 0.0101448 -0.00364528
internal_weight=136884 57742.7 7983.35 49759.4 79141 16918.7 43469.3 29277 32840.7 10030.8 35671.8 3203.43 5142.67 22457.4 14192.3 22809.9 23550.9 4779.92 11776.1 780.195 21471.7 12120.8 11792.5 6819.59 2423.24 2399.75 8879.56 2079.25 2287.39 3241.27 2492.54
internal_count=472959 276537 65808 210729 196422 92735 91706 53493 117994 25970 104716 35841 36890 42908 38213 92024 73640 29967 55845 6278 66155 31076 33392 10585 29563 4821 23620 7485 17753 7456 12214
is_linear=0
shrinkage=0.03144


Tree=6
num_leaves=32
num_cat=0
split_feature=14 7 42 24 45 42 26 26 40 42 15 2 14 16 38 60 60 40 16 56 16 41 6 52 27 35 55 6 2 39 14
split_gain=3359.47 1581.27 1367.65 833.749 707.332 615.203 413.963 394.835 352.331 320.918 307.459 269.172 244.023 233.873 215.032 212.961 199.606 172.8 156.831 155.099 150.04 142.909 126.992 120.797 93.4012 62.7776 62.2713 59.3268 53.4612 45.9187 35.8404
threshold=99.500000000000014 0.37820970695970707 -32.499999999999993 0.071175278622087154 0.77913279132791347 -29.499999999999996 0.081672357659016925 0.21265300791162864 7.5000000000000009 -2.4999999999999996 3.1666666666666674 6.5000000000000009 111.50000000000001 1.166666666666667 -1.0000000180025095e-35 1.0000000180025095e-35 1.0000000180025095e-35 8.5000000000000018 0.66666666666666674 3.5000000000000004 -1.8333333333333333 98.500000000000014 0.46862745098039221 0.075000001117587103 689.50000000000011 0.46376811594202905 0.16760299625468167 0.91287878787878796 48.500000000000007 -0.09545454545454389 53.500000000000007
decision_type=10 8 10 10 8 10 8 10 10 8 8 10 10 10 8 10 10 10 8 2 8 8 10 10 2 10 10 10 10 10 8
left_child=1 2 10 5 8 6 -3 15 11 26 25 23 24 -13 -12 -5 19 -7 -9 -4 -14 28 -23 -2 -11 -1 27 -6 -10 -28 -18
right_child=4 3 16 7 9 17 -8 18 21 12 14 13 20 -15 -16 -17 30 -19 -20 -21 -22 22 -24 -25 -26 -27 29 -29 -30 -31 -32
leaf_value=-0.0082339944630835486 0.028922486323985426 -0.022433272591789698 -0.013746777728462013 -9.1511319299845866e-05 -0.0031377510832661772 -0.0019182921467741046 -0.0074988108084493542 0.0029336221310512882 0.014101576045625411 0.0027371381587018018 -0.039417598704959284 0.0040063489282001893 -0.00063967851922016119 0.016404383930839091 -0.022809944876863292 -0.016056418469624557 -0.049348987187108971 -0.0090358589719591945 0.015440642288829588 -0.0039344859289115143 0.018507412322646535 -0.0033661537980905413 0.0028168626391626658 0.0090107422624449846 0.015720296943326797 0.026747553144945192 0.014151820991103035 0.008161412177209889 -0.010381188828511741 0.0035597494636024304 -0.02344567691296167
leaf_weight=244.18457368668169 645.80854286812246 3497.0156340682879 2253.5936711495742 25550.863646717742 1554.423916972708 12986.184093342279 3859.5903527989285 1763.6107107838616 819.21627179346979 1974.5159847978503 2263.6420376689639 33746.073598460294 430.12135622091591 1574.0338777313009 1169.3857845831662 853.38387169130147 58.964225779520348 4554.0100373952882 2262.4041626099497 5426.6783436171245 6799.7200965983793 9899.5988285399508 4912.9978095241822 564.53867440391332 757.90405076928437 63.879659639671445 731.52292817272246 651.8558051828295 98.707931770943105 905.27732944348827 507.50857390998863
leaf_count=1644 873 28327 17687 82147 4465 51613 19039 4225 1639 4301 30182 80307 807 2723 11626 6476 1139 21240 4328 27081 10372 31865 13470 1242 1306 212 1549 1537 379 2311 6847
internal_value=0 -0.00494316 -0.0152952 -0.00270013 0.00503658 -0.00696702 -0.0145983 0.00079087 0.00336455 0.0113661 -0.0310616 0.00505855 0.0143433 0.00455892 -0.0337615 -0.000607565 -0.00814249 -0.0037663 0.00996215 -0.00681384 0.0173683 -0.000569359 -0.00131538 0.0196369 0.00633886 -0.000972937 0.00364807 0.000200864 0.0114678 0.00829427 -0.0261514
internal_weight=133381 67314.9 11987.8 55327.1 66066.3 24896.8 7356.61 30430.3 52261 13805.3 3741.09 36530.5 9962.26 35320.1 3433.03 26404.2 8246.74 17540.2 4026.01 7680.27 7229.84 15730.5 14812.6 1210.35 2732.42 308.064 3843.08 2206.28 917.924 1636.8 566.473
internal_count=472959 313813 96418 217395 159146 120219 47366 97176 132498 26648 43664 85145 16786 83030 41808 88623 52754 72853 8553 44768 11179 47353 45335 2115 5607 1856 9862 6002 2018 3860 7986
is_linear=0
shrinkage=0.03144


Tree=7
num_leaves=32
num_cat=0
split_feature=7 26 42 23 42 45 42 13 13 23 2 60 7 2 28 32 15 49 2 2 16 23 2 16 60 48 2 2 11 60 2
split_gain=3077.7 1400.52 1645.51 780.992 556.982 467.779 471.126 422.841 378.228 362.923 303.889 262.375 254.133 241.831 235.854 222.895 216.523 210.327 166.549 156.033 155.544 123.937 105.753 104.769 98.4899 91.6068 85.6016 81.9072 58.2204 48.9673 48.6614
threshold=0.57154974654974666 0.081672357659016925 -29.499999999999996 0.13578813785733371 -1.0000000180025095e-35 0.05634920634920635 -37.499999999999993 83.583333333333357 107.83333333333336 0.22225740623460702 112.50000000000001 1.0000000180025095e-35 0.41071844821844833 8.5000000000000018 0.1714748035136385 85.500000000000014 3.4166666666666674 12.505245208740236 81.500000000000014 10.500000000000002 0.66666666666666674 0.073537483050300265 31.500000000000004 -0.33333333333333309 1.0000000180025095e-35 5.2098751068115243 6.5000000000000009 462.50000000000006 125.50000000000001 1.5000000000000002 267.50000000000006
decision_type=10 8 10 10 8 8 10 10 8 10 10 10 8 10 8 2 8 10 8 10 8 10 10 8 10 10 10 10 8 10 10
left_child=1 2 7 10 13 6 16 12 23 15 17 18 -1 28 -10 -7 -3 19 -4 -2 -11 30 -8 -6 -15 -9 -19 -23 -5 -13 -12
right_child=3 5 11 4 8 9 22 25 14 20 21 29 -14 24 -16 -17 -18 26 -20 -21 -22 27 -24 -25 -26 -27 -28 -29 -30 -31 -32
leaf_value=-0.039750253727366971 0.0080102057150662157 0.010788513139565354 -0.003991883308307435 0.021412839355389218 -0.0018447177858600321 -0.0041158132803684249 -0.0077975306016110748 -0.025814754165098246 0.010602327481569376 0.00064689315967995421 -0.011968709413945167 -0.021616715912790196 -0.024339375864478218 0.0031718986805175293 0.019197457765485246 0.0013277826911833675 -0.023038280155044874 0.017127140396081486 -0.012911620734443376 -0.0015457553782845556 0.012621677959904768 -0.0024599076155343139 0.0048069833154580459 0.0074408737652939287 -0.011973045868183974 -0.0075918881696641731 0.0045992113395269757 -0.02651520441141602 -0.00076569320589945202 -0.043886192467392615 -0.026221181435402613
leaf_weight=1734.0817887699232 1926.187402841635 203.78938852483407 13342.391926010372 891.13035711459816 1560.9438169710338 15215.365330135101 1247.2552189596463 347.92764337034896 6965.8799133263528 1728.3426148856524 749.07874390529469 534.82959749363363 2714.4172699532937 16856.005148149561 5770.4744763923809 14540.641456251382 2268.0674969120882 566.50235913135111 2448.955945758149 13711.316998519469 2824.3679689900018 2422.1076553119346 1392.3670704220422 5209.3896600836888 435.29783930256963 1260.342544535175 11121.132968381047 148.38354938710108 134.66230108588934 119.50218546949327 346.45121908793226
leaf_count=27141 4899 867 66109 1534 3977 58336 5997 2824 12338 4893 3367 7374 23402 42468 8864 47249 19746 1132 14640 41421 5814 7660 5907 11059 2435 7549 28901 642 350 2308 1756
internal_value=0 -0.00508524 -0.0113434 0.00457592 0.00760772 -0.00151285 -0.0103858 -0.0253528 0.0113048 -0.000190888 0.000875692 -0.00618374 -0.0303476 0.00367051 0.0144967 -0.00145574 -0.0202491 0.00201605 -0.00537526 -0.000368624 0.00807584 -0.00762389 -0.00114887 0.00530002 0.00279056 -0.0115357 0.00520661 -0.00384965 0.0185015 -0.0256908 -0.0164782
internal_weight=130738 61922.6 22502.4 68814.9 37823.8 39420.2 5111.48 6056.77 19506.7 34308.7 30991.2 16445.7 4448.5 18317.1 12736.4 29756 2471.86 27325.1 15791.3 15637.5 4552.71 3666.02 2639.62 6770.33 17291.3 1608.27 11687.6 2570.49 1025.79 654.332 1095.53
internal_count=472959 300156 151347 172803 83025 148809 32517 60916 36238 116292 89778 90431 50543 46787 21202 105585 20613 76353 80749 46320 10707 13425 11904 15036 44903 10373 30033 8302 1884 9682 5123
is_linear=0
shrinkage=0.03144


Tree=8
num_leaves=32
num_cat=0
split_feature=7 26 42 12 42 7 55 41 12 30 16 11 53 11 10 26 53 16 31 12 39 60 12 39 52 42 12 11 35 21 25
split_gain=2785.1 1266.18 1222.43 1095.99 730.032 528.571 361.396 334.661 314.708 285.744 246.265 231.196 228.588 223.643 217.963 207.498 205.419 198.508 187.65 182.581 166.695 147.494 129.05 127.554 127.131 87.4973 87.0803 86.8402 74.0847 53.5861 30.9236
threshold=0.46913860830527504 0.090972752737458626 -29.499999999999996 107.50000000000001 -1.0000000180025095e-35 0.67167324128862604 0.133739837398374 99.500000000000014 96.500000000000014 0.17251642036124798 0.33333333333333343 73.500000000000014 5.7500000000000009 103.50000000000001 0.22223004034149549 0.2057307060755337 1.0000000180025095e-35 1.8333333333333337 0.047847985347985351 79.500000000000014 3.0172413793103492 1.0000000180025095e-35 100.50000000000001 -0.7113095238095325 12.500000000000002 -28.499999999999996 103.50000000000001 68.500000000000014 0.19963768115942029 0.12411276113767934 0.16628264208909374
decision_type=10 8 10 8 8 10 10 8 8 10 8 10 8 8 10 10 8 10 10 8 8 10 10 8 10 10 10 10 10 10 10
left_child=1 2 8 7 12 17 19 16 28 -7 11 -8 13 -5 29 -12 26 -6 -16 27 -10 24 -18 -21 -4 -14 -2 -3 -1 -9 -23
right_child=3 6 21 4 5 9 10 14 20 -11 15 -13 25 -15 18 -17 22 -19 -20 23 -22 30 -24 -25 -26 -27 -28 -29 -30 -31 -32
leaf_value=-0.040592288424302993 0.0072602689435356223 -0.030710319599388119 -0.0054445757604000226 0.01447641142924006 0.0034823888035407933 0.0095073770110483315 -0.019944540825957334 -0.00024267359730881631 -0.02448715296332353 0.018225830949368808 0.0014240635177074675 -0.0010585144076116536 -0.035855801854685863 0.0031465676634004737 -0.011301640317452427 0.013042143327808568 -0.0020441615900110392 0.023851933259152181 -0.0036058818800090344 -0.01037059445285287 -0.0057667641378687353 -0.02906883423075898 0.0057449736410987943 -0.003005694972997987 -0.015103162336770436 -0.0011243608952427439 0.024482699606573989 -0.010045553982258187 -0.026788931806156269 0.010832896520469549 -0.007701914077484974
leaf_weight=1455.7731339272577 2125.7690073777921 427.2723986338824 7658.3720363450702 1884.1542482879013 11939.695454642642 9293.405413268134 841.03069220343605 896.02226538816467 2315.5317621857394 6192.1232816008851 5886.7582020920236 2688.9925925366115 72.035733345896006 20019.538343910594 5343.3911880415399 2048.1501966372598 9597.4846130637452 492.30991476774216 7567.6685851735529 3492.0771773003507 590.07589731132612 381.85789328778628 2692.2405290014576 6952.2634235451696 1634.5676523102447 11504.234338036506 336.01484627695754 379.83051627827808 523.63371881120838 833.3126714117825 81.312685430981219
leaf_count=24220 4520 5060 45914 3988 28160 18123 5603 2496 21213 10030 19441 9574 434 56420 25140 4294 34520 787 23322 18304 3980 7078 7945 29528 11521 39098 521 2393 6663 1715 954
internal_value=0 -0.00722565 -0.0144354 0.00297317 0.00536322 0.00911753 -0.00257877 -0.00201945 -0.0272737 0.0129937 0.00134969 -0.00555864 0.00223263 0.00412123 -0.00538697 0.00442306 0.00132272 0.00428924 -0.00679094 -0.00658174 -0.0206858 -0.00800687 -0.000337798 -0.00546825 -0.00714363 -0.00134084 0.00961204 -0.0209881 -0.0369425 0.00509463 -0.0253206
internal_weight=128147 37357.5 14641.1 90789.4 61397.5 27917.5 22716.4 29391.9 4885.01 15485.5 11464.9 3530.02 33480 21903.7 14640.4 7934.91 14751.5 12432 12911.1 11251.4 2905.61 9756.11 12289.7 10444.3 9292.94 11576.3 2461.78 807.103 1979.41 1729.33 463.171
internal_count=472959 215740 121543 257219 157040 57100 94197 100179 56076 28153 38912 15177 99940 60408 52673 23735 47506 28947 48462 55285 25193 65467 42465 47832 57435 39532 5041 7453 30883 4211 8032
is_linear=0
shrinkage=0.03144


Tree=9
num_leaves=32
num_cat=0
split_feature=12 23 42 40 10 12 42 20 60 11 20 28 60 16 2 44 28 42 53 10 23 43 11 12 35 11 31 12 60 43 13
split_gain=2436.84 1128.57 1504.64 789.541 676.998 535.049 519.065 304.823 295.965 257.142 249.232 232.846 211.894 203.525 188.994 179.17 172.83 171.511 159.694 158.311 128.037 134.056 123.744 118.945 116.693 92.6992 77.672 59.6859 58.1067 48.5769 32.3213
threshold=102.50000000000001 0.13116019024488973 -30.499999999999996 6.5000000000000009 0.56515817515817524 117.50000000000001 -1.4999999999999998 0.21128856472166332 1.0000000180025095e-35 105.50000000000001 0.18525668525668529 0.12647140285279049 1.0000000180025095e-35 -1.0000000180025095e-35 69.500000000000014 8.5000000000000018 0.079021706809396394 -26.499999999999996 3.1250000000000004 0.68915396198004908 0.27821116641718091 8.7549999999999972 118.50000000000001 88.500000000000014 0.34099718111346028 118.50000000000001 0.16012820512820516 152.50000000000003 1.5000000000000002 3.4316770186335437 125.16666666666667
decision_type=10 10 10 8 10 10 8 8 10 10 10 10 10 8 10 2 10 10 8 10 10 8 8 10 10 8 10 10 10 8 10
left_child=1 2 4 5 11 9 22 13 10 24 14 -1 19 17 -5 -8 -15 -3 -12 -4 29 -22 -7 -6 -2 -11 30 -28 -14 -9 -10
right_child=3 7 12 8 23 6 15 20 26 25 18 -13 28 16 -16 -17 -18 -19 -20 -21 21 -23 -24 -25 -26 -27 27 -29 -30 -31 -32
leaf_value=-0.018836074711535988 0.0039918031394948509 -0.017606149554666446 -0.0029872390121901777 0.00066696355794916356 -0.03814156715782855 0.011668702639374161 0.017600194905594762 0.0092305251885359419 -0.021661502966414635 -0.00040012873866239246 0.0087789939588323804 -0.0063344828496263664 -0.01793145489226642 -0.0066094524502422333 -0.0059340406685053455 0.0086854825995188734 0.0019757644344417912 -0.0023129811691728077 0.00047657172153950871 -0.012655303073359511 -0.0010355324837727832 0.019659927572457343 0.0023315239389059923 -0.022789305634360799 0.011209832947085885 -0.010684888154602579 -0.0076293807319098373 0.024342450031493181 -0.042707786315957438 0.00098360083633850003 -0.0077156309274400694
leaf_weight=4524.4662378393114 9420.1349796161521 1362.9678191971034 16932.061106969137 23023.389223689446 1816.2739403842716 1810.9693386366125 7621.0351604614407 1012.3087513572536 749.34677544655278 5628.1429279157892 5525.5275473122019 2183.5287477266975 524.71597744012251 3114.2350300650578 5268.3612328771269 3150.020337050315 9062.4580982187763 1548.2917912835255 3910.8963789581321 1857.7708143705968 418.14870916493237 1189.1991244098172 6227.0869822435779 688.69050570088439 2894.2002946792636 1023.7505256971344 537.86977513576858 64.54147212812677 113.89463625883218 2332.9002189694438 210.61966086598113
leaf_count=34500 26065 8096 69459 73321 30578 4236 13214 2566 7122 16724 12277 10665 7231 15328 20441 6539 29801 5232 10680 15243 1089 2265 18949 7687 6449 3659 2901 190 2284 6795 1373
internal_value=0 -0.00550671 -0.00951094 0.00347855 -0.0199754 0.00672402 0.0104814 0.000216056 0.000358225 0.00299776 0.000913532 -0.0147668 -0.0045486 -0.00200547 -0.000562262 0.0149932 -0.000219974 -0.00947323 0.00533813 -0.0039432 0.00698384 0.0142763 0.00443533 -0.033922 0.00568833 -0.00198315 -0.0130503 -0.00419994 -0.0223571 0.00347948 -0.0186031
internal_weight=125748 48681.9 28641.4 77065.9 9212.96 37775.3 18809.1 20040.5 39290.6 18966.2 37728.2 6707.99 19428.4 15088 28291.8 10771.1 12176.7 2911.26 9436.42 18789.8 4952.56 1607.35 8038.06 2504.96 12314.3 6651.89 1562.38 602.411 638.611 3345.21 959.966
internal_count=472959 248819 177647 224140 83430 95835 42938 71172 128305 52897 116719 45165 94217 58457 93762 19753 45129 13328 22957 84702 12715 3354 23185 38265 32514 20383 11586 3091 9515 9361 8495
is_linear=0
shrinkage=0.03144


Tree=10
num_leaves=32
num_cat=0
split_feature=14 20 42 7 45 42 20 23 7 42 40 7 16 60 14 0 42 30 23 30 2 16 60 41 23 2 2 2 41 2 38
split_gain=2635.18 1091.45 997.911 690.816 450.652 564.211 372.656 358.082 293.308 238.748 231.016 202.266 195.417 186.883 180.197 168.607 151.012 140.286 127.916 127.417 94.0915 88.5033 80.7978 78.0444 69.4445 69.3175 64.8767 63.8066 59.6495 36.8292 33.0052
threshold=94.500000000000014 0.069006568144499195 -29.499999999999996 0.67167324128862604 0.05634920634920635 -30.499999999999996 0.14434068067118147 0.25888908232504743 0.32749883286648002 -1.0000000180025095e-35 8.5000000000000018 0.45174714174714187 0.66666666666666674 1.0000000180025095e-35 111.50000000000001 8295.5000000000018 -1.0000000180025095e-35 0.1434624697336562 0.10257304918854117 0.087228260869565227 6.5000000000000009 1.8333333333333337 1.0000000180025095e-35 91.500000000000014 0.036591929428443914 190.50000000000003 38.500000000000007 44.500000000000007 91.500000000000014 537.50000000000011 -24.499999999999996
decision_type=10 10 10 8 8 10 10 10 8 8 10 8 10 10 10 2 8 10 8 10 10 10 10 10 8 10 10 10 8 10 10
left_child=1 2 8 10 5 17 19 13 30 23 12 24 15 -6 -11 -2 -9 -3 -10 25 -21 -14 -13 -8 -4 -5 -7 28 -12 -29 -1
right_child=3 4 11 6 7 26 9 16 18 14 27 22 21 -15 -16 -17 -18 -19 -20 20 -22 -23 -24 -25 -26 -27 -28 29 -30 -31 -32
leaf_value=-0.007264829383007018 0.0033914636765189593 -0.027852068498328258 -0.018659176112646121 0.001842945470262659 -0.0014176629777873919 -0.0056721709056938956 0.031080887988393782 -0.00084675269362761562 -0.02431968896174579 0.0075787054734450816 0.020680914277870451 -0.0033175410123834079 0.0067356106507153232 -0.014232745799874007 0.017503130894993044 -0.0016852715695755537 0.01380267401944011 -0.011499672959554478 -0.012460101528518003 0.024452111744915486 0.0060477708766950933 0.019289187344971103 -0.020027608405486633 0.0062838643581792858 -0.0098444693208421599 -0.0089535392264006065 0.0039660526070966814 -0.0078408305121674647 -0.002550988712124292 -0.027856627268782533 -0.040282376805360336
leaf_weight=30.965267532970756 17161.199822886148 1537.4165393684525 1269.793519122235 5840.8429048275575 28610.288594083395 1541.4434983204119 127.67597624287009 1020.4490390382707 2444.8702639795374 2580.0741031495854 111.50697630643845 7514.6420557784149 3850.8393246550113 1170.771040648804 6048.8624525042251 10376.36705949367 2184.4797625502106 782.89365549618378 1422.4528852126095 284.94165267795324 7487.487313633319 648.59043031837791 297.24053964565974 6913.5323216733523 2905.7029034391744 653.4810451650992 1250.0808360346127 1714.1517983862432 5134.7490221918561 95.868602197617292 946.31299847061746
leaf_count=461 46973 17591 12798 15110 106188 8189 204 2998 26073 5261 265 32272 8980 10740 9901 35885 4177 5875 9551 449 17111 1204 3630 16387 23075 2156 5833 7182 17970 483 17987
internal_value=0 -0.0051388 -0.0118063 0.00408913 -0.00219301 -0.0108791 0.00768323 -0.000846896 -0.023848 0.0110303 0.00133682 -0.00693953 0.00247108 -0.00192151 0.0145358 0.00147851 0.00913842 -0.0223355 -0.0199581 0.00400692 0.00672284 0.00854565 -0.00395364 0.006734 -0.0125255 0.000756421 -0.00135604 -0.00381294 -0.00205676 -0.00890268 -0.0392372
internal_weight=123960 54929.8 16832 69030.2 38097.8 5111.83 29936.9 32986 4844.6 15670.1 39093.3 11987.4 32037 29781.1 8628.94 27537.6 3204.93 2320.31 3867.32 14266.8 7772.43 4499.43 7811.88 7041.21 4175.5 6494.32 2791.52 7056.28 5246.26 1810.02 977.278
internal_count=472959 287438 125847 185521 161591 37488 66579 124103 54072 31753 118942 71775 93042 116928 15162 82858 7175 23466 35624 34826 17560 10184 35902 16591 35873 17266 14022 25900 18235 7665 18448
is_linear=0
shrinkage=0.03144


Tree=11
num_leaves=32
num_cat=0
split_feature=14 7 43 23 43 44 29 45 23 12 56 60 23 14 41 41 41 2 31 56 29 31 22 51 56 43 46 2 44 29 22
split_gain=2439.45 1112.98 815.337 647.814 611.227 594.488 356.153 306.797 289.797 238.26 223.133 204.258 195.47 178.006 222.387 167.953 144.086 130.096 127.247 123.133 122.566 89.772 89.3113 75.4492 69.1873 64.4469 64.3469 54.8239 58.6382 52.4641 30.5655
threshold=105.50000000000001 0.35674831649831656 -16.666666666666661 0.096175357081397364 -18.788888888888881 12.500000000000002 0.17151310228233307 0.32037735849056609 0.25888908232504743 93.500000000000014 11.500000000000002 1.0000000180025095e-35 0.23932339162464689 122.50000000000001 121.50000000000001 116.50000000000001 103.50000000000001 94.500000000000014 0.037441588785046734 9.5000000000000018 0.066815476190476203 0.13060200668896324 0.05904139433551199 15.500000000000002 3.5000000000000004 15.891812865497075 0.5891377408834787 28.500000000000004 32.500000000000007 0.14174736778592334 0.21017022193492785
decision_type=10 8 10 10 10 2 10 10 10 10 2 10 10 10 10 10 8 10 10 2 10 10 8 8 2 10 8 10 2 8 10
left_child=1 2 9 4 7 6 13 -3 11 19 -10 -5 21 15 -15 -2 27 -6 24 -1 25 -8 -22 -11 -4 -18 -14 28 -7 -20 -29
right_child=5 3 18 8 17 16 12 -9 10 23 -12 -13 26 14 -16 -17 20 -19 29 -21 22 -23 -24 -25 -26 -27 -28 30 -30 -31 -32
leaf_value=-0.038329494179696812 0.0053016945523590804 -0.020823879255149523 -0.017048707743316151 -0.00029709538580673182 -0.0025111827818515863 0.020014188509092676 0.0057152719292000199 -0.0052024257936026603 -0.0012034041309288779 -0.017022843271137972 0.013881995943474569 -0.013857023026364173 0.034924885164888543 0.016332046076410138 0.0055549324850174579 -0.0026049079625363302 -0.003569981072013608 -0.011530708781927837 -0.0067274800411441689 -0.022785567271804565 -0.0037335324983558378 0.012461368967484822 0.0043084328022854352 0.0082657859546489236 -0.0080315345475798234 0.012782633133851147 0.018887528708587994 -0.007078442154427776 -0.011856925238648305 0.0014310591149223754 0.022971783050536869
leaf_weight=1410.475586752058 9964.7742883618921 3678.1915455572307 1463.8912810342154 35234.997101627057 14668.351244088437 618.58157521486282 2825.7861967508215 1876.9544024278875 1571.8802095381543 512.49476172565483 2527.6503718802705 1133.2783865828533 288.70654777064919 2757.9967067185789 6032.3629167065956 3620.4432433638722 7520.8573363372125 1771.578866215772 1766.5530837185215 784.73464213288389 1756.9687291607261 6292.5983761684038 6118.0619376627728 150.88436320889741 1977.9163616832811 245.91020963108167 1730.282419892028 171.17606722097844 62.784155962988734 1393.7178399311379 41.466564148664474
leaf_count=26182 23687 34337 16047 120105 63594 1183 6828 10121 4611 4605 5243 9400 410 5140 15958 10206 25885 10854 10137 9433 5376 12298 15454 776 14640 483 3060 522 174 6128 82
internal_value=0 -0.00370902 -0.0137584 -0.00218691 -0.00652989 0.00533012 0.00773704 -0.015546 0.000173591 -0.0277848 0.00809793 -0.000719682 0.012331 0.00545034 0.00893645 0.00319459 0.000452003 -0.00348321 -0.00768481 -0.0327744 -0.000249664 0.0103709 0.00251419 -0.0112705 -0.0118672 -0.00305204 0.0211827 0.0127271 0.0170759 -0.00312953 -0.0012091
internal_weight=121972 71923.6 9460.67 62462.9 21995.1 50048.8 33513 5555.15 40467.8 2858.59 4099.53 36368.3 11137.4 22375.6 8790.36 13585.2 16535.8 16439.9 6602.08 2195.21 15641.8 9118.38 7875.03 663.379 3441.81 7766.77 2018.99 894.008 681.366 3160.27 212.643
internal_count=472959 346213 87948 258265 118906 126746 77587 44458 139359 40996 9854 129505 22596 54991 21098 33893 49159 74448 46952 35615 47198 19126 20830 5381 30687 26368 3470 1961 1357 16265 604
is_linear=0
shrinkage=0.03144


Tree=12
num_leaves=32
num_cat=0
split_feature=14 20 42 7 28 42 7 13 42 14 40 52 2 32 60 14 7 60 7 22 2 16 22 53 2 6 2 14 49 22 42
split_gain=2221.5 979.635 856.873 524.021 451.657 470.66 570.744 279.419 254.723 239.029 235.092 207.206 176.073 175.424 175.078 170.601 148.573 125.215 110.233 110.06 105.68 105.12 101.147 68.7498 67.0071 59.4317 53.6527 43.7122 41.3769 38.0661 34.4984
threshold=102.50000000000001 0.064585650723025592 -29.499999999999996 0.73213081036610461 0.14913767469521264 -28.499999999999996 0.44939733469145243 78.166666666666671 -1.4999999999999998 123.50000000000001 8.5000000000000018 0.87500000000000011 5.5000000000000009 27.500000000000004 1.0000000180025095e-35 114.50000000000001 0.51747863247863257 1.5000000000000002 0.4827568265068265 0.15916328894035903 10.500000000000002 -0.33333333333333331 0.2037935994246674 0.15000000223517421 12.500000000000002 0.64852941176470602 328.50000000000006 107.50000000000001 -20.39999961853027 0.16635916359163594 -17.499999999999996
decision_type=10 10 10 8 10 10 8 8 8 10 10 10 10 2 10 10 10 10 8 10 10 8 10 8 10 10 10 10 10 10 10
left_child=1 2 7 10 5 6 -3 28 20 22 12 13 23 -6 18 -14 -9 -7 -4 -11 30 -13 -10 -2 27 -22 -26 -12 -1 -16 -5
right_child=3 4 14 8 11 17 -8 16 9 19 24 21 15 -15 29 -17 -18 -19 -20 -21 25 -23 -24 -25 26 -27 -28 -29 -30 -31 -32
leaf_value=-0.038517980421740518 0.032202230036434652 -0.025027994352080595 -0.0089913070908206761 9.2899404156366339e-05 -0.0045812123568178525 -0.001088296811171834 -0.0057666903472567621 -0.02127800022346122 0.005947621110111153 0.013784621896828735 -0.0098526311739279282 -0.0104735753526961 0.0008350165826293295 0.0068206926083991364 -0.027323298656557461 0.0054986835461275823 -0.0078454146037141605 -0.030609464680749428 -0.0028993378461929708 0.024392940581759628 0.0015294673241838968 -7.3836289101617255e-05 0.015313754459695555 0.010702253101428147 -0.0033208381225416409 0.0086286028984251997 -0.019747219283727059 0.0087288388714361533 -0.027051227271070861 -0.0040001490684825943 0.020725455344497195
leaf_weight=764.49016267515253 277.36287691816688 1936.3747769924812 4691.5159747665748 95.648933757096529 1559.942246563267 20497.259788891184 7082.4699604050256 2465.8114890630823 4058.7612940454856 2083.3902960140258 151.602085291408 1153.8305025948212 13674.657572015654 9198.5832562909927 444.12711599562317 17905.812514022924 1215.2504503803793 142.8996275884565 7846.8094520058949 1804.7154347784817 4393.7429048432969 5738.2513120397925 1584.7937156893313 313.07168365828693 5616.7838001721539 1586.5138817057014 203.57224482065067 714.66429168684408 527.17111567035317 81.986048880498856 492.99406161345541
leaf_count=14814 405 23035 36511 215 5297 81892 33490 25740 8452 3805 532 5431 38027 25955 7808 44779 7347 2092 32434 2808 12336 19399 2751 723 20386 3630 1011 1951 8046 976 881
internal_value=0 -0.00391803 -0.0101524 0.00465865 -0.00154111 -0.00391092 -0.00990242 -0.0212595 0.00942797 0.0127109 0.00268246 0.00244096 0.00379736 0.00516743 -0.00592454 0.00347928 -0.0168438 -0.00129285 -0.00517886 0.0187092 0.00466426 -0.00181505 0.00857803 0.0208064 -0.00268153 0.00341295 -0.00389575 0.00547604 -0.0338408 -0.0236905 0.0173736
internal_weight=120305 65346.8 18037.2 54958.1 47309.6 29659 9018.84 4972.72 16100.6 9531.66 38857.5 17650.6 32170.9 10758.5 13064.4 31580.5 3681.06 20640.2 12538.3 3888.11 6568.9 6892.08 5643.56 590.435 6686.62 5980.26 5820.36 866.266 1291.66 526.113 588.643
internal_count=472959 330267 133676 142692 196591 140509 56525 55947 34878 17816 107814 56082 83934 31252 77729 82806 33087 83984 68945 6613 17062 24830 11203 1128 23880 15966 21397 2483 22860 8784 1096
is_linear=0
shrinkage=0.03144


Tree=13
num_leaves=32
num_cat=0
split_feature=7 55 43 55 14 7 11 60 7 22 38 14 60 2 26 2 29 28 2 26 52 47 16 49 39 2 18 59 2 27 29
split_gain=2093.88 892.453 955.991 573.379 386.7 375.5 295.559 283.903 264.517 209.354 198.49 178.518 175.701 166.146 165.775 164.22 157.96 124.149 121.654 117.617 90.1476 89.8136 84.9088 73.7423 73.1283 72.2564 66.1175 55.0439 26.2535 31.7761 8.1653
threshold=0.59848636743373607 0.03883861236802414 -17.48076923076923 0.098476102516739786 84.500000000000014 0.31277417027417037 71.500000000000014 1.0000000180025095e-35 0.78759920634920644 0.17079298933692857 -5.4999999999999991 79.500000000000014 1.0000000180025095e-35 39.500000000000007 0.062532586027111592 6.5000000000000009 0.17405329593267885 0.17546764261647499 57.500000000000007 0.042412534956886516 1.3750000000000002 -13.65077495574951 -2.1666666666666661 8.5000514984130877 3.340579710144937 112.50000000000001 0.083920187793427234 0.30901856763925734 318.50000000000006 7.5000000000000009 0.082521517071786635
decision_type=10 10 10 10 8 8 10 10 10 8 8 10 10 10 8 10 10 8 10 8 10 10 8 8 8 10 2 8 10 2 8
left_child=1 2 5 12 6 24 13 9 15 -6 -7 19 14 -3 18 20 -17 26 -2 -4 -5 -16 -19 -8 -1 -13 -10 -9 29 -14 -30
right_child=3 4 11 8 7 10 23 27 17 -11 -12 25 28 -15 21 16 -18 22 -20 -21 -22 -23 -24 -25 -26 -27 -28 -29 30 -31 -32
leaf_value=-0.03875666451480942 -0.00072756207932235181 -0.026900732135809204 -0.013140668629320279 0.02230379974715295 -0.0014535051102486614 -0.022080980100657597 -0.0061247370757853813 -0.014484309966010175 0.01095064690116903 0.0038148080265894032 -0.0099752441751628246 -0.0011881998392909983 0.0050054216356601212 -0.0083929184261948755 -0.00065406686225406266 0.0031801404813607973 0.0085665824688067761 -0.0041608858189569756 -0.010856654515361901 -0.005372728490026615 -0.0047853109199103693 0.00465685727319859 0.018249955017909089 0.0022218229253924515 -0.015915241954546279 -0.0095749956383658023 0.0017256234920261949 -0.03904424092544348 -0.059676618519278225 -0.019249712128194697 -0.026414020592861298
leaf_weight=961.98898376326542 7131.3087837728672 1010.0976967113093 3149.7647982305498 819.833376432769 15386.016020724317 2459.3113231069874 3447.7905830225209 727.90614723856561 3344.6581129319966 14465.888423550408 2939.179765851004 9009.722334433347 61.591927092056721 912.85398373450153 4466.7622947921045 15543.721255832585 8231.5805591793032 176.8925943383947 1402.4729416067712 4962.7229814423481 142.49502830021083 10656.464608234819 3008.6862556333654 1502.1097247991711 162.12749873287976 1144.3047746694647 996.93716280627996 102.92563904263079 17.940358834806833 398.64222878823057 12.761778102256356
leaf_count=19769 22540 10030 27591 1465 57776 24934 16730 6495 7169 43821 22498 39200 372 6698 13199 40982 17772 504 6431 30045 353 28589 5542 6404 2363 6132 2763 1322 181 3187 102
internal_value=0 -0.00397115 -0.00860114 0.00438872 -0.00091503 -0.0189333 -0.00765576 0.000594896 0.00713086 0.00109946 -0.0154904 -0.00491163 0.000724852 -0.0181158 0.00111123 0.00556052 0.00504509 0.0122915 -0.00239234 -0.00838887 0.0182925 0.00308824 0.0170054 -0.00359186 -0.0354643 -0.00213345 0.00883247 -0.0175318 -0.0178894 -0.0160032 -0.0460003
internal_weight=118757 62344.7 24789.1 56412.7 37555.6 6522.61 6872.85 30682.7 32264.8 29851.9 5398.49 18266.5 24147.9 1922.95 23657 24737.6 23775.3 7527.17 8533.78 8112.49 962.328 15123.2 3185.58 4949.9 1124.12 10154 4341.6 830.832 490.936 460.234 30.7021
internal_count=472959 321808 172532 151151 149276 69564 39862 109414 76550 101597 47432 102968 74601 16728 70759 60572 58754 15978 28971 57636 1818 41788 6046 23134 22132 45332 9932 7817 3842 3559 283
is_linear=0
shrinkage=0.03144


Tree=14
num_leaves=32
num_cat=0
split_feature=14 28 41 7 23 41 12 7 28 40 16 14 41 26 41 7 26 2 26 16 29 7 2 32 40 12 15 26 41 16 2
split_gain=1975.28 920.094 813.577 448.275 419.878 356.749 382.698 335.329 241.275 213.37 205.164 179.214 180.385 167.135 150.184 145.67 119.742 114.439 112.393 125.276 104.731 98.5988 97.1677 94.9017 93.1746 110.526 76.6537 59.2798 52.2239 41.6551 37.4115
threshold=100.50000000000001 0.079021706809396394 67.500000000000014 0.73838834776334794 0.1738233370603996 71.500000000000014 88.500000000000014 0.44939733469145243 0.17444334487877292 6.5000000000000009 0.66666666666666696 114.50000000000001 116.50000000000001 0.12506157635467982 103.50000000000001 0.39740730284208547 0.17955456662211877 269.50000000000006 0.1551759716509884 -1.8333333333333333 0.22756041426927506 0.28572701807995932 7.5000000000000009 128.50000000000003 7.5000000000000009 117.50000000000001 2.8333333333333335 0.040826017016493209 105.50000000000001 -0.33333333333333331 7.5000000000000009
decision_type=10 10 10 8 10 10 8 8 10 8 8 10 10 8 8 8 10 10 10 8 8 8 8 2 8 10 8 8 8 8 10
left_child=1 2 7 9 5 6 -3 26 24 11 23 14 -13 -9 -2 27 -12 20 30 -20 -11 -7 -17 -6 25 -5 -1 -4 -26 -19 -10
right_child=3 4 15 8 10 21 -8 13 18 17 16 12 -14 -15 -16 22 -18 29 19 -21 -22 -23 -24 -25 28 -27 -28 -29 -30 -31 -32
leaf_value=-0.0012019139363769204 0.010991060851913906 -0.023077851391665617 -0.017640107437177678 0.0032465772496774632 -0.0034001933079283262 -0.0087101525201897685 -0.0055259848926029649 -0.019612486797371393 0.028103496457341458 -0.00055257024121263011 0.0037792183345059802 0.014049144129832835 0.0048551017226952601 -0.0068321248325643597 0.00041972375008593753 0.0077218194960686571 0.013142383478637148 -0.028094445998547546 -0.0021761518955171269 0.019660919564659374 0.0044203652796310647 -0.00041137351284700594 -0.0044947046260128756 0.0047374874695317783 0.01012750047344434 0.010582033201513366 -0.032812617126836079 -0.0084018840973309524 -0.0027669951567892352 -0.0082811617757604251 0.0072313151742795885
leaf_weight=79.688666645437479 1565.0867394339293 1518.3195707809646 1021.7642748591024 3572.0932130767033 3512.8048321707174 1529.3549963489641 6419.0800542030483 2567.4332054932602 88.936493068933487 15421.341589138377 2756.3530970485881 3220.6527088619769 6113.4787842524238 1669.2012184783816 8780.4886964666657 684.49886435130611 2646.4715166641399 124.68841357342899 284.10933306254447 3017.0791569100693 5745.7147036716342 18937.273354053148 10735.709481996251 2373.677704508882 386.98736118339002 4704.6728017991409 1570.0851528790081 2094.1545315633994 1568.3414696217515 658.78696774155833 1824.1187563305721
leaf_count=724 3668 17845 12560 8311 12570 11825 34700 23214 150 50209 8811 6449 15217 8623 25447 2507 5837 626 738 5364 15021 75478 52430 7367 862 10439 28252 16653 4510 2638 3914
internal_value=0 -0.00397723 -0.00939982 0.00418902 -0.00118725 -0.00322583 -0.00888371 -0.0192608 0.00876323 0.0024918 0.00394183 0.00486894 0.00802756 -0.0145775 0.00201907 -0.00540647 0.00836578 0.000360553 0.0142676 0.0177815 0.000797328 -0.00103154 -0.0037624 -0.000118701 0.00595806 0.00741629 -0.031286 -0.0114318 -0.000214525 -0.0114381 0.00820328
internal_weight=117192 60115.9 20422.5 57076.6 39693.3 28404 7937.4 5886.41 15446.3 41630.2 11289.3 19679.7 9334.13 4236.63 10345.6 14536.1 5402.82 21950.5 5214.24 3301.19 21167.1 20466.6 11420.2 5886.48 10232.1 8276.77 1649.77 3115.92 1955.33 783.475 1913.06
internal_count=472959 319396 144963 153563 174433 139848 52545 60813 34288 119275 34585 50781 21666 31837 29115 84150 14648 68494 10166 6102 65230 87303 54937 19937 24122 18750 28976 29213 5372 3264 4064
is_linear=0
shrinkage=0.03144


Tree=15
num_leaves=32
num_cat=0
split_feature=7 26 42 14 42 26 28 12 41 55 42 8 44 2 60 7 16 23 60 23 12 2 12 32 2 16 43 26 41 15 23
split_gain=1890.16 844.01 992.122 643.315 433.705 351.349 288.94 280.439 269.254 226.748 221.951 307.445 216.192 144.294 144.209 143.469 138.012 124.863 122.674 117.044 110.455 103.523 102.723 90.4388 86.4881 79.5341 71.4889 66.3353 57.3202 53.1585 40.1954
threshold=0.52158873805932637 0.090972752737458626 -29.499999999999996 109.50000000000001 -1.0000000180025095e-35 0.18754042690815009 0.1714748035136385 98.500000000000014 109.50000000000001 0.12141687141687144 -28.499999999999996 0.35416666666666669 13.500000000000002 168.50000000000003 1.0000000180025095e-35 0.41071844821844833 1.166666666666667 0.25012030798845047 1.0000000180025095e-35 0.22225740623460702 91.500000000000014 6.5000000000000009 115.50000000000001 43.500000000000007 8.5000000000000018 -1.8333333333333333 -13.414215686274501 0.10625592979127137 77.500000000000014 5.416666666666667 0.17002559490422867
decision_type=10 8 10 10 8 10 10 10 10 10 10 8 2 8 10 8 8 10 10 10 8 10 10 2 10 8 10 10 10 10 10
left_child=1 2 7 9 8 12 10 15 24 13 11 -3 -6 20 23 -1 26 -18 -12 21 -2 -11 -10 -4 -5 -7 -8 -15 -9 -21 -16
right_child=3 6 14 4 5 25 16 28 22 19 18 -13 -14 27 30 -17 17 -19 -20 29 -22 -23 -24 -25 -26 -27 -28 -29 -30 -31 -32
leaf_value=-0.034484424809025235 -0.0064442082369257064 -0.019303725055776613 -0.0090867476880021145 0.028425040176278546 0.0095079277806102824 -0.00024979306773530326 -0.0090824832840842463 -0.0054280157223554545 -0.0063683838955935976 0.014116752886079234 -0.00079892503559361077 -0.0040521434961369738 -0.00095904624005496816 -0.014840854416580179 -0.025329838305628204 -0.021913447077323976 0.0041243052006053249 0.017113025134057436 -0.017601602192998857 0.01023376300964066 2.3677915865414846e-05 0.0013944481377555931 0.002331642402284134 -0.0032486275849898287 0.010767795935733362 0.01913739095942469 0.0014060158104836056 -0.0032172807194812635 -0.04402920032803679 -0.014310533558536084 0.0074156513499312529
leaf_weight=1456.9677000057418 3089.1386300135637 1894.0402397792786 4008.1951124366606 324.09236558526754 9321.3200131077319 221.3139841593802 776.94157639378682 852.69841970817652 1479.0274515934289 662.1652754554525 11572.42445777799 4211.2905856538564 2466.722510529682 1135.419837760739 451.59928441472584 2339.7579002077691 2530.3526479583234 1029.0998371969908 445.93934160261415 2402.444778541103 16820.492866380373 13934.213686844101 14416.997942027636 7589.057258685003 1780.824318613857 3807.5983308879659 3705.585452265339 847.73123108642176 39.691245619673282 90.412597339600325 40.313796477857977
leaf_count=29998 14351 19242 27576 519 18572 445 4089 6373 4412 1421 46241 19484 5611 6894 8894 24537 7709 1904 4961 5368 59194 40875 42823 45148 4062 6630 11306 3190 473 231 426
internal_value=0 -0.00523114 -0.0107354 0.0030858 0.00625892 0.0100572 -0.00170162 -0.0230108 0.0029214 0.000333026 -0.0039024 -0.00878388 0.00731765 -0.00178549 -0.0059738 -0.0267384 0.00325812 0.00788001 -0.00142255 0.00304703 -0.000979895 0.0019717 0.00152212 -0.00526645 0.0134879 0.0180724 -0.000412093 -0.00987266 -0.00715033 0.00934294 -0.022645
internal_weight=115744 42944 16778.3 72799.9 33817.9 15817 26165.7 4689.12 18000.9 38982 18123.7 6105.33 11788 21892.8 12089.2 3796.73 8041.98 3559.45 12018.4 17089.2 19909.6 14596.4 15896 11597.3 2104.92 4028.91 4482.53 1983.15 892.39 2492.86 491.913
internal_count=472959 258361 143425 214598 83074 31258 114936 61381 51816 131524 89928 38726 24183 83629 82044 54535 25008 9613 51202 47895 73545 42296 47235 72724 4581 7075 15395 10084 6846 5599 9320
is_linear=0
shrinkage=0.03144


Tree=16
num_leaves=32
num_cat=0
split_feature=8 56 13 43 40 53 26 13 60 28 43 2 48 38 34 2 43 2 49 16 21 11 60 41 41 28 16 11 17 9 11
split_gain=1515.84 875.99 694.924 603.382 547.809 401.978 295.125 288.917 271.978 249.46 245.05 198.974 198.448 139.5 139.361 137.742 120.808 112.076 95.4743 93.3862 91.7598 89.9419 74.8498 65.6942 65.0491 55.5976 53.1093 51.6552 49.5484 36.1018 13.8529
threshold=0.11805555555555557 10.500000000000002 103.16666666666667 -18.788888888888881 6.5000000000000009 0.15000000223517421 0.15438244860277447 85.166666666666671 1.0000000180025095e-35 0.094634575403806195 7.6282894736842133 8.5000000000000018 76.437519073486342 -5.4999999999999991 0.058925653594771248 41.500000000000007 16.792857142857148 6.5000000000000009 64.980270385742202 -1.0000000180025095e-35 0.30801282051282058 75.500000000000014 1.0000000180025095e-35 127.50000000000001 95.500000000000014 0.15672811491133679 0.33333333333333343 63.500000000000007 0.51428571428571457 -1.5 65.500000000000014
decision_type=10 2 8 10 8 8 8 8 10 8 8 10 10 8 10 8 8 10 8 8 10 8 10 8 8 8 8 10 10 8 10
left_child=1 3 5 7 9 11 19 25 14 26 -11 28 17 -9 -7 27 -14 -6 -13 23 -17 30 -23 -3 -21 -1 -4 -8 -2 -10 -5
right_child=2 6 4 21 12 8 15 13 29 10 -12 18 16 -15 -16 20 -18 -19 -20 24 -22 22 -24 -25 -26 -27 -28 -29 -30 -31 -32
leaf_value=-0.035173875185821254 0.0075163365748384036 -0.0028738311436886208 -0.0013318090426815562 -0.039199949227868215 0.012165114444989741 -0.0047756241306018115 -0.011212155773354866 -0.022688178605348094 -0.009262165731297076 0.0059762906100706351 0.013176073443265457 0.0016853862736812663 0.0034700671055572295 -0.011354975854323922 -0.00058064125514070307 0.0053291010796582081 0.014029107629781924 -0.0011651264569480797 0.01240566722674067 0.0032554041001285131 0.016827718715832742 -0.0049937365322921959 -0.024480044029920597 -0.026857135507571274 -0.0064159824235340045 -0.018049646239198067 0.004480439672360682 0.003009223383060115 0.02388668840847831 -0.022508671512852019 -0.020867284385651816
leaf_weight=1246.4342839804012 256.08407253166661 171.33481402182952 2674.0229542281013 74.719306592829525 644.69106294959784 13665.36095968436 545.92159031517804 1952.8175018451875 280.88946339010727 10320.764971364755 8539.4095866642892 5259.5904689994641 7430.863518093247 2385.4054077966139 18325.070979671553 2441.5112937460653 1251.3577784271911 18822.79638708313 973.01669254037552 879.05121430289 954.07852442655712 5629.3094103848562 201.7329049166292 331.07015703455545 3152.3546000039205 221.04725235584192 3709.7730669074226 469.48912662779912 639.45495642349124 739.21068632864626 90.764190943911672
leaf_count=25257 594 928 8337 857 1488 63467 3171 18907 2781 26341 17499 14398 23884 16995 74796 7730 3047 64385 2325 4629 2227 34485 4077 3804 19001 3136 10842 1716 1120 9866 869
internal_value=0 -0.00768824 0.00170539 -0.0133124 0.00405505 -0.00142021 -0.000267414 -0.020537 -0.00288227 0.00741792 0.00923623 0.00535053 0.0010393 -0.016457 -0.00237263 0.0055223 0.0049921 -0.000723607 0.00335921 -0.00590031 0.0085604 -0.00631738 -0.00566836 -0.0186807 -0.00430708 -0.0325961 0.00204584 -0.00463705 0.0192071 -0.0188627 -0.0291664
internal_weight=114279 20747 93532.4 11802.2 53393.7 40138.7 8944.81 5805.7 33010.5 25244 18860.2 7128.15 28149.7 4338.22 31990.4 4411 8682.22 19467.5 6232.61 4533.81 3395.59 5996.53 5831.04 502.405 4031.41 1467.48 6383.8 1015.41 895.539 1020.1 165.483
internal_count=472959 147789 325170 104583 155823 169347 43206 64295 150910 63019 43840 18437 92804 35902 138263 14844 26931 65873 16723 28362 9957 40288 38562 4732 23630 28393 19179 4887 1714 12647 1726
is_linear=0
shrinkage=0.03144


Tree=17
num_leaves=32
num_cat=0
split_feature=14 7 43 28 11 11 14 12 20 7 1 40 20 43 12 38 30 56 60 41 7 43 60 39 11 39 48 49 15 43 41
split_gain=1743.68 809.239 665.403 488.182 417.934 415.285 294.133 261.298 196.754 180.755 166.645 161.742 154.282 139.436 126.124 120.964 119.355 101.928 98.4363 95.9768 92.4963 85.8573 79.6161 77.7753 73.4117 66.2993 44.1045 43.1298 42.7378 31.7152 30.3227
threshold=109.50000000000001 0.40285307285307292 -17.48076923076923 0.11130468447541619 107.50000000000001 66.500000000000014 145.50000000000003 100.50000000000001 0.15630681818181821 0.63788156288156295 1.2250000000000003 7.5000000000000009 0.040134228187919473 -1.5677655677655691 123.50000000000001 -1.0000000180025095e-35 0.11163032191069576 11.500000000000002 1.0000000180025095e-35 111.50000000000001 0.67871480371480375 15.891812865497075 1.0000000180025095e-35 0.62019230769230671 98.500000000000014 2.5751879699248126 35.999917984008796 -19.145870208740231 2.1666666666666674 11.605555555555556 117.50000000000001
decision_type=10 8 10 10 10 10 10 10 10 10 8 10 10 8 10 8 10 2 10 8 10 10 10 10 8 10 8 10 8 8 10
left_child=1 2 7 5 14 9 11 15 20 -3 29 16 26 -12 19 -1 -6 -10 -7 24 -5 -13 -14 -21 -2 27 -4 -16 -9 -8 -27
right_child=4 3 12 8 6 18 10 28 17 -11 13 21 22 -15 25 -17 -18 -19 -20 23 -22 -23 -24 -25 -26 30 -28 -29 -30 -31 -32
leaf_value=-0.031396288480005217 0.027033062154500197 -0.012643933214577355 -0.017814973343035844 -0.002218393447875141 0.001127534218089573 -0.0014169042873507865 0.025945724272083661 0.011008262616692239 0.00059273133204035819 -0.0025430957378416367 -0.010471279360807509 -0.0016267869259679914 -0.0029473869053675684 0.012541120885634856 0.00095558998323321312 -0.017316120286503495 0.0063867763899647179 0.0061328219379481585 -0.013561556463064882 0.00092033244520976808 0.0031589578604887085 0.015898588333453732 -0.017955385151352532 0.0089762793152152656 0.01162502443151457 0.025883352539872204 -0.0085115318313454189 0.014641553356116095 -0.0084154336104253821 0.046103111554974485 0.015444648115516896
leaf_weight=1750.51861203101 371.46983376890421 6534.5536319047678 1089.865651911241 12932.689705577213 7553.0960194565123 19927.050831545028 195.43239169940352 148.35367894289084 5175.3718062760308 2392.4483598899096 291.20688317902386 8815.4716472805012 6907.8050924516283 2443.1211204163264 276.07850181870162 920.97741001634859 9799.3323544710875 8976.1195873110555 682.18411676841788 1725.3679185342044 4185.0474244402722 285.14481546077877 367.90790763951372 3779.8185859136283 1726.0431294087321 755.6298297168687 937.17722255480476 1297.032565866597 455.46890179859474 128.22680179402232 433.67026529088616
leaf_count=32928 635 47590 13502 53154 21419 82335 382 660 15421 9174 1100 31003 37428 5910 684 12414 23470 22935 8294 4502 11875 570 5731 8161 3770 1174 9419 2854 3392 175 898
internal_value=0 -0.00287564 -0.0101348 -0.00137402 0.005292 -0.00427258 0.00338443 -0.0223215 0.00136389 -0.00993697 0.012616 0.00231721 -0.00584381 0.0100899 0.010723 -0.0265432 0.00409758 0.00410677 -0.00181898 0.00863227 -0.000903691 -0.00107748 -0.00370657 0.00645156 0.0143551 0.0164766 -0.0135144 0.01224 -0.00364195 0.0339452 0.0220788
internal_weight=113260 73383.5 12578.1 60805.5 39876.1 29536.2 29511 3275.32 31269.2 8927 3057.99 26453 9302.76 2734.33 10365.1 2671.5 17352.4 14151.5 20609.2 7602.7 17117.7 9100.62 7275.71 5505.19 2097.51 2762.41 2027.04 1573.11 603.823 323.659 1189.3
internal_count=472959 366252 115474 250778 106707 147393 84029 49394 103385 56764 7567 76462 66080 7010 22678 45342 44889 38356 90629 17068 65029 31573 43159 12663 4405 5610 22921 3538 4052 557 2072
is_linear=0
shrinkage=0.03144


Tree=18
num_leaves=32
num_cat=0
split_feature=7 23 42 12 11 20 12 42 12 28 1 7 23 48 41 2 46 41 16 2 2 39 41 47 23 20 32 53 52 15 47
split_gain=1577.37 933.513 753.078 408.308 405.179 346.308 287.277 225.278 277.494 220.827 147.423 143.01 140.496 139.283 136.27 136.132 134.648 133.041 116.54 114.94 88.7311 80.955 79.7185 77.4449 76.1673 73.958 71.4192 55.408 52.8098 48.1235 30.9191
threshold=0.64000239412004134 0.08943816629579536 -29.499999999999996 96.500000000000014 66.500000000000014 0.14300533491404863 99.500000000000014 -1.0000000180025095e-35 105.50000000000001 0.17047317436661699 7.1000000000000005 0.32384356714713863 0.23080060233404445 64.795063018798842 94.500000000000014 6.5000000000000009 1.3065739112282424 98.500000000000014 -0.33333333333333309 10.500000000000002 240.50000000000003 2.8918128654970734 90.500000000000014 -58.14207331339518 0.078156836324289033 0.083427389014296485 110.50000000000001 1.1250000000000002 1.1250000000000002 5.416666666666667 28.828191757202152
decision_type=10 10 10 8 10 10 10 8 8 10 10 8 10 10 8 10 8 10 8 10 10 10 8 10 10 10 2 8 10 10 10
left_child=1 2 6 4 14 15 10 19 29 13 -1 25 -10 -5 -3 24 18 -11 -17 28 -18 -8 -6 -21 30 -4 -13 -26 -7 -9 -2
right_child=5 3 11 9 22 7 21 8 12 17 -12 26 -14 -15 -16 16 20 -19 -20 23 -22 -23 -24 -25 27 -27 -28 -29 -30 -31 -32
leaf_value=-0.020028446883441027 -0.0060756398338517705 -0.00055300425357130247 -0.018600264844977323 -0.0024189814326272055 0.00090436028966822701 0.018168874260234624 -0.01083838610626075 0.00031187906384554288 0.010376565065209372 0.0085362187741581785 -0.034590543584977963 -0.0052893141393288287 0.018918706432470775 0.002258057115330332 -0.019591119866568241 -0.0025953123453414956 0.00079596765209833905 0.0017492927839556274 0.010301875541947801 -0.0050660189370001435 -0.0099525999088293949 0.0073812837618226429 -0.0062973828150620853 0.0042026255508536316 0.029441842447759371 -0.0044764949251407437 0.00021860796485074065 0.009099906569783503 -0.0013601164136859071 -0.020117839952190766 0.016768527347408125
leaf_weight=2916.7193275814643 190.21838223747909 440.9161674962379 1089.0886865387438 18487.012935213395 3524.5609212012496 777.34634641371667 941.98595081362873 1497.6338802110404 6541.8466591089964 4491.9618602073751 899.40985646517947 9925.8423324965406 2684.5845462009311 9542.6079285158776 2365.4290262530558 933.50928595662117 16570.659391581779 7834.2757085675839 2682.3795002650004 996.64482527598739 795.50813433015719 323.86051313672215 2670.3074623285793 8407.0644448613748 327.748824685812 552.46359087480232 3039.6275557053741 222.21728541981429 166.09521224815398 123.24554643500596 84.48232089728117
leaf_count=32876 559 2826 14708 78228 16142 1534 6549 4069 13278 12239 21153 54276 4859 35108 24283 2937 51444 22566 6852 3000 3536 1592 13953 22883 568 4510 14877 526 447 383 198
internal_value=0 -0.00294387 -0.00873195 -0.000634934 -0.00668975 0.0047269 -0.0191563 0.00758881 0.0107546 0.000715582 -0.0234615 -0.00510505 0.0128623 -0.000826692 -0.0166001 0.00194532 0.0014528 0.00422266 0.00697223 0.00426993 0.000303533 -0.00617669 -0.00220001 0.00322024 0.0144745 -0.0138476 -0.00399804 0.0212262 0.0147309 -0.00124279 0.000953755
internal_weight=112047 69046.1 19689 49357.1 9001.21 43001.2 5081.98 21194.5 10847.3 40355.9 3816.13 14607 9226.43 28029.6 2806.35 21806.7 20982.1 12326.2 3615.89 10347.2 17366.2 1265.85 6194.87 9403.71 824.667 1641.55 12965.5 549.966 943.442 1620.88 274.701
internal_count=472959 355886 150541 205345 57204 117073 62170 50453 22589 148141 54029 88371 18137 113336 27109 66620 64769 34805 9789 27864 54980 8141 30095 25883 1851 19218 69153 1094 1981 4452 757
is_linear=0
shrinkage=0.03144


Tree=19
num_leaves=32
num_cat=0
split_feature=12 7 44 55 43 43 45 43 23 56 53 6 2 59 23 47 2 43 40 2 21 40 30 12 60 0 52 35 23 16 34
split_gain=1479.35 705.791 622.738 509.537 430.184 341.951 324.285 282.082 258.722 167.349 164.864 149.217 136.196 132.856 130.703 129.056 119.289 106.538 93.6574 93.1048 88.1477 70.8761 67.5504 66.4575 66.0806 56.9834 55.0035 53.8584 52.475 42.1204 30.1838
threshold=112.50000000000001 0.32384356714713863 10.500000000000002 0.098476102516739786 -16.666666666666661 -22.633333333333329 0.47413024085637828 7.4444444444444509 0.25888908232504743 11.500000000000002 1.0000000180025095e-35 0.64852941176470602 90.500000000000014 0.071946169772256749 0.14379353494342137 21.433559417724613 5.5000000000000009 -3.1396103896103891 8.5000000000000018 21.500000000000004 0.2005434782608696 10.500000000000002 0.1434624697336562 161.50000000000003 1.0000000180025095e-35 8224.5000000000018 1.8750000000000002 0.77614379084967333 0.060873457631077037 0.83333333333333359 0.13553779069767444
decision_type=10 8 2 10 10 10 10 8 10 2 8 10 10 8 8 8 10 10 10 10 10 10 8 10 10 2 10 8 10 10 8
left_child=1 4 7 5 14 6 -3 13 10 25 -5 16 -7 17 29 -11 26 -2 -18 28 -10 23 -16 -13 -21 -9 -4 -15 -6 -1 -23
right_child=2 3 11 8 19 12 -8 9 20 15 -12 21 -14 27 22 -17 18 -19 -20 24 -22 30 -24 -25 -26 -27 -28 -29 -30 -31 -32
leaf_value=-0.033337204265851926 9.1810804240136039e-05 -0.014735179390715012 0.022855094597158787 0.0060735908674537245 -0.026330058614304569 -0.0020408462083653799 -0.0013141190943506908 0.0082853532630154346 0.0037905223306744953 0.0088887945397646672 -0.0011747313555271956 0.0046150615298573994 -0.0099840287319816253 -0.0003641716128395463 -0.024124656273619607 0.017218010842451802 -0.00021375537331155855 0.0076420043497155404 -0.0055479702372872889 -0.0027645685296408271 0.015181866971733122 -0.0010443133815758508 -0.0027883316112960865 0.020355711805103184 -0.023653183991569397 -0.0003210894315088762 -0.004280973992472732 -0.035402958444164162 -0.010961624835546491 -0.0099468341400701221 -0.018735230005893153
leaf_weight=1204.5967655826826 2286.7267431803048 5624.8597877894063 288.45675279456191 3638.3711955915205 301.9485866316827 18845.032115912181 2603.1902956073172 2309.3421279984759 1209.9330399092287 3115.1743560009636 21029.796377931372 5287.8503198690014 2406.0757964247605 3414.4112310456112 307.79237431893125 4489.5015860730782 11399.835613481002 9615.1094260179671 4553.0214256695472 2260.1838545718929 1509.0019766446203 228.53380386088975 280.18064128584228 279.0323400690686 160.20993104774971 1133.7272026012652 99.17513614660129 43.807643122621812 806.04138147714548 81.364388576708734 163.47312316833995
leaf_count=27114 8079 51225 622 8240 4461 82824 11013 6124 3081 7365 79470 16262 14790 12269 4207 8970 39663 25817 21501 16906 3163 983 2478 620 3413 3629 353 191 6323 1093 710
internal_value=0 -0.00321045 0.00410433 -0.00217875 -0.0140702 -0.00504727 -0.0104891 0.00737109 0.000908896 0.0112025 -0.000105633 0.000235678 -0.00294023 0.00461525 -0.0262437 0.0138062 -0.00131741 0.00619139 -0.0017362 -0.00760413 0.0101131 0.00449451 -0.0139601 0.00540445 -0.00414829 0.00545151 0.015913 -0.000809194 -0.0151521 -0.0318583 -0.00842513
internal_weight=110976 62268.6 48707.2 56866.3 5402.32 29479.2 8228.05 26407.8 27387.1 11047.7 24668.2 22299.4 21251.1 15360.1 1873.93 7604.68 16340.5 11901.8 15952.9 3528.38 2718.94 5958.89 587.973 5566.88 2420.39 3443.07 387.632 3458.22 1107.99 1285.96 392.007
internal_count=472959 319801 153158 253806 65995 159852 62238 72444 93954 26088 87710 80714 97614 46356 34892 16335 62139 33896 61164 31103 6244 18575 6685 16882 20319 9753 975 12460 10784 28207 1693
is_linear=0
shrinkage=0.03144


Tree=20
num_leaves=32
num_cat=0
split_feature=14 20 42 44 26 14 42 42 45 13 60 55 7 60 16 27 35 7 13 48 6 20 16 29 3 13 23 35 13 7 23
split_gain=1615.16 647.056 619.703 372.838 294.895 293.053 318.146 253.897 419.524 208.096 150.128 140.897 138.053 134.84 120.64 141.614 117.444 99.646 91.0722 90.7122 87.1797 69.583 86.8735 62.7603 59.952 51.0929 44.7268 36.2749 33.5681 30.5474 29.9178
threshold=102.50000000000001 0.069006568144499195 -29.499999999999996 14.500000000000002 0.20016286644951145 124.50000000000001 -1.4999999999999998 -33.499999999999993 0.32274865591397855 78.166666666666671 1.5000000000000002 0.13182720953326715 0.78759920634920644 1.0000000180025095e-35 1.416666666666667 8.5000000000000018 0.048115079365079368 0.58217922464246008 74.833333333333357 5.91111183166504 0.53589743589743599 0.16313923105636435 -1.6666666666666665 0.11133244798583446 1.0000000180025095e-35 119.16666666666667 0.041721061792863369 0.13373983739837403 91.833333333333357 0.64840511340511353 0.052665403869571102
decision_type=10 10 10 2 10 10 8 10 8 8 10 10 8 10 8 2 10 8 8 8 10 10 8 10 2 10 10 10 10 10 8
left_child=1 2 9 5 7 11 25 8 -3 27 -9 19 -8 18 23 -16 -11 -13 -4 -2 21 24 -23 -6 -5 -7 29 -1 -28 -22 -15
right_child=3 4 13 20 14 6 12 10 -10 16 -12 17 -14 30 15 -17 -18 -19 -20 -21 26 22 -24 -25 -26 -27 28 -29 -30 -31 -32
leaf_value=-0.035458198126199221 -0.0056773227516082178 -0.016795386310751424 -0.0092046756123136085 -0.013094186791912618 -0.0032010444075976177 0.011385554695347138 0.01165288604335572 -0.00054202108570124618 -0.0027995950043218695 -0.019474747441338966 -0.031155840403424052 0.0015917489343051793 0.021882640212818723 -0.032477097511283526 -0.0099223992853439014 0.013794884484579209 -0.0075467714696634963 0.00798294499700084 -0.0028645879952086412 0.002477759391183157 -0.023006075809714494 -0.027735559824443066 0.0028731569991011876 0.0058112583714765714 -0.0029519347480458685 0.0032518053498210545 0.016793423093979184 -0.024090419984169269 0.0035530007332836423 0.0017569150053606702 -0.015834987540565865
leaf_weight=619.46085992141161 1527.3720153188333 2854.7109045733232 2968.8094026283361 642.49404669413343 1507.9677774396259 899.91272583650425 4497.8489995663986 25907.275055681821 8191.9103633854538 2064.7475434446242 159.20093197352253 3321.7578939418308 1836.7740701688454 160.59778552578064 283.59072586428374 2027.0993693771306 1349.4240869092755 8798.9478289526887 9117.077534901211 11490.930116164265 102.28024655021727 94.612785543315113 2828.2401623409241 1547.5126391861122 5568.5286841702182 5030.0110252236482 199.95657435106114 505.15260062273592 3512.0960569735616 94.825001580640674 319.80029574071523
leaf_count=15394 4959 30993 24584 3329 5589 2463 9311 103319 37379 23592 2525 9746 3298 3924 1210 4822 11016 19665 47766 33360 492 465 8254 4455 20882 15747 522 8417 9914 285 5282
internal_value=0 -0.00350496 -0.00866807 0.00413983 -0.00142591 0.00573593 0.00972017 -0.002422 -0.00641658 -0.0186253 -0.000729132 0.0037921 0.0146194 -0.00507149 0.00546306 0.0108837 -0.0147607 0.00623143 -0.00442206 0.00152092 -0.000437299 -0.00211887 0.0018813 0.00136346 -0.00400132 0.00448637 0.00349168 -0.030355 0.00426673 -0.0110985 -0.0214049
internal_weight=110031 59584.3 17105.1 50446.6 42479.3 37403.6 12264.5 37113.1 11046.6 4538.79 26066.5 25139 6334.62 12566.3 5366.17 2310.69 3414.17 12120.7 12085.9 13018.3 13043 9133.88 2922.85 3055.48 6211.02 5929.92 3909.16 1124.61 3712.05 197.105 480.398
internal_count=472959 330267 139975 142692 190292 98549 30819 174216 68372 58419 105844 67730 12609 81556 16076 6032 34608 29411 72350 38319 44143 32930 8719 10044 24211 18210 11213 23811 10436 777 9206
is_linear=0
shrinkage=0.03144


Tree=21
num_leaves=30
num_cat=0
split_feature=14 28 43 41 8 14 26 11 12 26 20 41 46 41 40 7 34 28 4 40 14 12 43 41 20 22 2 28 26
split_gain=1525.15 601.813 577.75 336.252 331.977 321.549 257.12 221.44 240.526 207.141 201.767 198.566 209.387 138.721 134.93 128.016 117.693 116.614 92.3129 85.3141 77.2382 76.7392 69.1844 68.6761 59.5554 57.8828 46.3962 44.409 13.5731
threshold=105.50000000000001 0.088518620943952811 -17.48076923076923 107.50000000000001 0.31666666666666671 116.50000000000001 0.14194231820667033 76.500000000000014 95.500000000000014 0.12506157635467982 0.083221626452189459 116.50000000000001 0.5891377408834787 97.500000000000014 7.5000000000000009 0.43947612572612577 0.12037037037037039 0.23817513582614255 0.6984848484848486 8.5000000000000018 122.50000000000001 98.500000000000014 18.225000000000005 92.500000000000014 0.018350168350168353 0.05904139433551199 451.50000000000006 0.094634575403806195 0.074480092214591051
decision_type=10 10 10 10 10 10 10 10 8 8 10 10 8 8 10 8 8 10 10 10 10 8 10 8 10 10 10 10 8
left_child=1 2 4 10 9 22 7 8 -3 -1 26 20 -13 28 -9 24 23 -15 -18 -17 -7 -6 25 -8 -4 -5 27 -2 -12
right_child=3 6 15 5 21 11 16 14 -10 -11 13 12 -14 17 -16 19 18 -19 -20 -21 -22 -23 -24 -25 -26 -27 -28 -29 -30
leaf_value=-0.024631650560426419 -0.0019873884758789015 -0.01570182566178023 -0.014622865863537947 -0.0056268323682051244 -0.01295779154069932 0.010523344465719748 0.0091243592174723494 0.0014750862765370077 -0.0035429304056991077 -0.010385964627153218 0.022613238763919564 0.019069379304129271 0.0029824444877414136 0.0085320888011892904 -0.0041058726906487873 -0.00096078858166122392 0.0040779033431677467 0.017866351213327386 0.01368170260249315 -0.0069763501875774554 0.024964086552765309 -0.00078932662407268776 0.021328601110391518 -0.0010388241808711775 -0.0064191900809084127 -0.00053143439330320186 -0.033458837900853619 0.006212105755143681 0.037208730233113406
leaf_weight=2961.3067336847307 1578.0054322234355 2208.0869378998177 1165.8850198204746 3680.9664896163158 784.01432379102334 1960.2288727792911 734.28683626046404 11461.518126514042 5919.0755564816063 1530.7207350701792 96.469563217833638 834.9980269735679 18904.640561486362 9050.2584733534604 6835.9829253337812 9806.9792083398206 5047.9320908132941 1549.5698949964717 1230.4495894948486 3056.7183417375199 450.23488758178428 1477.746978352312 121.14237158372998 6253.656686497503 3503.5791301769204 5491.1250430333894 38.153775757178664 1113.587288478855 185.68946257792413
leaf_count=46135 5384 22456 14962 13347 6206 4641 2174 45149 29450 12208 195 1889 56618 20773 32460 42831 16172 2855 3268 16302 974 7665 207 22226 26549 16305 217 3060 281
internal_value=0 -0.00312044 -0.00701857 0.00443101 -0.0148316 0.00264394 -0.000735158 -0.00252813 -0.00684659 -0.0197776 0.0085591 0.00470332 0.00366304 0.0104762 -0.000609981 -0.00400891 0.00283618 0.00989683 0.0059603 -0.00239028 0.0132217 -0.00500785 -0.00226451 2.92372e-05 -0.00846782 -0.00257638 0.000916388 0.00140507 0.0322298
internal_weight=109033 63977.9 24287 45055.1 6753.79 31443.3 39691 26424.7 8127.16 4492.03 13611.7 22150.1 19739.6 10882 18297.5 17533.2 13266.3 10599.8 6278.38 12863.7 2410.46 2261.76 9293.23 6987.94 4669.46 9172.09 2729.75 2691.59 282.159
internal_count=472959 346213 172858 126746 72214 93981 173355 129515 51906 58343 32765 64122 58507 24104 77609 100644 43840 23628 19440 59133 5615 13871 29859 24400 41511 29652 8661 8444 476
is_linear=0
shrinkage=0.03144


Tree=22
num_leaves=32
num_cat=0
split_feature=14 26 11 10 12 28 20 11 60 14 41 34 53 12 10 16 41 28 2 60 38 12 60 41 32 60 16 28 1 14 30
split_gain=1446.03 633.136 779.338 372.254 223.221 223.032 198.492 191.305 181.204 171.788 236.028 159.23 160.387 158.997 139.923 123.056 120.443 109.675 86.2888 85.6568 83.4701 102.749 74.1166 64.4548 59.3925 52.966 51.911 54.4772 48.4363 28.3154 17.8405
threshold=96.500000000000014 0.11010539536915685 72.500000000000014 0.30303826075884904 88.500000000000014 0.091089466089466095 0.20551750380517506 99.500000000000014 1.0000000180025095e-35 114.50000000000001 115.50000000000001 0.01872895622895623 3.1250000000000004 153.50000000000003 0.27142892195523777 -1.4166666666666665 95.500000000000014 0.079021706809396394 6.5000000000000009 1.0000000180025095e-35 -1.4999999999999998 110.50000000000001 1.0000000180025095e-35 90.500000000000014 3.5000000000000004 1.5000000000000002 -2.5833333333333326 0.023346656976744189 1.3666666666666669 103.50000000000001 0.05594679186228483
decision_type=10 8 10 10 8 8 10 8 10 10 10 10 10 10 8 8 8 10 10 10 10 8 10 8 2 10 8 10 10 10 10
left_child=1 2 4 5 16 26 11 18 17 19 -11 12 -3 15 -6 -7 -1 -4 29 -9 24 -22 -13 -20 -8 -10 30 -28 -15 -5 -2
right_child=3 6 8 7 14 13 20 9 25 10 -12 22 -14 28 -16 -17 -18 -19 23 -21 21 -23 -24 -25 -26 -27 27 -29 -30 -31 -32
leaf_value=-0.010657196377549154 -0.013993414009678878 -0.003174507916644189 -0.0063196601814482205 0.014550430846197797 0.0062913606898357365 -0.0010945921426805626 -0.019566258479009321 -0.0010527348903481022 -0.014643360929062481 0.0093449191779187719 0.00099570005286283192 0.001554302192674859 -0.015086082851920566 0.033615039632065316 -0.014317143056783246 0.0090706938691175205 -0.029445604683662224 -0.0013813183198355071 0.02179517941825436 -0.017716982014644115 -0.0029363351423958772 0.012313179147140293 -0.01090335476030229 0.0058012973330926467 0.0023155858939081027 -0.035011781748643687 -0.0057230654348164722 0.0030130777165600954 0.017216150786778038 0.035046454579944694 -0.052740284428033919
leaf_weight=431.37457533786073 26.153024546802044 7018.4313127583591 7602.2593213898363 124.22290791012347 351.07557964231819 1303.394755044952 127.1487677032128 16991.946483712178 671.92142386292107 4420.4670342863537 13779.353390638484 8910.088270391454 1328.8585238764063 252.36384937074035 4487.1583618355216 12148.956893213093 1548.8148657787824 10705.353720518411 270.38463325053453 310.35765933874063 558.32236570143141 2004.9153849380091 498.36797186918557 3147.2384294010699 3354.7092609724496 155.4080189402448 857.44990071514621 3980.8387478678487 606.17919835262001 144.28660489805043 21.388489581644535
leaf_count=4684 141 34332 50919 313 1339 3958 566 60063 10691 10714 43492 35021 10276 459 42979 27963 30127 50298 705 2266 2035 4746 4918 8856 11402 3592 2832 11562 1335 243 132
internal_value=0 -0.00393835 -0.00733471 0.00335616 -0.0164615 0.00694303 -0.000234805 0.00159909 -0.00408246 0.00089125 0.00302365 -0.0019101 -0.00507097 0.00892312 -0.0128216 0.00808578 -0.0253535 -0.003432 0.00841623 -0.00135176 0.00468583 0.00899154 0.000894288 0.00706735 0.00151589 -0.0184738 0.00114314 0.00146473 0.0220404 0.0255745 -0.0315104
internal_weight=108139 49754.2 25953.4 58385 6818.42 19196.7 23800.8 39188.3 19134.9 35502.1 18199.8 17755.7 8347.29 14310.9 4838.23 13452.4 1980.19 18307.6 3686.13 17302.3 6045.1 2563.24 9408.46 3417.62 3481.86 827.329 4885.83 4838.29 858.543 268.51 47.5415
internal_count=472959 297925 194629 175034 79129 48382 103296 126652 115500 116535 54206 84547 44608 33715 44318 31921 34811 101217 10117 62329 18749 6781 39939 9561 11968 14283 14667 14394 1794 556 273
is_linear=0
shrinkage=0.03144


Tree=23
num_leaves=32
num_cat=0
split_feature=7 23 42 12 42 46 12 16 42 2 21 41 26 12 26 17 14 53 7 27 12 11 12 53 58 60 45 14 11 26 53
split_gain=1399.32 616.681 749.458 459.434 437.439 246.989 213.633 208.635 225.516 195.682 177.475 153.172 147.897 147.796 141.608 127.223 123.631 113.835 112.749 106.505 96.1954 88.1795 82.1737 81.9291 70.3179 67.5816 66.1053 64.7777 50.4903 48.3082 46.9252
threshold=0.52158873805932637 0.12196404298427845 -29.499999999999996 116.50000000000001 -1.0000000180025095e-35 1.077545574753892 93.500000000000014 0.4166666666666668 -29.499999999999996 8.5000000000000018 0.15006702412868636 116.50000000000001 0.18955888039315963 129.50000000000003 0.2057307060755337 0.20000000000000032 96.500000000000014 3.6250000000000004 0.26994567523979296 55.500000000000007 98.500000000000014 103.50000000000001 102.50000000000001 1.6250000000000002 1.0000000180025095e-35 1.0000000180025095e-35 0.407785336356765 140.50000000000003 64.500000000000014 0.043441968498221677 0.87500000000000011
decision_type=10 10 10 8 8 8 8 8 10 10 10 10 10 8 10 10 10 8 8 2 10 10 10 8 2 10 10 10 10 8 8
left_child=1 2 6 9 11 27 28 8 22 15 20 17 -7 -13 24 26 -8 -5 29 -16 -11 -12 -3 -10 -9 -20 -2 -6 -1 -4 -17
right_child=3 7 18 4 5 12 16 14 23 10 21 13 -14 -15 19 30 -18 -19 25 -21 -22 -23 -24 -25 -26 -27 -28 -29 -30 -31 -32
leaf_value=-0.031625853957038152 -0.010042288364872351 -0.019411467829920738 -0.020455486222443624 0.012496874447883353 0.015577863642389191 0.0055249530180115592 -0.017335377294026868 0.0013735726904821456 0.0030693026243416633 -0.0054310285492052699 0.0045494551053384966 -0.0034777211367373719 0.013556751118791791 0.0031036423381931109 -0.0041990928024749968 0.019294606341085076 -0.0021057359293087143 0.0025352104753949591 -0.0033787153797741579 0.012483454652845713 -0.00077336241848656321 -0.0017361955832263425 -0.0036211573395633859 -0.0042485140214865123 -0.0054393423627666785 -0.017570916609104186 0.0079743426490095429 0.027908498872253315 -0.018039185541769857 -0.0086002486853454102 0.0079934777611146042
leaf_weight=1216.1022031269968 402.53683751588687 1199.0517859468237 550.24383899749955 2108.6312563167885 2151.0360536193475 9407.7085120184347 3149.3358506598161 7798.5499373346101 2056.2214263875503 6308.2999746936839 7785.8820587042719 5560.5348135048989 2985.3927795197815 8572.5386108873645 483.08126342575997 853.31804511789232 632.78475847141817 2453.0410900735296 11165.02037155244 1742.625215605367 14361.908823172562 3078.3002988980152 447.38216073671356 5716.266819714685 1853.264483787585 341.71172403322998 402.4553736243397 523.92853526957333 348.38871793146245 888.76958734495565 632.72777737397701
leaf_count=28390 1742 12247 8366 5159 4383 23419 34205 34098 7440 29711 22275 19002 6047 30944 1728 1794 3841 8087 65602 4180 49115 8987 1977 25922 9561 6550 1108 935 6016 8238 1890
internal_value=0 -0.00469395 -0.00892788 0.00274941 0.00534395 0.00933007 -0.0188303 -0.00105723 -0.0045517 0.000159671 -0.000484896 0.00213107 0.00745986 0.000514251 0.00171391 0.00903125 -0.0147875 0.00714019 -0.00483804 0.00886252 -0.00219485 0.00276845 -0.0151214 -0.00231255 6.5357e-05 -0.00380035 -0.00103496 0.0179941 -0.0286019 -0.0131347 0.0144838
internal_weight=107177 39588.8 18292.4 67588.2 33762.8 15068.1 5346.61 21296.4 9418.92 33825.4 31534.4 18694.7 12393.1 14133.1 11877.5 2291.04 3782.12 4561.67 12945.7 2225.71 20670.2 10864.2 1646.43 7772.49 9651.81 11506.7 804.992 2674.96 1564.49 1439.01 1486.05
internal_count=472959 258361 161208 214598 97976 34784 72452 97153 47586 116622 110088 63192 29466 49946 49567 6534 38046 13246 88756 5908 78826 31262 14224 33362 43659 72152 2850 5318 34406 16604 3684
is_linear=0
shrinkage=0.03144


Tree=24
num_leaves=32
num_cat=0
split_feature=14 7 42 55 40 35 42 14 23 12 11 60 59 40 14 41 34 26 12 60 22 26 42 14 41 51 37 0 22 24 14
split_gain=1340.5 538.748 479.859 365.443 315.784 262.298 227.346 330.764 205.388 160.789 151.853 146.694 140.255 129.835 134.567 138.879 105.675 95.0294 90.7769 90.6679 89.4075 83.3784 80.8546 69.0394 66.4647 56.2898 54.3872 53.2309 42.6426 25.7521 23.7344
threshold=105.50000000000001 0.38889117418529195 -32.499999999999993 0.093933823529411778 6.5000000000000009 0.062781531531531543 -2.4999999999999996 122.50000000000001 0.25888908232504743 93.500000000000014 111.50000000000001 1.0000000180025095e-35 0.25265957446808512 9.5000000000000018 159.50000000000003 107.50000000000001 0.051434676434676439 0.087969751276202907 115.50000000000001 1.0000000180025095e-35 0.19374389051808408 0.042412534956886516 -3.4999999999999996 144.50000000000003 96.500000000000014 22.500000000000004 151.50000000000003 7499.5000000000009 0.34104278074866318 0.16489180922170615 53.500000000000007
decision_type=10 8 10 10 8 10 8 10 10 10 8 10 10 10 10 8 10 10 10 10 10 8 8 10 10 8 10 2 10 10 8
left_child=1 2 9 5 6 12 10 20 16 17 24 -7 -3 14 15 -6 -5 -1 -12 21 -8 -4 -10 -9 -2 -11 29 -16 -28 -15 -21
right_child=4 3 19 8 13 11 7 23 22 25 18 -13 -14 26 27 -17 -18 -19 -20 30 -22 -23 -24 -25 -26 -27 28 -29 -30 -31 -32
leaf_value=-0.032496077669180792 0.036986664880830925 -0.0094953999216557897 -0.010896831517006916 -0.0022712423967276461 0.0098303413599397111 -0.0021960746675271231 0.0036028270580812701 0.014472033329742824 -0.00089866490971973279 -0.012815449696029815 -0.0088664364036237561 -0.017460291031428928 -0.039327887855977864 -0.00070301166837406282 0.024945187185564783 0.001118889535856458 0.0019754740214639683 -0.018258238755571359 0.0018633388954393396 -0.04324784680152069 0.010390264821757004 -0.0028274541117811166 0.012033250448809643 0.025651047244552767 0.0088474203090882081 0.0099085414305166656 -0.0074912335434908902 -0.0028273785861260298 0.0067859811239610653 0.012677476641010928 -0.017480905834264579
leaf_weight=1037.7309544815798 86.334408953785896 5433.1429464239627 1658.6654358322266 10869.24244222336 2038.7358707590029 19929.91479614831 6137.8855106513947 4238.9164737733081 617.62627837341279 586.56130395818036 910.47103632846847 642.29128960671369 160.27784238103777 395.83990710647777 357.92356232274324 16041.006047205999 12399.323444661335 838.32678079162724 5409.7757512726821 39.024072847445495 2790.5579126514494 5342.3344786012312 2112.1362821785733 627.03438786417246 2073.1759586557746 131.90359733183868 2405.2942007854581 84.243974840268493 226.14397080568597 221.74162840377539 371.37123795307707
leaf_count=27166 138 40811 18440 44646 5078 95161 15557 8552 1875 6281 3438 8706 2134 2069 776 50613 42751 11979 17077 1180 5904 32144 4746 1192 5242 783 9363 259 650 838 7410
internal_value=0 -0.00297291 -0.00965542 -0.00169108 0.00419628 -0.00431417 0.00682815 0.00931853 0.000948898 -0.0212919 0.00277688 -0.00267274 -0.010351 0.00150355 0.00252044 0.00210128 -8.25674e-06 -0.0261353 0.000317508 -0.00558154 0.00572433 -0.00473939 0.00910739 0.0159132 0.0099743 -0.00864255 -0.0042934 0.0196543 -0.006264 0.00410259 -0.0199425
internal_weight=106215 62169.9 10005.9 52164 44045.1 26165.6 22274.2 13794.4 25998.3 2594.52 8479.76 20572.2 5593.42 21770.9 18521.9 18079.7 23268.6 1876.06 6320.25 7411.4 8928.44 7001 2729.76 4865.95 2159.51 718.465 3249.02 442.168 2631.44 617.582 410.395
internal_count=472959 346213 105383 240830 126746 146812 57100 31205 94018 46209 25895 103867 42945 69646 56726 55691 87397 39145 20515 59174 21461 50584 6621 9744 5380 7064 12920 1035 10013 2907 8590
is_linear=0
shrinkage=0.03144


Tree=25
num_leaves=32
num_cat=0
split_feature=14 28 42 44 14 23 11 13 42 7 2 2 60 25 23 7 7 14 11 22 54 38 34 2 48 14 15 25 4 51 23
split_gain=1290.29 508.569 568.838 341.788 287.25 249.255 227.041 257.649 216.581 197.745 139.815 135.063 119.792 118.151 117.02 114.447 106.742 99.5743 99.6329 89.1236 100.91 69.7267 60.9422 55.5039 54.6457 52.3799 45.4774 44.4145 43.0437 30.1017 10.9735
threshold=99.500000000000014 0.079021706809396394 -29.499999999999996 11.500000000000002 127.50000000000001 0.19049305274517742 74.500000000000014 88.166666666666671 -5.4999999999999991 0.44939733469145243 265.50000000000006 4.5000000000000009 1.0000000180025095e-35 0.10268392044092979 0.12329797095478423 0.78759920634920644 0.5622638146167559 142.50000000000003 105.50000000000001 0.16137432795698928 0.11721704288003686 -1.4999999999999998 0.22752525252525257 7.5000000000000009 69.45438385009767 74.500000000000014 2.1666666666666674 0.16710296684118678 0.70135135135135152 -3.4999999999999996 0.14021258167165643
decision_type=10 10 10 2 10 10 10 8 8 8 10 10 10 10 8 8 8 10 10 10 8 10 8 8 8 8 8 8 10 8 10
left_child=1 2 9 4 10 6 7 -3 21 26 13 27 -8 -2 -11 -10 24 18 -13 25 -21 -6 -12 -18 -4 -7 -1 29 -19 -5 -29
right_child=3 5 16 11 8 19 12 -9 15 14 22 17 -14 -15 -16 -17 23 28 -20 20 -22 -23 -24 -25 -26 -27 -28 30 -30 -31 -32
leaf_value=-0.00040494812143268918 0.0014322607633499899 -0.015050059951543314 -0.0085483135143576815 -0.010399452656366472 0.0055378019671919586 -0.012334846337720565 -0.00017302347201786301 -0.0033363118141116316 0.011308790360693112 -0.018215093602968711 -0.0099228385348650982 0.0039861545563913449 -0.012729157685928621 0.0059353941709646167 -0.0068043007887377566 0.021479322186639151 0.010649797442379086 0.0014751296461998329 -0.0020873281627716059 0.0034100634806113611 0.014476112093993763 -0.0080110258787962213 0.018751006898141975 -0.001904273851287507 -0.0021716020608909701 0.0016151139893372539 -0.028384740008586321 0.020796655064428089 0.011218659614404344 0.016078793637549677 0.036391393482142369
leaf_weight=60.091333830961958 9156.4740629708394 2625.014126695809 5165.3071052351152 59.460896264761686 1966.5853203767911 289.54781646328047 18139.372544782236 6336.3406265175436 3726.2457363777794 1961.969171240693 930.96852590283379 3292.5209751781076 783.39754227770027 15524.065224419115 1623.8077590732137 1548.3523610713892 373.15282841818407 818.44505782611668 14116.214074414689 2173.0486247108784 1302.9340852238238 463.9396748826839 79.420442637056112 5165.6630135775777 1788.4552192549454 3265.6714327451773 1295.6077856760821 78.760595123283565 990.64656919427216 147.57456039823592 104.81041822955012
leaf_count=657 29436 28290 43356 177 6401 1624 76386 33679 8428 22054 3426 9166 10146 40040 10159 3073 1111 2743 50844 6881 3040 1868 216 23687 12408 10979 29356 162 2652 348 166
