tree
version=v4
num_class=1
num_tree_per_iteration=1
label_index=0
max_feature_idx=49
objective=lambdarank
feature_names=horse_runs_last_3_positions horse_runs_last_5_positions horse_wins_last_5 horse_win_rate_last_10 horse_days_since_last_run horse_runs_last_90_days horse_going_affinity horse_distance_affinity horse_course_affinity horse_best_rpr_last_5 horse_avg_class_last_3 horse_class_delta horse_form_trend horse_first_time_headgear draw_position draw_field_percentile draw_course_going_win_rate draw_bias_coefficient draw_is_null trainer_win_rate_90d trainer_win_rate_course_90d trainer_win_rate_going_90d trainer_win_rate_dist_band_90d trainer_runs_90d trainer_fresh_win_rate trainer_fresh_runs trainer_is_unknown jockey_win_rate_90d jockey_win_rate_course_90d jockey_trainer_combo_win_rate jockey_trainer_combo_runs jockey_runs_90d jockey_is_unknown race_class_encoded is_handicap race_grade prize_money_log is_class_dropper is_first_time_headgear field_size pace_front_runners pace_hold_up_horses pace_pressure_index surface_encoded distance_furlongs distance_is_imputed going_encoded race_type_encoded race_month race_day_of_week
feature_infos=[0:13] [1:1] [0:5] [0:1] [0:2511] [0:23] [0:1] [0:1] [0:1] [10:177] [1:7] [-5:5] [0:0] none [1:36] [0.033333333333333333:1] [0:0.66666666666666663] [0:10] [0:1] [0:1] [0:1] [0:1] [0:1] [0:702] [0:1] [0:1727] [0:1] [0:1] [0:1] [0:1] [0:359] [0:636] [0:1] [1:7] none none [0:13.733799834926266] [0:1] none [2:40] [0:20] none [0:1] [0:1] [5:20800] [0:1] [1:6] [0:316] [1:12] [0:6]
tree_sizes=7036 7111 7080 7073 7054 7042 7039 7054 7042 7060 7087 7074 7060 7054 7105 7045 7069 7069 7033 7050 7069 7079 7058 7059 7048 7039 7055 7082 7055 7052 7043 7029 7040 7052 7021 7023 7055 7059 7059 7054 7072 7047 7020 7047 7019 7045

Tree=0
num_leaves=63
num_cat=0
split_feature=24 0 5 24 27 19 24 0 27 0 0 27 33 24 33 4 29 11 27 33 11 33 4 36 4 33 27 7 7 3 36 29 33 24 0 25 25 24 7 19 24 27 4 11 7 11 0 31 25 40 7 42 24 33 5 0 33 42 6 36 26 36
split_gain=2481.54 1236.32 820.65 612.632 525.24 327.625 261.843 225.429 145.898 139.228 136.818 136.751 111.899 105.214 101.348 98.784 87.9883 73.7036 76.8397 70.7068 64.6821 59.7004 58.7739 56.1798 54.6222 52.7609 52.7195 51.4879 51.246 51.1362 50.107 48.4921 47.9487 47.7958 42.6291 41.7206 38.7288 38.7073 37.8186 37.7442 37.0538 36.9206 36.1617 42.6609 35.3074 33.9576 37.9596 37.7322 32.1306 31.9537 29.922 31.1386 29.5054 28.4934 28.17 29.0683 28.0959 26.8414 26.7559 26.1439 36.496 40.6808
threshold=0.11542042687294087 6.5000000000000009 1.5000000000000002 0.067821608919554036 0.12512833675564686 0.062615313653136537 0.18824415308291995 6.5000000000000009 0.095306908890723921 5.5000000000000009 6.5000000000000009 0.08595517533936653 3.5000000000000004 0.032316082617776749 1.0000000180025095e-35 8.5000000000000018 0.070467677862044067 -0.33333333333333309 0.080757286192068817 3.5000000000000004 -0.33333333333333331 4.5000000000000009 54.500000000000007 10.030779906051086 6.5000000000000009 3.5000000000000004 0.11982518947328333 0.045804195804195813 inf 0.43650793650793657 9.0261434798792184 0.029557367501456031 3.5000000000000004 0.22373693722008331 5.5000000000000009 253.50000000000003 350.50000000000006 0.034549071618037143 0.72077922077922085 0.19200614439324118 0.156997925196633 0.1027532622231848 390.50000000000006 1.416666666666667 0.43167701863354041 -1.333333333333333 2.5000000000000004 206.50000000000003 293.50000000000006 1.0000000180025095e-35 inf 0.072751322751322761 0.066752356469580124 6.5000000000000009 2.5000000000000004 1.5000000000000002 3.5000000000000004 0.093073593073593086 0.09958677685950415 8.8248762550075437 1.0000000180025095e-35 8.4669098517161476
decision_type=8 2 2 10 8 10 8 2 10 2 2 10 8 10 10 10 10 8 10 8 8 8 10 2 10 10 10 10 8 2 2 10 8 10 2 2 2 10 10 10 10 10 8 8 8 8 2 2 2 2 8 2 10 8 2 2 8 2 10 2 2 2
left_child=1 2 3 9 7 13 10 16 20 17 14 34 38 27 35 -3 39 -1 37 -12 58 -15 32 33 -10 -16 -11 53 49 36 -9 54 -17 42 -5 -6 59 -19 -8 50 -27 44 43 -18 57 -26 47 -47 -30 -13 51 -2 -34 -4 55 -22 -29 -23 -7 60 -14 -62
right_child=4 15 5 11 6 8 12 30 24 26 19 28 29 21 25 22 23 18 -20 -21 31 41 -24 -25 45 40 -28 56 48 -31 -32 -33 52 -35 -36 -37 -38 -39 -40 -41 -42 -43 -44 -45 -46 46 -48 -49 -50 -51 -52 -53 -54 -55 -56 -57 -58 -59 -60 -61 61 -63
leaf_value=-0.058892134680126842 9.0567507982329827e-05 0.044088144853559552 -0.04407618928218851 -0.0191732735297571 0.0082284837902195443 -0.033198866313636555 0.020804753657073322 0.039038446045398405 0.022583534249841275 -0.065046783041539935 0.019992041870382934 0.0045534094366499666 0.030810348319386338 -0.026075661224460457 0.00091016804561921743 0.0076216266722014137 0.0057479354843757591 -0.050908558633778848 -0.024081772904546231 0.047372932397727621 -0.01618401686199283 -0.0076996567643210258 -0.003114562582210067 -0.017725901382342091 -0.019889914896290412 0.010486288540499092 -0.038144947615662006 -0.061468026200333065 -0.026841087557313917 0.067718742265892085 0.014564403447008371 0.00048077314219415444 0.0184578276871976 0.030290708633328348 -0.037263871541542891 0.037554499407484961 0.048952559460463618 -0.033549597337319485 0.045963581885259223 0.0095236976481155936 0.025338526711612727 0.0025690337158501592 -0.010244668366278992 0.022742024408130571 -0.039273009919785107 -0.0016223994130603646 0.016367456483919622 0.0094577216457774112 -0.0032704568938186265 -0.010416851512915604 -0.018660297249647861 -0.014707346705793779 0.033480733738789091 -0.02663864242371259 -0.0071703192232712189 -0.048148660700435018 -0.014037524178211226 -0.034965810643686243 -0.0098283596451839775 -0.0040668682827036716 0.070259180706685298 -0.069740978834042774
leaf_weight=318.32829557271907 1168.1450180037064 444.42183279045275 500.85789387760451 1045.0480199276935 155.90933920908719 329.025892926089 956.93614711114787 520.69805064599495 411.35008843865944 723.58262280211784 429.22307510190876 1044.1794585247117 586.03750532399863 579.17121921648504 1054.5332005002711 462.51546023209812 1505.2318284701905 609.37554258818273 1175.4291853902396 523.16112143476494 414.00459004036384 1103.5703963065171 281.93306441273307 196.73530156852212 149.92236394673819 1504.5888936661067 243.36788189370418 33.170598979166243 370.2436391885858 214.16654447821202 349.51587497023866 1622.5703493711771 622.39764735050267 260.60802189528476 473.04561199090676 546.00357694650302 850.28077541058883 678.90963452670258 176.99869105278049 381.56875354560907 582.53020982292946 596.25435256230412 250.30244416429196 489.35416073171655 112.07475299795624 2150.359523859719 563.20177129202057 1195.5444651531579 237.21823819022393 541.20470369936083 472.13291264310828 511.01397300188546 688.2692841506796 440.13246868579881 1013.0828609663295 85.87834510623361 531.63122697611107 98.3005063458113 195.07978814403759 44.054910572594963 98.838520742865512 5.4763621580786994
leaf_count=5854 16076 3872 8809 16588 1969 5245 10273 4425 4403 15873 4535 13417 5655 8704 13150 5518 18080 12339 19701 4025 6692 17617 3909 3299 2278 17406 4240 594 5936 1291 4040 22224 6963 2548 8595 5438 6823 12365 1418 4780 5972 8258 3597 5694 2173 28617 6272 14620 3176 7864 7342 7450 6634 8208 15035 1718 8349 1617 2720 574 606 89
internal_value=-4.95764e-10 -0.0104016 -0.0146278 -0.0276764 0.0166051 -0.00659981 0.0252642 0.00564345 -0.000838308 -0.0419321 0.0180674 -0.0132746 0.037033 -0.0183243 0.0138636 0.0227133 0.00172628 -0.0362514 -0.0333261 0.0350328 -0.0082412 -0.0120136 0.0180909 0.00800202 0.00522201 0.0100259 -0.058276 -0.0287571 -0.00528839 0.0447872 0.0292086 -0.00552353 0.0214625 0.0100222 -0.0248104 0.0310406 0.0416881 -0.0417606 0.0247319 -0.00496911 0.0146317 -0.00774997 0.00766925 0.00991729 -0.0124326 0.00346256 0.00435817 0.0023367 -0.0176366 -0.000557008 -0.00753966 -0.00441284 0.0263468 -0.0359201 -0.0119628 -0.0216754 -0.0168231 -0.00992974 -0.0245 0.0332775 0.0356606 0.0629094
internal_weight=35918.7 22084.7 19585.1 7459.93 13834 12125.2 7728.74 6105.31 8130.02 3748.99 4795.95 3710.94 2932.79 3995.16 3843.57 2499.54 5235.09 2782.04 2463.71 952.384 3659.64 2489.37 2055.12 2702.23 4470.38 3141.65 966.951 1505.79 2192.85 1798.85 870.214 3135.54 1773.18 2505.5 1518.09 701.913 1584.69 1288.29 1133.93 2532.86 2087.12 1910.2 2244.89 1994.59 1313.95 4059.03 3909.11 3345.9 607.462 1585.38 2151.29 1679.16 1310.67 940.99 1512.97 499.883 564.802 1201.87 524.106 734.407 690.352 104.315
internal_count=483552 326997 300101 125948 156555 174153 79224 77331 109824 70372 52495 55576 26729 64329 43935 26896 68866 50259 44405 8560 53634 38369 23024 33218 56190 36528 20113 25960 30393 15038 8465 45669 19115 29919 25183 7407 13747 24704 11691 35648 23378 29665 27371 23774 21407 51787 49509 43237 9112 21281 30868 23526 13597 17017 23445 8410 8943 19234 7965 6924 6350 695
is_linear=0
shrinkage=0.05


Tree=1
num_leaves=63
num_cat=0
split_feature=1 22 9 26 0 24 9 27 24 24 20 9 4 40 30 4 11 24 0 47 24 31 19 10 4 24 11 40 4 30 9 48 9 10 24 11 10 4 27 10 10 21 11 9 31 4 11 11 4 11 28 20 11 4 31 11 20 0 27 24 31 30
split_gain=2082.09 1406.47 1315.63 826.507 565.629 516.345 509.289 428.624 403.204 320.901 316.931 232.832 251.384 209.77 187.232 186.816 186.42 248.829 151.538 127.815 124.482 133.682 121.353 116.08 112.245 109.529 105.885 103.184 102.58 99.0622 96.4595 91.3695 90.0883 96.1696 89.7275 111.544 84.6795 84.2129 84.0995 82.4151 81.6912 81.1462 80.7101 80.3853 80.1059 79.3808 78.8569 78.0543 77.2968 77.1097 76.3924 75.8961 75.3586 77.4112 71.8571 120.974 69.9809 69.4737 65.5335 62.7658 81.2417 64.1694
threshold=1.0000000180025095e-35 0.037210107303565255 51.500000000000007 1.0000000180025095e-35 8.5000000000000018 0.16678256838201208 50.500000000000007 0.15797035692679978 0.087917396613048801 0.07813630607814763 0.21081871345029243 155.50000000000003 6.5000000000000009 1.0000000180025095e-35 19.500000000000004 56.500000000000007 -0.83333333333333337 0.12846282565419351 1.5000000000000002 30.500000000000004 0.22373693722008331 126.50000000000001 0.035149493451939719 5.8333333333333348 301.50000000000006 0.07813630607814763 -3.1666666666666661 1.0000000180025095e-35 6.5000000000000009 3.5000000000000004 46.500000000000007 6.5000000000000009 103.50000000000001 1.1666666666666667 0.031320067264574002 -0.66666666666666652 3.4166666666666674 10.500000000000002 0.1397552944698047 5.166666666666667 3.1666666666666674 0.021054964539007095 1.0000000180025095e-35 66.500000000000014 114.50000000000001 85.500000000000014 0.66666666666666674 -0.33333333333333309 12.500000000000002 0.4166666666666668 0.23831367409349064 0.21778656126482215 -1.0000000180025095e-35 5.5000000000000009 44.500000000000007 1.0000000180025095e-35 0.13079116179615113 1.0000000180025095e-35 0.12613998613998614 0.1818901035673188 100.50000000000001 128.50000000000003
decision_type=10 10 10 2 2 10 10 10 10 10 10 8 10 2 2 10 10 8 2 2 10 2 10 8 10 8 8 2 10 2 10 2 10 8 10 8 8 10 10 10 8 10 10 10 2 10 10 10 10 10 10 10 8 10 2 8 8 2 10 10 2 2
left_child=1 2 3 8 10 6 7 9 18 30 11 12 40 20 36 28 26 50 23 37 21 -7 -17 -1 32 -13 -6 -16 -4 -10 48 -31 41 -34 35 -30 -11 43 -20 54 -2 -14 -21 -12 -15 52 -22 -42 56 58 -18 -28 -8 -54 55 -9 -3 -39 -46 60 -35 -62
right_child=4 5 15 -5 16 13 45 39 29 14 19 25 24 44 27 22 17 -19 38 42 46 -23 -24 -25 -26 -27 51 -29 34 31 -32 -33 33 59 -36 -37 -38 57 -40 -41 47 -43 -44 -45 49 -47 -48 -49 -50 -51 -52 -53 53 -55 -56 -57 -58 -59 -60 -61 61 -63
leaf_value=-0.046128343768400776 -0.0073701834406324279 -0.056803110738394648 0.0091626554274724797 0.046562364380950141 -0.017184845344625766 -0.0034679549287459617 -0.0042887137353815122 -0.054800983159851505 -0.027841300414665478 0.018888626498215544 0.033103470922527849 -0.0087165143396977594 -0.0060696509699781284 -0.013679836878588137 -0.00061390796227355892 -0.02734864838986046 0.0070705316467980506 0.036843581234379003 -0.053341026101227706 0.015348365724616243 0.015866805768675617 0.013172674698329083 -0.0085053486191878341 -0.025037241921898025 -0.020224434883800522 0.016786195096447819 0.0090026728156957763 -0.01859565683594409 -0.047332589144492482 -0.00059705526253080957 -0.0051778643658913041 -0.023581622258191343 0.013443143318503631 -0.00077381054774218743 -0.0031854846320481787 -0.010303793147204757 -0.018573769687610597 -0.0025306062280816498 -0.030527021563315174 -0.027248804824032698 0.0085033688473103702 0.00069948346559960291 0.032697212636646412 0.010243748078538435 0.015166569740791636 -0.0073158777358190768 0.034838436814256954 0.026079990622617427 -0.025802070727773269 0.022646818535544413 0.029503253240027873 0.023221294392731642 0.015186935304233137 0.0023946371346094237 0.0086525360629614353 0.0011248026824998427 -0.028832101816601043 0.0088913234768533134 -0.0072359495606457921 -0.0065301018865385257 0.0098638942416049945 -0.028957250784457947
leaf_weight=1030.3495352824684 342.1755749899894 481.80124533362687 1321.5064553616103 341.87968017428648 302.19463273417205 1860.421997657977 4042.5508483308367 121.03169229067862 1673.7992877773941 156.00798386521637 622.18067154381424 474.54956602072343 6198.21762920334 1081.678025661502 4552.8561771796085 1566.0637571110856 1481.0035614641383 2349.3809297485277 2266.2268704199232 2717.8393413673621 3099.7958561829291 3435.8284054556862 1880.3009435668355 1778.3597802033182 651.17633449714049 3731.9450935041532 3024.5571897961199 967.28964267158881 219.07933840109035 971.31526137515903 387.05320286471397 779.28182051423937 2248.0838072230108 4632.467855460709 10143.756730085704 2838.1006082605454 4556.8998158616014 1681.7057878838386 491.57541713770479 198.43621127028018 1096.7114681852981 15495.905021464918 889.8918348280713 1006.9886925602332 436.72060453752056 2551.128092829138 665.29182238504291 1489.474813207984 1760.6842535617761 405.46905650943518 510.27192797884345 1360.7705353554338 1260.0154021726921 19254.214243086986 3328.3431222639047 480.91350918728858 417.29191762814298 6389.7050979291089 1292.8060381151736 1772.0735442540608 4060.9495604911353 109.31171753164381
leaf_count=6778 938 3949 4829 676 896 4439 14271 496 7316 466 1054 1858 22896 3031 14227 10039 2749 3111 19215 5559 5074 6802 8428 11193 2581 8057 6158 3962 1572 3253 1690 3174 6467 14479 40195 17255 18871 4646 2675 701 2596 43057 1551 2022 1310 10030 924 2649 10208 737 745 2192 3022 63219 8397 1394 2720 13388 2589 3388 11062 326
internal_value=1.87326e-11 -0.00518649 -0.0145127 -0.0297426 0.00674763 -0.000703285 -0.00320703 -0.00988059 -0.0326441 -0.0142552 0.00486309 0.00274597 0.00151337 0.00837457 -0.0100141 -0.00660252 0.0183559 0.0258223 -0.0409489 0.0115928 0.0122685 0.0073273 -0.0170679 -0.0327743 0.000341351 0.0139091 0.011442 -0.00376483 -0.00411894 -0.0191442 -0.0284993 -0.0108287 0.000729332 0.00405184 -0.00544852 -0.0129573 -0.0173337 0.00860452 -0.0492745 0.00419009 0.0155887 -0.00123452 0.0196277 0.0189739 -0.00259452 0.00107871 0.0192191 0.0186264 -0.0318931 0.00302177 0.012819 0.0134147 0.0019508 0.00318036 0.00577741 -0.0101201 -0.0438211 0.00651153 -0.00157912 0.00205535 0.00378369 0.00884631
internal_weight=148736 84096.1 27301.6 9332.79 64639.5 56794.5 44516.5 17408.6 8990.91 13279.9 55611.4 42303 38096.5 12278 10233.1 17968.8 9028.18 4340.66 5566.51 13308.3 9061.34 5296.25 3446.36 2808.71 35168.2 4206.49 4687.52 5520.15 14522.4 3424.4 3046.83 1750.6 34517 12822.9 13200.9 3057.18 4712.91 9700.58 2757.8 4128.72 2928.36 21694.1 3607.73 1629.17 3216.67 27107.9 3765.09 2586.19 2659.78 2135 1991.28 4385.33 24556.8 20514.2 3930.29 601.945 899.093 8071.41 1729.53 10574.8 8802.73 4170.26
internal_count=483552 319127 136598 54280 164425 182529 157623 67081 53604 56093 148574 120354 110439 24906 37526 82318 15851 6605 39861 28220 17239 11241 18467 17971 104256 9915 9246 18189 63851 13743 18567 6427 101675 35722 59022 18827 19337 21110 21890 10988 6183 65953 7110 3076 7667 90542 5998 5245 16877 4636 3494 8350 80512 66241 10287 1890 6669 18034 3899 29255 25867 11388
is_linear=0
shrinkage=0.05


Tree=2
num_leaves=63
num_cat=0
split_feature=19 3 3 0 24 27 24 24 33 27 36 19 25 28 36 0 24 24 0 33 27 25 5 27 10 5 44 42 3 27 25 25 23 42 23 20 28 30 14 47 10 42 47 20 24 36 44 30 33 36 33 19 42 30 42 27 27 10 19 19 36 5
split_gain=1680.84 748.415 689.186 650.965 593.496 458.995 309.742 223.299 214.175 210.571 190.267 174.296 168.482 156.052 151.61 154.415 163.486 122.584 116.783 121.625 115.699 109.394 106.06 101.158 96.8419 89.0368 87.7126 85.0739 84.9392 74.5716 71.2061 70.0637 68.8768 69.4029 66.6008 64.9559 64.523 63.5766 64.7298 62.5145 61.1366 60.8682 59.7942 62.976 62.3939 59.4561 199.263 97.7323 86.7268 95.5964 63.8458 77.6401 58.4395 58.1151 57.6672 57.0693 56.0966 55.9011 55.0613 54.3979 54.1262 53.9277
threshold=0.12752199734883676 0.41428571428571431 1.0000000180025095e-35 1.5000000000000002 0.077041785375118729 0.17655438243673541 0.042264971945494105 0.2473001656053927 3.5000000000000004 0.072383305548940249 9.2591633152316266 0.16356008755167983 208.50000000000003 0.17580080080080082 9.6406392129522427 6.5000000000000009 0.21623392724310159 0.02966629996332967 1.0000000180025095e-35 3.5000000000000004 0.055632930981120397 325.50000000000006 3.5000000000000004 0.087007672634271102 2.1666666666666674 1.0000000180025095e-35 10.250000000000002 0.057189542483660136 0.78888888888888908 0.056641967764112754 374.50000000000006 163.50000000000003 64.500000000000014 0.12310606060606062 1.5000000000000002 0.36882591093117417 1.0000000180025095e-35 20.500000000000004 6.5000000000000009 29.500000000000004 3.1666666666666674 0.22902097902097904 30.500000000000004 0.037268518518518527 0.1308191631241144 8.1401887284675123 10.250000000000002 1.5000000000000002 2.5000000000000004 8.8248762550075437 3.5000000000000004 0.27783028775467344 0.085144927536231887 6.5000000000000009 0.14550264550264552 0.10719461697722568 0.16679915209326976 1.1666666666666667 0.20417757417102969 0.055674773485932291 9.0489077626789243 2.5000000000000004
decision_type=8 2 2 2 10 8 10 8 8 10 2 10 2 10 2 2 10 10 2 8 10 2 2 10 8 2 2 2 2 8 2 2 2 2 2 8 8 2 8 2 10 2 2 10 10 2 2 2 8 2 10 10 2 2 2 8 10 8 10 10 2 2
left_child=2 5 3 6 23 9 22 13 24 34 45 -12 29 30 15 16 25 54 57 -20 53 -10 32 37 28 31 -17 -14 56 -6 -7 -11 33 -1 -2 -36 -18 -5 -39 -32 -27 -28 43 -21 -44 46 58 48 -47 50 -50 -52 -22 -8 61 -29 -3 60 -9 -25 -19 -4
right_child=1 8 17 4 12 7 20 10 21 14 11 -13 27 -15 -16 26 36 18 19 42 52 -23 -24 59 -26 40 41 55 -30 -31 39 -33 -34 -35 35 -37 -38 38 -40 -41 -42 -43 44 -45 -46 47 -48 -49 49 -51 51 -53 -54 -55 -56 -57 -58 -59 -60 -61 -62 -63
leaf_value=-0.020173201597777968 -0.03375366572011624 0.0065762576767630608 -0.014967216942016602 -0.05243247391976727 -0.0407633757260999 -0.00045941086257213557 -0.015518376223850328 0.077694980614152392 0.020703017775119709 -0.014922295543220313 -0.067085607480747239 0.01124286898437098 -0.0033863560703442114 0.013763992740143401 -0.0072904820373118386 0.0040521233696867815 0.00047655126177881902 0.028186494883764752 -0.0033606290580153646 -0.00029053219431149287 0.00049272745874727583 0.039384949867140473 -0.0060732216800315035 -0.040860461891799572 0.0077607313488895786 0.0067322467454937326 0.020404201058417767 -0.037352358836808097 0.050121892869028621 -0.018958990840495658 -0.0029090203546820841 -0.001540387316955133 -0.0042685925976117109 -0.046267364214077226 -0.009149783638626563 0.0007026011461809112 0.015943025382927589 -0.0033060862604495124 -0.051143778381736754 0.012279287628033387 0.00025264591774850118 -6.6100714496010338e-05 0.0080275825405406384 0.0074754500611417286 0.025651868112126421 0.068392424959018469 0.010259434984315559 0.033811012521103377 0.042198760060095521 -0.069234219844584416 -0.057644080335821905 0.054246865202441125 -0.0085383381446114161 -0.0041734603790354978 -0.027607568465484102 -0.0096237947957779901 0.026138281045891318 -0.0035258022898990056 -0.0010005762039468407 -0.02057563582955331 0.0019788684535102358 -0.0020872126319156233
leaf_weight=3764.7126706570853 218.75101571716368 611.93113527167588 1320.8311024017166 1384.2105374603998 498.58478919416666 4593.0984280733392 2286.9951393697411 298.42372274887748 1507.6665471149608 1406.446001145523 83.699129334185272 468.8863588925451 3353.9069145754911 7198.3407201357186 3462.2278086289298 2133.459935109131 900.04491336084902 258.52262375596911 5297.2735726451501 4925.7025283721741 12737.109345048666 1631.598780747503 2133.355973769445 593.49120923806913 2840.4956938852556 5201.2797355512157 2478.4214442446828 335.27542746625841 242.97008606232703 1836.467180642765 880.35807934310287 3211.8562707281671 638.65785231720656 273.31816338584758 4863.3121138073038 2550.1415764759295 2688.8938291966915 146.28864427376539 136.87886203126982 2939.9861816456541 12130.434397009667 425.49092224054039 2277.0740948268212 5553.9178024290595 644.2640193849802 36.999448776245117 221.75713465607259 985.49063985794783 67.767251539975405 57.694157987833023 52.830633427016437 21.943203933537006 2084.4515403076075 2229.0429764664732 378.46003120392561 415.55369409918785 913.65891254227608 15169.252295507118 24.016016561537981 745.86985687003471 828.01528593304101 2112.3910734816454
leaf_count=27628 1686 1482 8310 15416 3483 12292 12863 287 2573 6645 267 924 11754 14667 12462 3904 1774 706 15993 14447 45771 2316 10857 5098 5909 13430 4038 1975 315 8865 1854 9904 3198 1938 19018 9230 4773 995 1478 6237 34473 729 6403 12660 1205 30 531 1408 109 165 210 31 8576 10208 1732 1679 1575 58481 54 4848 3541 8142
internal_value=4.46322e-13 0.00572178 -0.00518242 -0.0102059 -0.0214555 0.00382139 -0.00614165 0.0105103 0.0203401 0.000943102 0.0249859 -0.000621404 -0.012892 0.00835957 0.00262614 0.00374902 0.00217096 -0.000569941 0.000358538 0.00305327 -0.00291221 0.0304127 -0.0153119 -0.0397969 0.0134796 0.000553353 0.0117496 -0.00679217 0.0226647 -0.0236147 0.00373567 -0.00561568 -0.0195262 -0.0219394 -0.006563 -0.00576068 0.0120643 -0.0480165 -0.0264301 0.0087793 0.00219719 0.0174048 0.00558863 0.00382523 0.0119144 0.0329943 0.0467425 0.0268754 -0.00193588 -0.0149311 0.00704829 -0.0248085 -0.000777369 -0.00991871 -0.00908432 -0.0220057 0.0182917 -0.00274108 0.0718336 -0.0295642 0.00821451 -0.00704241
internal_weight=141710 67350.4 74359.9 35594.2 9446.53 59602.1 26147.6 17931.3 7748.32 41670.8 2319.51 552.585 6439.79 15611.8 34038.6 30576.3 25539 38765.7 34954 18698.2 19337.6 3139.27 6810.04 3006.74 4609.06 21950 5037.37 4104.74 1768.56 2335.05 8413.44 4618.3 4676.69 4038.03 7632.2 7413.45 3588.94 1667.38 283.168 3820.34 17331.7 2903.91 13401 10479.6 2921.34 1766.92 544.197 1222.73 237.235 200.235 142.541 74.7738 14821.6 4516.04 3811.68 750.829 1525.59 16255.8 322.44 1339.36 1086.54 3433.22
internal_count=483552 175302 308250 176630 55591 161132 121039 39066 14170 122066 4016 1191 27756 35050 92132 79670 70999 131620 113436 50708 77418 4889 43621 27835 9281 64452 8671 15408 3372 12348 20383 16549 32764 29566 29934 28248 6547 17889 2473 8091 47903 4767 34715 27107 7608 2825 872 1953 545 515 350 241 54347 23071 18184 3654 3057 62728 341 9946 4247 16452
is_linear=0
shrinkage=0.05


Tree=3
num_leaves=63
num_cat=0
split_feature=24 4 6 3 27 24 7 26 29 36 7 4 19 31 36 36 25 27 25 0 4 11 40 44 7 15 39 27 30 31 20 7 44 11 25 27 3 11 21 11 6 24 36 24 40 29 36 36 22 11 24 4 31 22 27 11 25 26 7 0 40 0
split_gain=1347.37 900.937 614.517 400.527 399.419 283.502 250.607 249.814 262.685 221.748 200.686 193.661 171.95 171.844 158.72 151.588 124.232 122.708 106.376 103.268 102.529 100.956 99.4343 91.894 90.9458 78.0046 76.0929 74.4943 74.1479 70.1109 71.1699 70.0974 93.3856 69.4526 94.4027 68.9828 66.6496 64.2038 80.3037 62.4179 70.8174 61.4819 58.6655 57.7841 57.2318 68.8824 57.0568 56.8702 58.4513 55.9285 60.7039 56.4243 54.5278 54.4538 53.6186 53.1588 53.145 61.9084 51.081 49.8129 50.8062 49.2016
threshold=0.14709017935532423 292.50000000000006 0.23368794326241138 0.47222222222222227 0.064839839839839861 0.077041785375118729 inf 1.0000000180025095e-35 0.15799148606811148 9.1323891679007527 0.27334993773349942 5.5000000000000009 0.016597796143250691 112.50000000000001 8.5187696916840796 9.3767329332785625 43.500000000000007 0.16218344328580553 250.50000000000003 1.5000000000000002 4.5000000000000009 1.0000000180025095e-35 1.0000000180025095e-35 15.750000000000002 0.37797619047619052 0.46291208791208799 2.5000000000000004 0.17190241228070177 171.50000000000003 130.50000000000003 0.36882591093117417 0.27334993773349942 21.750000000000004 -0.83333333333333337 759.50000000000011 0.19414620217018849 1.0000000180025095e-35 0.66666666666666674 0.23550420168067229 -0.41666666666666669 0.23166368515205729 0.043506940461167841 9.8353959798285047 0.090861643575631063 1.0000000180025095e-35 0.021858576206402299 8.0838855381629795 8.4041733992225947 0.20597147950089129 -1.0000000180025095e-35 0.083402893711741796 6.5000000000000009 13.500000000000002 0.094761785981541544 0.300137741046832 2.4166666666666674 253.50000000000003 1.0000000180025095e-35 0.14073503521126765 6.5000000000000009 1.0000000180025095e-35 1.0000000180025095e-35
decision_type=8 8 10 2 10 10 8 2 10 2 10 10 10 2 2 2 2 10 2 2 10 10 2 2 10 8 2 10 2 2 8 8 2 10 2 8 2 8 10 8 8 10 2 10 2 10 2 2 10 8 10 10 2 10 10 10 2 2 10 2 2 2
left_child=1 2 4 7 6 46 12 8 16 56 13 -4 -1 20 23 19 58 22 54 37 -6 36 39 -9 47 -17 -21 -7 33 30 -18 -22 43 34 -28 -20 -8 -10 -39 41 -41 53 -19 59 -14 -46 -3 48 -13 61 -51 -52 -34 -15 -11 -32 57 -5 -2 60 -33 -12
right_child=3 5 11 9 10 27 21 14 15 18 49 24 44 17 -16 25 29 42 35 26 31 -23 -24 -25 -26 -27 28 -29 -30 -31 55 32 52 -35 -36 -37 -38 38 -40 40 -42 -43 -44 -45 45 -47 -48 -49 -50 50 51 -53 -54 -55 -56 -57 -58 -59 -60 -61 -62 -63
leaf_value=-0.019556538194297642 -0.01926040569457101 -0.023914156926405923 0.027236876647448744 0.017156472274921824 0.01099809223838483 -0.018201291307149696 -0.041711047220342218 0.064062115135263192 0.0022654964881317612 -0.011132512219145971 -0.021867107316420154 0.0047056296327864519 -0.0040657820112717158 -0.014327302423250868 -0.022012537114151048 0.015462236872607785 -0.0057041535492365729 0.006651012681137547 0.0089854035217552999 -0.020973589902087319 -0.0060185608356253138 -0.0066766034374072291 -0.0077479861543510989 -0.0093980329605906285 0.01194635736312605 -0.0036183516491744925 0.0062738699903442698 -0.0013966676463246313 0.035087876206251513 0.0055540753621139182 0.0048571621794698911 -0.028726506589709606 -0.058317141895442175 0.020005050239871609 0.026778387579427954 0.026207601169155232 -0.016568055063575057 0.0068438550258846757 0.02500433565725653 0.0028105654938358326 -0.0048215348452560793 -0.005535215618132857 -0.014909834933631547 -0.013037461633843582 -0.017815983769876097 -0.0035480626260279641 -0.04405486277532137 0.00066046834772870704 0.018161444069379435 0.0009630893730199927 0.042110017686122568 0.012166551105987576 0.0037855116859406368 -0.06431897184788872 0.05176461965357522 0.080119698194336397 0.037782248960269875 0.070739200114438239 0.0018108157514393122 0.0071844876554723134 -0.061787599423454576 0.0025992774519771984
leaf_weight=2859.7531402923632 1047.3858832677361 480.59677497693338 1042.9988557407632 672.53360223770142 813.66407724888995 3223.556382718496 984.25653459713794 346.34285675105639 3279.1020848834887 548.5797183830291 225.05571235716343 4187.8939492958598 9711.3436716548167 144.66397451236844 80.469405235722661 666.37645329535007 4056.5588858993724 6230.6724421936087 1319.1629432137124 138.97192543745041 17605.323754449841 411.58646849682555 5965.8532820399851 48.53820587194059 3761.1938164983876 2730.3280733865686 2934.9006434483454 829.10753315035254 494.4409627020359 6645.4093046784401 2024.587332858704 548.3535471521318 37.380288968794048 3588.9819672284648 694.09363961406052 1039.6984183881432 359.97198985982686 1937.415886644274 887.60509973950684 11305.849391826894 4156.9784557579551 1533.6422240086831 332.32113928953186 927.62888693995774 1933.2962810676545 1503.9849560200237 1310.4889529629145 8533.627967028413 999.74181273020804 1322.8737370930612 167.07280459720641 2696.9477706123143 649.4170509618707 87.370524687692523 36.114615727216005 23.736643675714731 1563.4951078221202 58.603638860397041 396.50329247862101 74.888457946479321 147.4514094197657 2362.9492315957323
leaf_count=22405 4297 3873 1947 1136 1989 16134 8685 421 6917 1315 972 12302 46504 859 455 1551 13453 16651 2745 171 69388 2326 25729 228 8948 7242 6374 2511 741 17539 5591 3566 222 6447 1227 1674 1767 3981 1517 38253 16062 5364 1356 3538 11445 6611 14139 28053 2081 4207 267 6424 2442 435 49 27 2283 69 1119 172 1207 6149
internal_value=-3.23815e-12 -0.00303779 -0.00184896 0.00810974 -0.00386084 -0.0220847 -0.0104118 0.00601306 0.00547095 0.0209271 -0.00183119 0.00630701 -0.00844501 -0.00291401 0.04199 0.00959753 0.000426253 -0.000476735 0.011844 0.0119031 -0.00640019 -0.0283438 -0.00218466 0.0550325 0.00505834 0.00012494 0.0156955 -0.0147633 0.0163563 0.00200038 -0.00186797 -0.00710835 -0.0151524 0.0150732 0.0101956 0.0165763 -0.034978 0.00702511 0.0125498 -0.000258203 0.000758775 -0.00916434 0.00555927 -0.021444 -0.00602831 -0.011573 -0.0386506 0.00317023 0.00729878 0.00624994 0.00982161 0.0139133 0.000405453 -0.0331512 -0.00724757 0.00572933 0.0325787 0.0214513 -0.0134741 -0.0315624 -0.0357326 0.000471654
internal_weight=136730 99469.8 93626 37259.9 75100.6 5843.75 17764.2 32021.7 31546.4 5238.19 57336.4 18525.5 16008.4 50561.5 475.35 17352.2 14194.2 29757.4 2943.56 13955.5 20804.1 1755.81 23194.4 394.881 17482.5 3396.7 7851.39 4052.66 7712.42 12750.3 6104.88 19990.4 2385.12 7217.98 3628.99 2358.86 1344.23 6104.12 2825.02 17228.5 15462.8 1765.68 6562.99 1698.32 13148.6 3437.28 1791.09 13721.3 5187.64 6774.9 4186.89 2864.02 686.797 232.034 584.694 2048.32 2294.63 731.137 1443.89 770.693 695.805 2588
internal_count=483552 394983 358326 88569 304995 36657 99743 79298 78194 9271 205252 53331 86965 187233 1104 36168 42026 104709 5783 27375 82524 12778 86702 649 51384 8793 14960 18645 14789 36610 19071 80535 11147 14048 7601 4419 10452 12415 5498 60973 54315 6658 18007 8483 64560 18056 18012 42436 14383 18019 10898 6691 2664 1294 1364 5618 3488 1205 5416 4945 4773 7121
is_linear=0
shrinkage=0.05


Tree=4
num_leaves=63
num_cat=0
split_feature=24 0 9 24 9 4 0 27 24 33 36 27 33 33 7 24 22 33 27 4 31 11 4 7 4 27 30 24 26 36 33 36 36 36 24 6 33 11 36 11 11 11 42 27 23 44 15 36 22 36 36 4 23 0 39 6 6 31 15 22 36 39
split_gain=1192.63 738.275 671.593 646.798 393.672 294.137 238.529 226.415 219.139 209.035 172.978 165.159 151.38 144.413 140.742 137.638 121.827 121.702 120.708 115.447 113.335 112.46 98.7504 97.0695 93.3055 92.9845 90.9312 85.756 78.3879 124.087 90.1342 77.6 77.5376 74.6693 74.3053 72.8713 78.3126 69.1813 68.9491 67.6542 65.3068 63.5839 63.5759 61.8101 61.4881 60.691 59.7065 70.5673 58.231 56.1762 59.9387 55.6614 55.0653 54.5389 53.5066 52.2184 51.2682 52.2583 50.5963 49.7196 49.6414 49.2868
threshold=0.19060969955125237 6.5000000000000009 58.500000000000007 0.092725467516914559 46.500000000000007 5.5000000000000009 7.5000000000000009 0.11005536998585659 0.052676333691371292 5.5000000000000009 8.4372577991572637 0.19414620217018849 6.5000000000000009 3.5000000000000004 0.13900966183574884 0.10784966449962144 0.074133811230585434 1.5000000000000002 0.066755793226381477 88.500000000000014 136.50000000000003 0.83333333333333359 56.500000000000007 0.39208074534161497 13.500000000000002 0.14674840480783502 13.500000000000002 0.055620005155968037 1.0000000180025095e-35 8.0409847557377443 3.5000000000000004 9.4682717122107061 9.9346951402686816 8.8216217002694428 0.19060969955125237 0.43303571428571436 3.5000000000000004 -0.66666666666666674 1.0000000180025095e-35 -0.83333333333333337 -1.0000000180025095e-35 1.166666666666667 0.037749287749287756 0.2288346403575344 154.50000000000003 15.750000000000002 0.47913043478260875 7.6916196411099946 0.29102416570771006 9.325497382943043 6.8323816168201237 45.500000000000007 21.500000000000004 1.5000000000000002 4.5000000000000009 0.22111111111111112 0.30151515151515157 11.500000000000002 0.15075757575757578 0.25728429985855733 11.496971209221766 13.500000000000002
decision_type=8 2 10 10 10 10 2 10 10 8 2 8 8 8 10 10 10 10 10 10 2 10 10 8 10 10 2 10 2 2 10 2 2 2 10 10 8 10 2 8 10 10 2 10 2 2 8 2 8 2 2 10 2 2 2 10 8 2 10 10 2 2
left_child=1 2 3 4 8 -3 11 14 25 -6 15 21 28 40 26 24 22 48 -10 56 55 35 42 60 58 53 -5 38 34 45 32 -25 -31 51 -13 36 -2 -33 -24 -36 -8 46 -4 -21 -38 -30 47 -18 -9 50 -14 61 -20 -1 -41 59 57 -17 -7 -19 -12 -11
right_child=6 5 16 7 9 10 13 17 18 33 23 12 49 -15 -16 19 41 20 52 43 -22 -23 27 31 -26 -27 -28 -29 29 30 -32 37 -34 -35 39 -37 44 -39 -40 54 -42 -43 -44 -45 -46 -47 -48 -49 -50 -51 -52 -53 -54 -55 -56 -57 -58 -59 -60 -61 -62 -63
leaf_value=-0.030390970473622145 -0.005779625320173138 0.031762166187202734 -0.00027473428871582659 -0.018358092882389859 -0.042474469155479158 0.028282587323364555 0.010807704607021304 0.011920076932730802 -0.030206036020814953 -0.0047709118594310819 -0.0027320420898117722 -0.050541239418668053 -0.0033380730363506798 0.040746690604667735 0.014674138973294424 -0.036752598402031787 -0.062229353826008943 -0.014602255250083216 -0.028626610924922486 -0.017399704297057544 0.0025789996595571804 0.018694712333005622 0.059221695001670419 0.01137441624088922 0.00069103115834495818 -0.016941615975035396 -0.0067283733462571637 -0.0052939084958037105 0.079747558017505923 0.052711600095527826 -0.077338193826634927 -0.0073231326718893597 -0.080216546937792232 -0.046865501667176485 -0.0031771143360073122 0.016150101191482791 0.0010640042933885271 0.012043864560122009 -0.02086714504355984 -0.0047045151261844191 0.034281672306799349 0.0090648469150428814 -0.0063593937773943985 0.050810079858888704 0.011700305521384565 -0.0024649185324325433 -0.00065891627790681817 0.0044970363499983821 -0.021184155506421231 -0.0026116797566682042 0.042597877680507171 -0.018473655911201158 -0.0089093771586173931 -0.043752052444115674 0.016562235802233548 0.02042717486677979 0.029374144712752237 0.017338342031163925 0.0096288029406303884 0.0047005152983939482 -0.061437109407688643 0.0079963117472007222
leaf_weight=1397.8335577072576 2248.9159458172508 1124.2750707678497 15401.279435378499 3201.2771060471423 394.57146423961967 522.37343829870224 1213.4464039904997 2605.0348325939849 1272.880444788374 3098.7839146722108 5676.5794844832271 48.448555651586503 77.979341996717267 999.78917349362746 522.95768122840673 46.774110350757837 39.813341302797198 2224.4877769844607 413.14519744599238 269.44287201762199 4792.8403813857585 1464.805087226443 27.349747193045914 3095.4872464495711 3003.2919465219602 654.59970166906714 3538.8004862731323 3321.3661211999133 135.5972163900733 55.623452097177505 29.928178117610514 1426.6622906506527 13.665450156200675 102.26903956243768 639.86502247303724 1047.6603412907571 3461.532134629786 681.31700247526169 1543.4102282775566 326.9494367390871 392.01766493730247 2292.4448499293067 5952.0926871183328 37.882414571940899 2236.816965716891 26.902347896248102 27247.013569945935 8290.387025925098 139.977290391922 91.860923767089844 794.97624165937304 559.14856893988326 2477.6815424887463 1683.7867549377261 3100.7592059005983 132.83748004958034 1496.4520341865718 984.46255584433675 1195.3651752993464 392.45796693302691 36.24068905133754 999.82089453423396
leaf_count=12435 6271 1788 64773 17542 2589 860 2373 6643 11197 12784 14039 187 304 1550 1411 111 212 8363 3018 606 14039 2996 116 5982 6538 4017 14551 15064 128 99 163 4056 128 845 1407 2251 9450 1530 13108 444 608 6233 30369 58 4683 72 89448 28053 471 222 1287 4045 12921 19945 5966 258 2414 1686 2241 1137 241 5226
internal_value=1.02529e-11 -0.00190191 -0.00372956 -0.0098233 -0.0182513 0.00693204 0.0118115 -0.00355442 -0.0252649 -0.00750219 0.00542081 0.00950045 0.0166528 0.0258292 -0.0103133 0.0112364 -0.000820727 0.00121732 -0.0173764 0.0199447 -0.00206341 0.00584724 -0.00343879 0.00139537 0.00600703 -0.034056 -0.012252 -0.00984641 0.0127016 0.039235 -0.00482563 0.00633566 0.0264949 -0.00460325 0.0110145 0.00375506 0.00212106 -0.00106355 -0.0194727 0.0117477 0.0165395 0.000993718 -0.00197079 -0.00899183 0.00523915 0.066137 0.000473649 0.00417812 0.010232 0.0345808 0.0384945 -0.0036753 -0.0117273 -0.0376914 0.0145337 -0.0101551 0.0234629 0.0148849 0.0153015 -0.0117075 -0.00310445 -0.00165645
internal_weight=132724 114317 94720.3 30605.2 13054.5 19596.6 18407.5 17550.7 7899.93 5154.59 18472.3 15802.3 5342.56 2605.25 7263.04 7556.04 64115.2 10287.6 4163.71 2835.01 7542.62 10459.7 26245.5 10916.3 4721.03 3736.22 6740.08 4892.13 4377.74 261.717 99.2171 5203.47 69.2889 4760.02 4116.02 8994.93 7947.27 2107.98 1570.76 4067.57 1605.46 37869.7 21353.4 307.325 5698.35 162.5 35577.2 8330.2 2745.01 964.817 872.956 4657.75 2890.83 3081.62 3427.71 2749.78 2527.69 1031.24 1717.74 2616.95 5712.82 4098.6
internal_count=483552 442963 400813 153437 89022 42150 40589 64415 63533 25489 40362 36058 10407 4531 33504 14514 247376 30911 27136 4875 23797 25651 123430 25848 9639 36397 32093 28288 8594 590 390 11568 227 22900 8004 22655 20404 5586 13224 7817 2981 123946 95142 664 14133 200 117713 28265 7114 1813 1591 22055 15939 32380 6410 9758 4211 1797 3101 9500 14280 18010
is_linear=0
shrinkage=0.05


Tree=5
num_leaves=63
num_cat=0
split_feature=0 24 29 9 24 24 4 36 27 24 3 33 36 10 4 27 27 31 3 27 9 42 24 5 24 27 27 11 40 4 11 42 17 10 27 6 36 9 40 31 23 4 9 19 27 21 15 10 16 11 9 19 20 4 17 26 9 5 0 4 4 5
split_gain=1067.49 689.058 441.496 625.674 347.537 283.132 303.177 135.915 134.556 131.033 128.905 128.069 127.485 121.595 101.861 99.364 98.0039 97.5371 89.4251 89.1805 80.3357 132.364 85.3379 78.5646 85.404 77.9176 75.6883 73.7338 73.1386 72.3892 67.0174 65.6665 61.8844 60.6713 60.1158 58.7604 58.6662 58.5825 58.2685 57.4213 55.8328 55.6489 55.271 55.1815 54.6875 53.4506 53.3871 51.7405 76.214 51.6472 51.0878 53.9431 55.95 55.0562 50.6998 50.0723 50.061 50 49.6203 49.5749 49.5307 49.2962
threshold=6.5000000000000009 0.21623392724310159 0.033473389355742303 48.500000000000007 0.093279535079483292 0.19878907109166893 5.5000000000000009 8.452784625424508 0.13122765762876928 0.08891883797544177 0.31666666666666671 4.5000000000000009 8.81919728647898 3.4166666666666674 75.500000000000014 0.12214824774462181 0.12423301336344815 131.50000000000003 1.0000000180025095e-35 0.16951587765439316 49.500000000000007 0.081666666666666679 0.12279788962520767 2.5000000000000004 0.062427829099307171 0.15191621791733692 0.13642003158132193 -0.66666666666666652 1.0000000180025095e-35 13.500000000000002 1.0000000180025095e-35 0.078461538461538485 0.53850928536922416 4.8333333333333348 0.20023310023310029 0.44949494949494956 8.2859428380873865 82.500000000000014 2.5000000000000004 46.500000000000007 249.50000000000003 18.500000000000004 102.50000000000001 0.088357741310067864 0.12357936200439108 0.20595625184747268 0.10620300751879701 2.1666666666666674 0.10972105591097638 -0.33333333333333309 149.50000000000003 0.22733898754306919 inf 115.50000000000001 0.86565734517010073 1.0000000180025095e-35 102.50000000000001 1.5000000000000002 1.5000000000000002 397.50000000000006 10.500000000000002 7.5000000000000009
decision_type=2 8 10 10 10 8 10 2 8 10 2 8 2 8 10 10 10 2 2 10 10 2 10 2 10 8 10 8 2 10 8 2 8 8 10 10 2 8 2 2 2 10 8 10 8 10 10 10 10 8 10 10 8 10 8 2 10 2 2 10 10 2
left_child=1 2 3 4 13 6 38 9 40 29 17 35 -7 -1 37 18 23 20 28 57 21 22 30 24 27 41 -9 -5 43 -8 -4 44 -31 -13 -14 36 55 -11 -2 -39 -3 -6 -12 58 45 -25 -35 -36 -49 -44 51 52 -28 -53 -29 -10 -47 -19 -15 -22 -32 -51
right_child=5 8 10 16 25 12 7 26 11 14 42 33 34 15 -16 -17 -18 19 -20 -21 59 -23 -24 31 -26 -27 50 54 -30 32 60 -33 -34 46 47 -37 -38 39 -40 -41 -42 -43 49 -45 -46 56 -48 48 -50 61 -52 53 -54 -55 -56 -57 -58 -59 -60 -61 -62 -63
leaf_value=0.016570715192412263 0.035855929105874554 -0.0010562669259053185 -0.023487900071015914 -0.035240604564593513 -0.019435065178012825 0.033695712484286953 0.013097683737664201 -0.0013611438884529982 0.016560515923625101 0.012989338977398414 -0.0008023275911623924 0.033545157621750608 0.0078712176777340336 -0.027662670180844607 -0.0058248716290398243 -0.016786351259084006 0.00024370202371140723 -0.0043082138766403792 0.00044067497993515277 0.0058714745795709839 -0.0016391899627344365 -0.025548906929502724 0.001569515360575306 -0.0013665942240070775 -0.0050115629659334797 0.0017242008598364344 0.0065816198835310065 -0.02619370701628812 -0.050693903454318748 -0.034132911575931589 -0.016534291392028656 -0.010743686609731322 0.00028000518024449077 0.025804130201685389 0.036157598495678338 0.022559246627765289 0.0035654444920688298 0.0078750073224340082 -0.029517598554299501 0.029824921510298585 0.018140106938585081 -0.0069698814811471055 0.0011679051052064331 -0.019676176647408186 -0.033435654333916411 0.018606639666690929 0.0078093788869120556 -0.0024111719423466917 0.044259966438458788 0.01568430509047215 0.035351303431811303 0.023312276848612448 -0.0092727502440537388 -0.027164027025860338 -0.0098698078200036496 0.06666124349867443 -0.018765554168427689 0.00090591611780993671 -0.043528767385890961 -0.037992569821056379 0.0011799701805068671 -0.10165475780965597
leaf_weight=149.30415272223763 1003.1112959608436 2364.2830945639871 815.24734191782773 367.35283988760784 1651.1613748199306 1502.6971611278132 1274.744609022513 6143.6435256390832 257.39406592212617 1685.265563795343 1363.0700803059153 965.1603520642966 1289.3670330191962 932.28797565074638 433.23044877033681 1189.5340153595898 10036.1013601874 6713.99440936069 183.63981967419386 6712.8390478636138 17122.957741567399 965.56961516942829 2342.0443368088454 7624.5216462498065 6950.7131377782207 1270.2174140717834 3174.5076265898533 543.68729487876408 632.65941422036849 140.16876558959484 660.36699190828949 1986.6859251158312 1921.8570265388116 926.17480006057303 469.64689336717129 658.22675155289471 2619.6084614475258 366.71667202189565 35.284488294273615 1588.9787526261061 451.04540043883026 1956.0631896699779 914.07204547501169 695.62713824072853 125.24450050480664 599.71562326652929 742.70594507455826 285.72255442664027 126.07004244998097 2283.3077234709635 154.44880272634327 630.53255616500974 674.74894665926695 59.084219137206674 3801.6655545264948 61.855992287397385 105.34769296646118 14586.917212960776 1045.3180030094227 94.296943383291364 980.55052254907787 8.9861666709184629
leaf_count=886 1710 6927 4590 3367 9565 2478 2417 16011 487 3183 4002 1655 2801 9536 1071 8285 36489 26612 1031 16010 59889 5460 7193 35233 32284 4084 6905 3451 7578 308 4172 10378 4439 1938 770 1183 5848 717 99 2647 1109 9889 2704 6277 613 1931 1514 602 182 5319 284 1181 1790 162 28867 86 363 47104 14078 641 5145 22
internal_value=2.91647e-12 -0.00210888 -0.00333475 -0.00721353 -0.0183392 0.00977821 0.00735497 0.00585954 0.0110911 0.0110776 -0.000413537 0.01519 0.0225005 -0.0278486 0.0170944 -0.0292659 -0.00385384 -0.00113444 -0.0335201 0.000846137 -0.00354875 -0.00865812 -0.0052591 -0.00571422 -0.0085346 -0.00892555 0.00229108 -0.0137307 -0.0354065 0.00373114 -0.0117704 -0.00256379 -0.00205926 0.0235667 0.0147508 0.00905598 0.00603161 0.0198216 0.0336345 0.025709 0.0020192 -0.0126757 0.00763169 -0.0317886 -0.000641701 -0.000148608 0.0177959 0.0248142 0.0118772 0.0112171 0.00707191 0.00610962 0.00380245 0.0189876 -0.0119122 0.0262677 0.0130226 -0.000737565 -0.0360491 -0.00183829 -0.00594892 0.0152243
internal_weight=129417 106458 97411.1 41846.8 9705.81 22959.8 19286.3 18247.9 9046.45 7410.96 55564.2 6231.13 3673.5 4828.37 4074.19 4679.07 32141 50994.8 3489.53 28013.8 22981 5763.78 4798.21 22104.9 11663.4 4877.44 10837 4712.71 3305.89 3336.77 2456.16 10441.5 2062.03 2634.04 2170.81 3597.09 2938.86 3640.96 1038.4 1955.7 2815.33 3607.22 4569.44 2673.23 8454.83 8329.58 1668.88 881.439 411.793 3206.37 4693.32 4538.87 3849.26 689.617 4345.35 319.25 705.063 21300.9 1977.61 17217.3 1640.92 2292.29
internal_count=483552 433795 413048 224185 71209 49757 42924 41115 20747 14782 188863 12711 6833 47671 7618 46785 152976 176816 38500 89726 87090 26560 21100 116487 67969 23538 26333 35685 37469 7164 13907 48518 4747 5107 4355 7604 6421 6547 1809 3364 8036 19454 12047 29891 38140 37527 3452 1554 784 8045 10322 10038 8695 1343 32318 573 2294 73716 23614 60530 9317 5341
is_linear=0
shrinkage=0.05


Tree=6
num_leaves=63
num_cat=0
split_feature=19 1 24 24 4 1 36 27 5 4 3 4 4 27 25 6 33 23 3 3 6 24 42 36 25 5 11 31 22 24 6 33 36 24 17 42 40 42 23 25 30 6 4 3 4 11 27 11 28 22 42 36 28 27 30 19 6 27 28 30 6 28
split_gain=975.234 463.163 335.926 285.387 172.9 171.596 164.942 162.876 159.61 156.435 144.844 162.618 141 125.245 107.481 94.9324 94.6371 90.0307 87.3182 86.791 82.7142 82.0832 79.8504 78.0749 75.9655 73.3798 68.4268 66.1891 64.93 61.8248 61.4573 59.3161 59.0266 57.5677 68.1145 56.5209 55.5242 55.3915 53.4728 53.419 51.2012 60.7337 50.0374 48.7836 59.0624 48.7301 48.568 48.2506 48.0471 47.5831 47.5718 46.5072 46.4819 45.6261 45.3137 44.7022 44.5183 44.17 43.8321 46.0694 43.7083 45.9144
threshold=0.16005249343832026 1.0000000180025095e-35 0.22373693722008331 0.031320067264574002 5.5000000000000009 1.0000000180025095e-35 9.1851097353789815 0.16951587765439316 1.5000000000000002 286.50000000000006 0.41428571428571431 61.500000000000007 7.5000000000000009 0.063510737628384703 266.50000000000006 0.32037735849056609 3.5000000000000004 3.5000000000000004 0.15476190476190479 0.5277777777777779 inf 0.15191308590946931 0.10263157894736843 9.4769639083255939 36.500000000000007 2.5000000000000004 -0.33333333333333331 342.50000000000006 inf 0.078985178463399891 0.46862745098039221 4.5000000000000009 8.3175366296415856 0.17925357296813346 1.4348371045416448 0.16333333333333336 1.0000000180025095e-35 0.26969696969696971 483.50000000000006 536.50000000000011 7.5000000000000009 0.33974358974358981 333.50000000000006 0.64583333333333337 33.500000000000007 -1.0000000180025095e-35 0.14674840480783502 -1.333333333333333 0.074350469872857941 0.11726266496381439 0.19523809523809527 8.2097010780199735 0.60555555555555574 0.069017293155224202 15.500000000000002 0.078142959770114956 0.37171052631578955 0.043036476822554931 0.52506265664160412 164.50000000000003 0.68333333333333346 0.26365441906653431
decision_type=8 10 8 10 10 10 2 8 2 8 2 10 10 10 2 8 8 2 2 2 8 10 2 2 2 2 8 2 8 8 10 8 2 10 8 2 2 2 2 2 2 8 8 2 10 8 10 8 8 8 2 2 8 10 2 10 10 8 10 2 8 8
left_child=1 3 5 8 32 14 12 24 20 13 11 29 51 25 17 39 19 -2 49 -9 -1 36 27 -20 -4 26 -5 45 60 -6 -8 -26 -3 -16 42 54 -11 38 56 58 41 -28 -35 44 -17 -15 -36 -10 -47 -18 -51 -7 -44 -33 -12 -29 -31 -32 59 -14 61 -24
right_child=2 4 7 9 10 6 30 16 47 21 35 -13 15 22 33 43 18 -19 23 -21 -22 -23 28 -25 31 -27 40 55 -30 37 57 53 -34 34 46 -37 -38 -39 -40 -41 -42 -43 52 -45 -46 48 -48 -49 -50 50 -52 -53 -54 -55 -56 -57 -58 -59 -60 -61 -62 -63
leaf_value=-0.019043196623532946 -0.032470475580671079 0.026203703919746881 -0.016169859615429397 -0.030010240253998999 -0.001989337263310353 0.041046096616741301 -0.0043088016186134869 0.0076421651643181418 -0.058011648064187772 -0.014420596611712517 0.0079982986590189879 -0.0093565211851744847 0.0013386591675290009 -0.0072207298014637308 0.0012993926077799526 0.016495293076248013 -0.024190914689990937 -0.0033725898419505471 0.041473517090530987 0.03094898259995171 -0.03969071800597012 -0.0011576108050899256 -0.0086873345535845633 -0.044702205508292216 0.0046386338443366029 -0.0035842713910811661 -0.010500536766593377 -0.0070920063931572746 -0.051255290768141427 0.0030686873392505964 -0.05240261632766352 -0.0041996253956752662 0.0079743321986571521 0.028369724535291515 -0.013891385664550041 0.004631308139262367 -0.031187838926289659 -0.0075375958058154988 -0.011540252194384017 0.016754718609828054 -0.0053924598072765577 -0.027252075550529088 -0.019701756727192484 0.028558602034307108 0.004801290321185695 -0.0040423801465670995 0.009878673405213239 -0.0098410361735708756 0.00081875733343448991 0.023767157886884525 -0.020685884987892478 0.019127144910845453 0.041460541306164417 0.019905079385811 0.02473299274835259 0.010531535794703511 0.010223263866396654 0.0094023259321867822 0.026185218008654611 -0.06638932642728175 -0.017045967254501675 0.0041636154242517326
leaf_weight=1184.2898301240057 277.05518271704204 849.99670401262119 303.53654046822339 499.76778301759623 10187.462642381666 439.02556237205863 3168.8994953236543 1630.5674664804246 52.627004372887313 2593.8308403298724 756.83207205869257 4391.5168225406669 4019.2961650439538 3609.5108578472864 4268.2843554792926 2954.4537750333548 57.300585895776749 6562.5704868335743 971.10632943827659 529.03410648740828 821.51292342785746 992.77403556229547 2314.1217303653248 27.014551546424627 2391.9209185275249 4183.3217594353482 1809.7071507889777 448.02422373834997 86.639527888502926 11392.105012431508 29.511662105098367 225.59672460891306 929.83513823896646 676.97421934083104 293.4684179238975 2185.3773473175243 609.82189437141642 1154.2263046042062 544.11347212269902 716.28129194304347 2426.0715929474682 771.85289658326656 113.76391370967031 506.67082945629954 1701.6483699320816 7994.9073098287918 802.64731224812567 4261.7169631937286 13956.815729304682 1638.0345549312187 62.480391405522823 539.25452796369791 42.73226248845458 1512.3762322356924 868.95972153544426 1827.6170686772093 2687.1082760526333 1413.7904363851994 179.21034038066864 25.266081538051367 939.93158526020125 993.43580513633788
leaf_count=12353 2596 1664 1167 4000 36701 735 10011 3543 590 17783 2002 19058 10493 15708 12935 5953 148 24642 1621 929 11011 3582 10112 95 5750 21488 12820 1836 603 33310 129 638 2350 1324 1020 5851 5095 3904 1757 1510 13790 6969 371 910 4133 33280 1740 29426 50256 3291 146 1041 82 3040 1871 4938 6869 3422 338 70 4875 3877
internal_value=-4.32909e-12 -0.00288366 0.00668864 -0.00588319 0.00148687 0.00400977 0.00753176 0.0149212 -0.0158464 -0.00451602 0.000695435 -0.000458059 0.0108388 -0.00359342 -0.000229681 0.00908373 0.0211888 -0.00455127 0.0273302 0.0133516 -0.0274998 -0.0137195 -0.00209239 0.0391411 0.00797208 -0.00857648 -0.0123685 -0.00110947 -0.00840539 0.00104696 -0.000413627 0.00974645 0.0166802 0.00453938 0.0117063 0.00988319 -0.0176123 0.00300747 0.0038398 0.00412887 -0.0106078 -0.015509 0.0224794 0.0138248 0.0122215 -0.00183694 0.0035146 -0.0104286 -0.000951689 0.0206238 0.0221339 0.0289638 -0.00300101 0.0167762 0.0169427 0.00706184 0.00443418 0.00813858 0.00198773 0.000915567 -0.00753135 -0.00482751
internal_weight=126406 88325.8 38079.8 52378.3 35947.5 28730.8 15693.3 9348.97 6320.15 46058.2 34167.7 30356.5 11081.1 41861.7 13037.5 10102.8 4915.54 6839.63 2755.94 2159.6 2005.8 4196.43 32171 998.121 4433.43 9690.72 5507.4 27836.9 4334.13 25965 4612.2 4129.89 1779.83 6197.87 1929.59 3811.17 3203.65 15777.6 14623.3 4940.05 5007.63 2581.56 833.47 5162.77 4656.1 25561.2 1096.12 4314.34 21951.7 1757.82 1700.51 978.28 156.496 1737.97 1625.79 2275.64 14079.2 1443.3 4223.77 4044.56 4247.49 3307.56
internal_count=483552 379729 103823 264392 115337 83455 38745 20368 53380 211012 111323 101599 25183 184552 44710 23407 9773 27238 5301 4472 23364 26460 125485 1716 10595 59067 37579 106018 19467 82541 13562 9428 4014 17472 4537 9724 22878 45840 41936 12411 33579 19789 1777 10996 10086 99244 2760 30016 83536 3585 3437 1776 453 3678 3873 6774 40179 3551 10901 10563 18864 13989
is_linear=0
shrinkage=0.05


Tree=7
num_leaves=63
num_cat=0
split_feature=0 24 7 24 4 24 36 27 21 33 4 36 24 44 22 25 31 19 37 7 4 10 3 27 24 33 36 3 42 10 25 4 25 27 27 24 10 27 33 44 36 14 25 10 3 36 6 44 7 36 4 25 24 6 10 16 20 21 17 30 31 10
split_gain=1001.22 619.614 419.399 383.956 283.549 242.865 178.928 163.098 158.014 138.155 121.204 111.9 116.859 108.878 104.12 96.1896 95.8256 93.3745 90.9268 89.0917 87.5762 82.5098 80.1569 79.9615 77.5275 66.1658 64.1718 63.2912 62.7638 67.2483 68.6804 65.5608 61.1874 59.729 59.3161 59.3105 58.3859 57.6655 55.9502 54.5222 69.0428 95.5655 66.1619 55.6485 54.4702 54.2759 52.7758 52.7312 61.8506 51.9207 58.693 49.3176 48.7928 51.676 47.324 45.861 45.2442 45.1213 44.4311 44.4222 42.6159 42.2839
threshold=6.5000000000000009 0.1705516916612331 inf 0.080430890082596906 5.5000000000000009 0.15512178912420116 8.9584139686644217 0.13797004212825717 0.031498015873015879 3.5000000000000004 203.50000000000003 8.7784829873584691 0.071523304281924979 21.250000000000004 0.14306180925092102 354.50000000000006 52.500000000000007 0.058902381327866273 1.0000000180025095e-35 0.44636015325670503 5.5000000000000009 1.1666666666666667 0.78888888888888908 0.094367451438748834 0.036657940663176271 3.5000000000000004 9.2269270248440005 0.15476190476190479 0.19523809523809527 2.8333333333333335 511.50000000000006 23.500000000000004 52.500000000000007 0.20023310023310029 0.1780203871172458 0.095900071487914698 2.8333333333333335 0.055145262014661967 2.5000000000000004 13.750000000000002 7.8597216456362551 3.5000000000000004 69.500000000000014 5.8333333333333348 0.11805555555555557 9.3793945190016359 0.41421568627450983 12.250000000000002 0.21244358478401035 11.039980964830491 16.500000000000004 208.50000000000003 0.08943816629579536 0.15184453227931491 4.8333333333333348 0.31009615384615391 0.098199935711989719 0.40129870129870138 1.5081776733029304 231.50000000000003 14.500000000000002 4.8333333333333348
decision_type=2 8 8 10 10 8 2 8 10 8 10 2 10 2 10 2 2 10 2 10 10 8 2 10 10 10 2 2 2 10 2 10 2 10 10 10 10 10 10 2 2 10 2 8 2 2 10 2 10 2 10 2 10 10 10 8 8 10 10 2 2 10
left_child=1 2 8 13 26 10 19 32 16 46 11 12 -6 17 27 39 24 -4 20 56 -10 22 -8 36 -1 45 -2 51 29 30 -18 38 -3 -23 44 -30 -22 -33 -31 40 41 -11 -41 55 -16 -17 -9 48 57 50 -34 -5 53 60 -36 -42 -7 -14 -49 -55 -25 -46
right_child=4 7 3 14 5 6 21 9 18 15 -12 -13 47 -15 34 25 28 -19 -20 -21 23 33 -24 52 -26 -27 -28 -29 35 31 -32 37 49 -35 54 -37 -38 -39 -40 42 43 -43 -44 -45 61 -47 -48 58 -50 -51 -52 -53 -54 59 -56 -57 -58 -59 -60 -61 -62 -63
leaf_value=-0.018596854383209901 0.04038110985704188 -0.01104086585723054 -0.042372594291292108 -0.020970000370809174 0.0020590140501740551 0.0024525544522537735 0.016429697741868633 -0.0010587370373698782 0.0083009366135959675 0.049267296422296367 -0.017684507916793553 0.00017554937138701627 0.002271968653814062 -0.010321207239170975 -0.0075777941502117351 0.033403050363963412 0.0024420633256765655 -0.023363995631397974 0.015162615832782861 0.03609193435295055 -4.0958585507986323e-05 -0.00038644399744030232 0.060725730717991089 -0.027628139928824375 -0.0071811846668983466 0.015579837993109476 -0.00019694036310242489 0.0015193992158020941 -0.028548976341697375 -0.030800598240839801 -0.021967096227847774 -0.024919789377928329 -0.0040900102099927617 0.015877856688973888 0.014832475893860622 -0.0029651028464339033 -0.0064728491587377384 -0.0078411574245483891 -0.0011284371099610079 -0.018869639212694862 0.017115589837399001 -0.033233126744077135 0.0079093314952579843 -0.0023815330479011214 0.016446702652992081 -0.0047075280218304193 0.012903617364417683 0.02015347666887797 0.015617335775291917 -0.033630419536205297 0.0066305759747843033 -0.009733105818142157 0.0013998741665080347 0.0017394698874737596 -0.02368704693249293 -0.039557434892072807 0.022753370181312002 -0.0646990956806653 -0.065944197565811352 0.046807842448968559 -0.0046959033979301909 -0.044463296735501145
leaf_weight=2128.2346065029269 881.30273531936109 976.08823443762958 1139.8760769210057 1521.4743487555534 3317.3922706535086 353.88795858249068 643.47210267744958 2659.9941508906195 2368.8138691615313 227.40903386217542 567.4128971141763 5298.0191918294877 1175.3107074592263 779.27378407679498 1945.1038631745614 1059.9803036581725 5708.7334252691362 1491.2645349272061 878.39430306758732 1244.5050885844976 5218.6349838352762 1776.5990762570873 121.39714162796736 209.3001491012983 4938.3879055920988 2472.0190882068127 109.54243594035506 806.63750273734331 480.64743686665315 163.44335585343651 303.50320852501318 566.05627528531477 1906.0491910045967 827.37380326725543 812.1856409534812 428.49269038485363 10893.480880085845 3896.4460317683406 5678.4067068125587 348.19187620899174 1259.0230171196163 41.508848724886775 683.28168899239972 654.08581452164799 398.85361215053126 102.45330417342484 907.76144579797983 2340.087708029896 1724.6500439457595 97.892469495534897 3866.636801849585 2725.8193094395101 19878.408676567953 2819.9839174891822 88.417433170601726 36.738576354924589 1222.8069480564445 25.700481209903955 15.081143964082001 55.757070473395288 6319.5944100369234 30.685034109279513
leaf_count=18718 1656 4126 14964 10112 7808 757 1371 6840 6182 365 2130 14509 2587 5509 8644 1945 32583 12979 2347 2190 25242 4383 177 1039 26139 5076 271 2886 3020 1120 1236 4814 6018 1658 2100 1779 51131 20547 26225 1156 2636 127 1523 1662 1156 255 1848 4415 3417 679 10835 12727 60509 9010 293 133 2290 83 55 113 25332 115
internal_value=-8.66961e-13 -0.00207312 -0.00383478 -0.0126058 0.00976702 0.00851355 0.0168015 0.00654974 -0.002423 0.010479 0.00496655 0.00589144 0.00941344 -0.0267371 -0.00681966 0.0146171 -0.00571624 -0.031599 -0.000778331 0.0260908 -0.00107149 0.00902219 0.0234602 -0.00156056 -0.0106192 0.020206 0.035895 -0.01132 -0.00370487 -0.00299245 0.00120987 -0.00544435 0.000551107 0.0047813 0.000124647 -0.0164909 -0.00438959 -0.0100075 -0.00195861 0.00836748 0.0127829 0.0365329 -0.00113038 0.00950736 -0.00401919 0.0300441 0.00249377 0.0140335 0.00955063 0.00247848 0.00309081 -0.0137584 -3.97372e-06 -0.00297126 0.0110508 0.0155087 0.0181969 0.000838852 0.0196022 0.00261329 -0.00543105 0.0120955
internal_weight=123618 101973 84674.3 11739.6 21644.5 20653.7 6190.04 17299.1 72934.7 10452.4 14463.7 13896.2 8598.22 3410.41 8329.18 6884.69 24292.4 2631.14 48642.4 2821.2 47764 3368.84 764.869 45395.2 7066.62 3634.45 990.845 5053.93 17225.7 16316.6 6012.24 10304.4 6846.67 2603.97 3275.25 909.14 16112.1 4462.5 5841.85 3250.24 2218.77 268.918 1031.47 1949.85 2374.64 1162.43 3567.76 5280.83 2925.66 5870.58 5772.69 4247.29 29283 9404.64 900.603 1295.76 1576.69 1201.01 2355.17 2875.74 6528.89 429.539
internal_count=483552 433795 388571 71485 49757 47830 12826 45224 317086 23566 35004 32874 18365 33452 38033 14878 136181 27943 180905 5237 178558 7589 1548 172376 44857 7276 1927 25725 91324 86525 33819 52706 21658 6041 12308 4799 76373 25361 27345 7602 4923 492 2679 4431 9915 2200 8688 10557 6087 17532 16853 22839 96003 35494 2393 2769 3047 2670 4470 9123 26371 1271
is_linear=0
shrinkage=0.05


Tree=8
num_leaves=63
num_cat=0
split_feature=0 22 9 27 4 27 7 25 26 31 19 25 28 33 42 9 25 33 19 10 27 37 6 0 3 4 5 25 33 19 0 31 22 27 21 33 21 21 4 5 9 31 42 42 9 33 14 31 10 31 14 25 25 19 14 25 3 22 42 9 30 10
split_gain=940.879 497.302 415.725 297.2 284.694 242.527 190.623 180.912 176.938 111.511 110.532 108.282 106.673 88.9455 82.9128 82.1466 86.6577 81.5647 115.932 80.511 80.0635 77.5601 74.4342 70.8856 67.3155 66.8441 64.3934 59.4182 58.2638 57.9718 56.1925 55.1081 50.6006 49.7874 48.8926 47.2599 47.2563 45.5682 45.2226 48.4455 45.0577 44.9442 44.0906 42.1529 41.4315 44.2442 41.344 40.9433 40.4678 39.9909 39.6533 39.2656 39.1536 47.0392 39.1441 79.0695 46.4263 39.1194 38.222 38.083 38.0068 37.9448
threshold=6.5000000000000009 0.10012224938875307 49.500000000000007 0.12038585408150627 5.5000000000000009 0.16951587765439316 0.65476190476190488 129.50000000000003 1.0000000180025095e-35 113.50000000000001 0.16976804569845944 131.50000000000003 0.30495169082125612 1.0000000180025095e-35 0.18469785575048733 47.500000000000007 141.50000000000003 3.5000000000000004 0.1489601844291821 3.8333333333333335 0.20280705210282676 1.0000000180025095e-35 0.27842377260981915 1.5000000000000002 0.5277777777777779 228.50000000000003 1.5000000000000002 331.50000000000006 2.5000000000000004 0.085129610703335509 1.5000000000000002 36.500000000000007 0.14306180925092102 0.066755793226381477 0.19576423128641868 5.5000000000000009 0.24152298850574716 0.17868968779564809 8.5000000000000018 4.5000000000000009 134.50000000000003 18.500000000000004 0.44097222222222227 0.12771739130434787 106.50000000000001 4.5000000000000009 18.500000000000004 9.5000000000000018 3.8333333333333335 106.50000000000001 3.5000000000000004 374.50000000000006 211.50000000000003 0.199780701754386 8.5000000000000018 596.50000000000011 0.5634920634920636 1.0000000180025095e-35 0.26969696969696971 119.50000000000001 136.50000000000003 1.5833333333333337
decision_type=2 10 10 8 10 10 10 2 2 2 10 2 10 10 2 10 2 10 8 8 8 2 8 2 2 10 2 2 8 8 2 2 8 8 8 8 10 10 10 2 8 2 2 2 10 10 10 2 8 2 10 2 2 10 8 2 2 8 2 10 2 8
left_child=1 2 3 7 28 9 12 19 11 15 24 -5 17 27 29 16 49 -6 25 -1 61 36 42 35 -11 38 31 47 -2 32 -9 44 -8 -18 40 -21 54 -33 -19 -40 -29 -41 -20 51 45 -4 52 -7 -22 -3 -43 60 -17 -54 -15 59 -57 -46 -49 -56 -12 -16
right_child=4 5 26 8 6 13 14 30 -10 10 43 -13 -14 21 20 46 33 18 22 23 48 -23 -24 -25 -26 -27 -28 34 -30 -31 -32 37 -34 -35 -36 -37 -38 -39 39 41 -42 50 -44 -45 57 -47 -48 58 -50 -51 -52 -53 53 -55 55 56 -58 -59 -60 -61 -62 -63
leaf_value=0.005100063970027803 -0.0072723078915655388 -0.020618862088790872 -0.02617438954562858 -0.016989547275247967 0.00052030805764922267 -0.04801916517777291 0.017775725578483434 -0.004132698527042942 0.029804341163118059 -0.001057094717882848 0.0056866652128510636 0.00018964785759834502 0.016379075373816911 0.0062371152582151859 0.026564282801469663 0.0010853219362661106 -0.016172881076731593 0.0163905102236915 0.0084280911234763008 -0.038243430205989581 0.039820041646356968 0.027666577394308167 0.023422032253602773 -0.037619239964812062 0.03463140228112159 -0.037011482403334781 -0.0017748613627382914 -0.0051524078738481426 0.040212222201430003 0.029042475171551341 -0.017356203025469381 -0.0057863323072190193 -0.038595750130443668 -0.0018219612662815435 0.029663053117066532 -0.017454452400837865 0.0098069537611956414 0.0053309512771399633 0.004369348893118013 -0.081066164571279867 0.020498877669267973 0.0065542981333033424 -0.054936602424246028 -0.0012489797389432264 0.0032657475880993716 -0.0097678422503624032 -0.079913472456857843 0.0083943511761371391 0.014363766104382669 -0.065206117220603516 -0.020459116133796296 0.013816343217823429 -0.0067214076721750825 0.0054780559973244243 -0.0076964839717876534 0.0079060143923848011 0.05411340779885148 -0.01604026981811859 -0.067006616436990588 0.0034249012059288362 -0.048734691672040642 0.0018586287101906686
leaf_weight=164.82696923380718 69.845022521913052 952.93173249834217 779.58969584084116 1558.0231624585576 6912.7147672853898 36.641048684716225 120.43864166736603 1231.60757802031 360.02374494669493 16322.069839630858 2900.6565104434267 2230.3283545882441 2140.455677847378 4053.7237826883793 177.38488111458719 5754.7388974450296 850.17478097463027 631.23528648912907 1217.4422807265073 364.20723260985687 294.9610136244446 369.05289280228317 1546.770061224699 1719.3953053094447 133.20742232259363 101.57104194816202 25043.656017562374 253.72384987957776 860.29267122782767 1640.2456212099642 2310.6369480451103 6971.9836225057952 59.462870512157679 2090.3082643952221 815.83876478113234 1096.2244279645383 3024.9325651684776 1062.1530012283474 3111.2884965091944 22.276960872113705 526.31526409834623 241.72617276757956 28.086467623710632 1266.5491776980925 619.68765649059787 868.95215050480329 16.98028577491641 616.9350012820214 331.67219576053321 53.091668546199799 310.16079992428422 2294.9991428581998 4855.3594551379792 943.75269952882081 2497.2538585737348 1322.7015230786055 56.69007258489728 455.08190113026649 17.278091629967093 1112.7507844609208 32.44087466225028 1254.9714611209929
leaf_count=1006 178 6825 6473 10575 18922 203 284 7534 902 59791 8551 8891 4434 10231 368 22969 4791 1267 2638 3653 536 675 3028 21132 283 473 110451 648 1749 3211 15994 40063 181 8192 1659 10859 7044 4198 7222 76 1130 520 56 4152 3167 5556 232 1806 681 434 809 5579 18466 2612 7998 3307 95 2445 80 3035 108 3124
internal_value=1.53625e-11 -0.00202324 -0.00577997 -0.0142647 0.0096018 0.00128592 0.00835296 -0.0206331 -0.00369226 -0.000801845 0.00141176 -0.00687558 0.00597746 0.00674781 0.0183125 -0.00407574 -0.0103049 0.00440104 0.00812147 -0.0289729 0.0114396 0.00508762 0.0160965 -0.0307391 -0.000768192 0.00308133 -0.00316465 0.0158569 0.0366466 0.0260873 -0.0127585 -0.00640011 -0.000856746 -0.00597121 0.0211055 -0.0226389 0.00439714 -0.00431657 0.00402471 0.00190672 0.0121553 -0.0114378 0.00699923 0.00693505 -0.0125468 -0.0175264 -0.00195112 0.00337115 0.0263462 -0.0229719 -0.00862726 0.00891769 -0.00183655 -0.00473606 0.00258755 -0.000377605 0.00980504 -0.00490886 0.00634018 -0.00426842 0.00508475 0.00491821
internal_weight=121080 100007 46836.4 11035.3 21073 53171.1 20142.9 6886.9 4148.38 38467.3 22949.9 3788.35 16263.7 14703.8 3879.14 15517.3 3946.51 14123.3 7210.56 3344.65 2058.99 12437.1 2792.3 3179.83 16455.3 4418.26 35801.1 2266.73 930.138 1820.15 3542.24 10757.4 179.902 2940.48 1595.88 1460.43 12068.1 8034.14 4316.69 3685.45 780.039 574.164 1245.53 6494.65 2723.31 1648.54 11570.8 670.854 626.633 1006.02 551.887 5228.1 11553.9 5799.11 9043.12 4989.4 1379.39 1074.77 634.213 3610 2933.1 1432.36
internal_count=483552 433795 252899 80546 49757 180896 47830 60178 20368 142985 78464 19466 39445 37911 8385 64521 20242 35011 16089 36650 4709 32385 5722 35644 60074 10367 172353 5526 1927 3676 23528 61902 465 12983 3437 14512 31710 44261 9894 8627 1778 1405 2694 18390 17641 12029 44279 2089 1217 7259 1329 14238 44047 21078 24666 14435 3402 5612 1886 11033 8659 3492
is_linear=0
shrinkage=0.05


Tree=9
num_leaves=63
num_cat=0
split_feature=0 24 9 24 4 24 33 10 24 28 36 42 30 10 6 3 19 0 24 4 3 20 3 6 28 29 36 10 36 10 33 19 4 42 19 30 15 4 10 4 20 30 4 36 16 16 29 4 3 4 4 21 20 0 29 4 48 24 19 44 9 47
split_gain=880.704 628.473 507.951 451.875 293.598 224.94 212.98 159.533 147.392 99.7272 98.5371 97.2661 90.4519 88.127 86.4082 82.8477 74.2693 73.808 74.6394 106.169 72.8346 71.4228 70.9177 63.0746 62.8624 61.7313 61.0894 60.5772 57.1332 53.2171 53.3967 61.5758 51.1712 50.8748 50.0046 49.3003 48.7276 49.0391 51.0503 42.9986 42.513 42.2158 41.6227 41.2908 40.667 44.0513 40.4858 41.0958 40.2082 41.9704 39.5608 39.1296 38.94 38.1957 38.1007 37.7133 49.5992 63.6061 47.2221 37.591 46.0406 90.3781
threshold=6.5000000000000009 0.14709017935532423 46.500000000000007 0.060988894202667523 5.5000000000000009 0.1073502487897474 3.5000000000000004 3.5833333333333335 0.22373693722008331 0.13359580052493442 9.2151716989553538 0.060661764705882359 4.5000000000000009 1.4166666666666667 0.36515151515151517 1.0000000180025095e-35 0.086654632972322523 2.5000000000000004 0.083278291501541188 36.500000000000007 0.5634920634920636 0.028991596638655467 0.47222222222222227 0.04210992907801419 0.12440476190476192 0.15799148606811148 9.2269270248440005 3.4166666666666674 8.5403327558591631 3.8333333333333335 4.5000000000000009 0.038554440728353782 28.500000000000004 0.11651583710407241 0.08957898678649763 153.50000000000003 0.92153846153846175 6.5000000000000009 2.8333333333333335 111.50000000000001 0.28496240601503764 165.50000000000003 38.500000000000007 8.2295134660943656 0.1236120795859038 0.12061726408145181 0.10261284976113876 2.5000000000000004 0.31666666666666671 230.50000000000003 481.50000000000006 0.11772763900080581 0.27207792207792209 1.5000000000000002 0.23543552036199097 13.500000000000002 10.500000000000002 0.1935787048265826 0.11608524988942946 8.2500000000000018 61.500000000000007 30.500000000000004
decision_type=2 8 10 10 10 8 8 8 8 10 2 2 2 8 8 2 8 2 10 10 2 10 2 8 8 10 2 8 2 8 8 10 10 2 10 2 10 10 10 10 10 2 10 2 8 10 8 10 2 10 10 8 10 2 8 10 2 10 10 2 10 2
left_child=1 2 3 15 26 21 20 -5 9 25 13 12 -9 -10 28 29 -15 18 19 59 -7 50 34 -20 -18 -3 -2 -22 -8 -1 -31 -32 54 -21 -13 55 37 -25 -39 -35 52 -26 43 44 45 -23 47 -19 49 51 -6 -12 -14 -33 -16 56 57 58 -11 -4 61 -61
right_child=4 8 17 7 5 6 14 11 10 35 48 22 40 16 32 -17 24 46 23 33 27 42 -24 36 41 -27 -28 -29 -30 30 31 53 -34 39 -36 -37 -38 38 -40 -41 -42 -43 -44 -45 -46 -47 -48 -49 -50 -51 -52 -53 -54 -55 -56 -57 -58 -59 -60 60 -62 -63
leaf_value=0.00098747784506580862 0.04248632280941235 -0.0034842216121514602 -0.00073289400276314973 0.011602083618380506 -0.002207545200424058 0.0022278346641690923 0.018202592979635789 -0.015125859951413675 0.040118655783338814 -0.026419054128561617 0.024218429469055641 -0.0350446540698999 -0.0051151954362909074 -0.021144130552293628 0.023922419180829296 0.0018889035897694973 0.0056557429377060786 0.039888613871010649 0.0016629677544237071 -0.0092193618627128826 0.025499807480867137 0.010402119063130412 0.010938371218524111 0.010565880936619759 0.016841142414256723 0.0038391194101428834 0.0016774620852180709 0.0054303494918680429 0.0017732000968892559 -0.045666861445298107 -0.037830043756826547 -0.013329371902653929 0.017934198055483519 -0.014736064579432748 -0.016941662604247589 0.01843550673480426 -0.012209963901374679 0.0015780800746550681 -0.0058386578262193851 -0.042482609463333078 0.0071791308093248187 0.057594427839182498 -0.0064097420736867229 0.004258510642368909 0.025168947707018559 -0.048510546621510262 0.0049186957863227975 -0.0041691154047471899 0.0094526530149066507 -0.047527210287215668 -0.074531060066792554 -0.0069889884556600199 -0.058058824516808605 -0.028824593556339463 0.038408040601691298 0.0079076518972899888 0.021186146878058216 -0.027774358974210173 0.0062775521192896715 -0.0091962286412366461 -0.0037607735263678528 -0.050820625962189052
leaf_weight=133.69630292104557 775.23869969509542 6678.2621061040554 9335.0750385799911 983.76672209112439 4189.8271071005147 3903.4743837355636 1484.4311765562743 2522.7897905791178 309.24317578691989 132.7924295598641 113.76223352691159 509.8503082327079 5697.3855110742152 157.72687286091968 994.70223700813949 218.10445882147178 1630.2217726800591 54.236699216067791 12313.146898291772 4780.5051878693048 730.82189511600882 934.52359781600535 183.78128792252392 695.4550546403043 3278.4701872364385 5056.2550302734599 104.00956532731652 774.40496079064906 822.27729060873389 532.46293224894907 1039.9121044710046 690.3704735126812 1440.413637724705 395.14637526846491 1514.8208859544247 878.07615943066776 1394.1412413860671 3629.8203768443782 6430.2530190390535 215.93115362431854 755.65633026277646 64.802313771098852 550.18544851010665 2482.7935420228168 577.5231864862144 32.846098311245441 5214.8532393919304 2195.028911464382 748.5350802806206 56.873337348923087 18.993719638325274 858.0757826087065 34.943267287686467 938.1372219834011 834.99803076311946 4278.1370528396219 194.71374055184424 259.33661160990596 655.68960618041456 1334.9643178372644 9220.6855692908866 144.52740929671563
leaf_count=973 1656 25250 43087 3314 12064 9823 3093 17149 541 522 344 4664 26599 877 2031 1266 4115 102 45838 34302 1493 2026 492 1868 7451 13904 271 1896 1935 6857 15676 6152 3148 2493 9350 1909 5245 14136 23945 1960 2767 105 1609 5819 1125 82 16323 9063 1895 231 148 2724 153 10751 1538 11221 536 815 1782 7154 46556 1338
internal_value=-2.11657e-12 -0.00196903 -0.00432133 -0.012273 0.00938778 0.00813059 0.0129002 -0.00770414 0.00481475 0.00240944 0.0108577 -0.00939702 -0.00709222 0.0141968 0.0197563 -0.0279663 0.0126345 -0.00213693 -0.00283072 -0.00472767 0.00583086 0.00216747 -0.0188009 -0.000859012 0.0137058 -0.000328687 0.0376589 0.0151745 0.012346 -0.0299191 -0.03121 -0.0283252 0.0249835 -0.0109559 -0.0215003 0.00743083 -0.00341493 -0.0022749 -0.00316259 -0.0245406 -0.00396842 0.0176311 0.00648986 0.00825196 0.0146698 0.0084018 0.00250028 -0.00310675 0.000636193 -0.00577905 -0.00253393 -0.00333588 -0.00543793 -0.0222557 0.030533 0.00568051 -0.00198771 -0.00629406 0.000770944 -0.00305163 -0.00507454 -0.0132624
internal_weight=119112 98460.4 73109.4 15755.7 20651.5 19772.2 10985.5 12203 25351 18133.3 7217.71 11219.2 9010.77 5440.46 5576.82 3552.68 5131.22 57353.8 49889.7 25426.8 5408.7 8786.69 2208.45 24462.8 4973.49 11734.5 879.248 1505.23 2306.71 3334.58 3200.88 2668.42 3270.11 5391.58 2024.67 6398.75 12149.7 10755.5 10060.1 611.078 6487.99 3343.27 4577.87 4027.69 1544.89 967.37 7464.12 2249.27 1777.25 1028.71 4208.82 971.838 5732.33 1628.51 1829.7 5520.67 1242.53 1047.82 788.482 20035.3 10700.2 1479.49
internal_count=483552 433795 359573 106163 49757 47830 24957 64488 74222 55939 18283 61174 46668 13089 11745 41675 12548 253410 227922 136890 13212 22873 14506 91032 11671 39154 1927 3389 5028 40409 39436 32579 6717 38755 14014 16785 45194 39949 38081 4453 29519 7556 10661 9052 3233 2108 25488 9165 5194 3299 12212 3068 26752 16903 3569 14876 3655 3119 2304 98135 55048 8492
is_linear=0
shrinkage=0.05


Tree=10
num_leaves=63
num_cat=0
split_feature=0 24 9 22 4 24 27 27 33 3 11 24 33 27 24 24 33 4 30 27 27 0 24 9 3 3 3 0 11 11 11 6 6 31 4 4 17 48 47 20 27 11 3 28 19 24 33 33 21 24 20 4 27 29 20 6 4 31 0 33 31 4
split_gain=832.298 547.871 314.139 325.038 284.926 201.442 134.682 121.675 135.023 110.183 109.208 102.206 91.9429 91.4645 86.2566 85.8125 84.103 83.1602 70.1953 67.4162 64.8372 73.2306 61.0312 58.1813 55.9745 55.0219 53.3672 52.4483 52.3681 50.5578 49.4243 47.5014 47.0889 46.4579 62.0223 47.4753 45.7056 45.0533 45.0527 44.9107 44.2659 44.1176 43.7026 43.6482 43.6381 43.0086 45.8921 42.6429 42.2013 41.6291 41.6097 47.8189 49.5284 41.4393 41.4991 52.4158 41.2171 40.939 40.6204 39.3788 38.9969 38.7605
threshold=6.5000000000000009 0.17925357296813346 55.500000000000007 0.029198635976129584 5.5000000000000009 0.19566598530467935 0.14756567252617028 0.13797004212825717 3.5000000000000004 1.0000000180025095e-35 -0.33333333333333331 0.11542042687294087 5.5000000000000009 0.054370565763143537 0.039499687955065539 0.049193338537600835 3.5000000000000004 39.500000000000007 52.500000000000007 0.13642003158132193 0.11982518947328333 1.5000000000000002 0.053602323282254082 44.500000000000007 0.43650793650793657 0.15476190476190479 0.58571428571428574 2.5000000000000004 -1.6666666666666665 0.83333333333333359 -0.58333333333333315 0.30151515151515157 0.62019230769230782 91.500000000000014 8.5000000000000018 341.50000000000006 1.2759934770241521 4.5000000000000009 30.500000000000004 0.20722186076772939 0.032644217107132716 -1.0000000180025095e-35 0.31666666666666671 0.071008403361344549 0.028653530377668313 0.078985178463399891 2.5000000000000004 6.5000000000000009 0.18371707657421946 0.062575301204819286 0.055050505050505051 337.50000000000006 0.33440860215053769 0.10642342852520024 0.062996031746031758 0.17445652173913045 4.5000000000000009 28.500000000000004 7.5000000000000009 5.5000000000000009 85.500000000000014 8.5000000000000018
decision_type=2 8 10 10 10 8 10 8 8 2 10 10 8 10 10 10 8 10 2 10 10 2 10 10 2 2 2 2 8 10 10 8 10 2 10 10 10 2 2 10 10 8 2 8 10 10 8 8 10 10 10 10 8 10 8 10 8 2 2 8 2 10
left_child=1 2 3 9 28 10 11 40 32 14 19 12 22 44 23 61 24 31 29 45 21 41 -5 -1 -7 -13 -19 33 -2 50 -26 -17 -9 35 -35 48 53 -31 47 -21 -3 -16 -29 60 -4 -6 -47 -25 -15 -36 51 52 57 54 -14 56 -56 -10 -18 -20 -24 -12
right_child=4 7 13 6 5 16 -8 8 18 -11 15 25 36 27 20 17 58 26 59 39 -22 -23 43 38 30 -27 -28 42 -30 37 -32 -33 -34 34 49 -37 -38 -39 -40 -41 -42 -43 -44 -45 -46 46 -48 -49 -50 -51 -52 -53 -54 -55 55 -57 -58 -59 -60 -61 -62 -63
leaf_value=-0.037281493701128314 -0.025021067516794799 -0.012389972173414657 -0.012096801977995628 -0.033612526796954319 -0.0079341398276736776 0.0028118977695126748 0.0017285898320420975 0.00028899747747997373 -0.032451414780702147 -0.00037323339893236403 0.016750465552255553 -0.0043494281069770503 -0.025017257035484144 -0.0047828117459287021 -0.037463990658094526 0.010479264797095177 0.019079951076838787 -0.004189427674865953 0.017991579876446177 0.0034672850913606843 -0.0070909532499087609 -0.03039689499965071 -0.036678270417548717 -0.023027974731468726 0.013030563773784346 0.012075999109201733 0.022410134441928534 0.001171654670222447 0.040283640714426507 0.0037808067456650304 0.035898452624289569 0.02038695821724806 0.019208607724095127 0.0060119107593928581 -0.004613472208710008 -0.033530078103492733 0.0015007734082593822 0.033725497188776286 -0.067029781709316269 0.015543992216736212 0.0027925865007044919 -0.0090357473903990484 0.010474279530148697 -0.0095028487867411457 -0.0041548523544676632 -0.0075104387115106728 0.0054638842114354165 0.0084994620495880673 0.0024804880085942649 9.2041631144763821e-05 0.014289162465275305 -0.061950246198035866 0.018426972756359759 -0.0014767713416049379 0.034091311797176657 0.036111444104144019 -0.014429084827093545 0.00099071297936917943 0.036799281961022119 0.032584691771717932 -0.016567854252812399 -0.0054316639857457244
leaf_weight=1093.1274164845236 31.91568635776639 532.85663497913629 2208.7459490383044 516.51301951799542 1824.224700961262 821.09000868070871 5235.2753076590598 2754.8849313682877 102.27512387186289 728.2430341555737 241.02812026627362 4466.565163614694 638.28017962910235 11024.338543047663 157.22303263028152 2326.4253454878926 571.9907602481544 973.23606928996742 1430.9167914539576 2545.0284899594262 1162.9186473048758 1170.3586861081421 331.97441097279079 334.52908555464819 773.06717555038631 575.54769785702229 233.88209582492709 5701.07547978824 804.97267247736454 181.73614332266152 340.28646724112332 2520.4052531588823 373.46166716143489 3514.4972788137384 6258.3131560741458 132.60041594272479 1237.2757254713215 406.73168286122382 41.728951101657003 1103.6664483146742 4847.7645141659304 1034.1533006506506 1621.626404626295 1603.5975901915226 7973.5208558132872 966.0878312359564 2314.2549602915533 157.86615274567157 2443.0269039850682 18879.95828871103 1459.1670843102038 28.442741926759481 397.21057645406108 839.41101095965132 46.451021945104003 61.922927648760378 758.12392800487578 869.79796343436465 744.31756211351603 682.90527591854334 880.25511719007045 1076.5185534879565
leaf_count=16969 107 2420 18490 5782 5684 1948 17583 7031 360 3872 520 19702 5088 50751 1546 5246 1225 2826 3037 6664 6874 12898 2646 3655 1689 1592 521 18556 1820 439 648 5321 762 10965 32368 1184 7650 800 671 2278 15324 8524 4652 9010 42685 3360 5557 1535 8466 66584 3360 107 1040 3917 131 166 5272 2291 1450 1378 5662 2893
internal_value=2.62584e-12 -0.00192516 -0.00347462 -0.00843026 0.00922911 0.00799534 -0.00495936 0.0071976 0.0108571 -0.0185778 0.00570625 -0.0078879 -0.0118358 -0.00156134 -0.0211511 0.0101902 0.01935 0.0127069 0.0155331 0.00193015 -0.0167551 -0.0215138 -0.0178134 -0.0306727 0.0127158 -0.0024745 0.000964303 -0.000674819 0.0377932 0.0111323 0.0200199 0.0156314 0.00254762 -0.00135185 -0.000209612 -0.00375836 -0.006274 0.0244777 -0.0171474 0.00712028 0.00128902 -0.0127874 0.00323174 -0.0149153 -0.00587763 -0.0017797 0.00164284 -0.01292 -0.00346522 -0.00107942 0.00838336 0.00221796 0.00355086 -0.0103776 -0.0153427 -0.00821621 -0.0116278 -0.00252785 0.0290995 0.0227061 -0.0220752 -0.00137373
internal_weight=117110 96897.2 82829 23071.3 20212.4 19375.5 17191.2 14068.2 8687.53 5880.15 16124.8 11955.9 6913.8 59757.7 5151.91 7371.5 3250.75 6053.95 5559.18 8753.26 3524.65 2361.74 3332.34 1627.25 1934.44 5042.11 1207.12 49575.4 836.888 3445.36 1113.35 4846.83 3128.35 42252.7 28652.8 13600 3581.46 588.468 534.124 3648.69 5380.62 1191.38 7322.7 2815.83 10182.3 5104.57 3280.34 492.395 13467.4 25138.3 2856.89 1397.73 1369.28 2344.19 1504.78 866.498 804.575 972.073 1316.31 2113.82 1212.23 1317.55
internal_count=483552 433795 395446 140745 49757 47830 84201 38349 20605 56544 40870 66618 45324 254701 52672 17327 6960 13914 12812 23543 29842 22968 23100 22830 4285 21294 3347 193526 1927 8397 2337 10567 7793 170318 109917 60401 22224 1239 5861 8942 17744 10070 23208 17318 61175 14601 8917 5190 59217 98952 7158 3798 3691 14574 10657 5569 5403 2651 2675 4415 8308 3413
is_linear=0
shrinkage=0.05


Tree=11
num_leaves=63
num_cat=0
split_feature=3 22 7 9 26 36 20 25 31 9 4 36 42 22 7 36 26 23 9 25 11 11 33 7 11 7 21 33 31 15 44 39 11 11 30 10 10 4 23 11 4 15 7 29 29 39 47 47 48 31 3 22 25 10 4 30 31 29 17 4 25 20
split_gain=629.019 358.426 267.137 244.772 159.09 187.981 140.853 135.369 124.874 98.2125 106.311 88.5229 83.6456 85.2565 90.2195 81.6362 98.7195 80.4778 80.0727 112.972 90.2737 72.9674 62.2284 60.6169 60.4969 59.9829 55.5067 56.7777 55.4883 53.6189 52.3897 51.8802 51.1096 50.9467 50.4527 51.8198 49.1202 55.2912 48.9901 48.8617 48.3942 48.1658 63.5677 46.8347 45.2651 44.5024 44.3078 55.5868 44.8123 44.1954 43.8526 43.6983 43.2068 42.2852 49.0181 42.1216 40.8931 40.8218 40.7713 40.6999 40.3707 40.2176
threshold=0.10555555555555557 1.0000000180025095e-35 0.60769230769230786 46.500000000000007 1.0000000180025095e-35 8.5187696916840796 0.21081871345029243 131.50000000000003 147.50000000000003 148.50000000000003 7.5000000000000009 8.4669098517161476 0.072751322751322761 0.15128814683768246 inf 9.1323891679007527 1.0000000180025095e-35 83.500000000000014 56.500000000000007 315.50000000000006 1.0000000180025095e-35 -3.1666666666666661 3.5000000000000004 0.071008403361344549 -0.33333333333333309 0.23145604395604399 0.18533452807646358 3.5000000000000004 178.50000000000003 0.14550264550264552 8.7500000000000018 9.5000000000000018 0.83333333333333359 0.3333333333333332 64.500000000000014 3.1666666666666674 2.4166666666666674 36.500000000000007 548.50000000000011 -0.33333333333333331 4.5000000000000009 0.70185185185185195 0.21244358478401035 0.12792655234515701 0.23821860350357763 18.500000000000004 31.500000000000004 30.500000000000004 6.5000000000000009 113.50000000000001 0.18333333333333338 0.13161580421642344 122.50000000000001 4.8333333333333348 4.5000000000000009 170.50000000000003 435.50000000000006 0.14722369281554612 0.58824139045192136 651.50000000000011 452.50000000000006 0.17262664963814392
decision_type=2 10 10 10 2 2 10 2 2 8 10 2 2 10 8 2 2 2 10 2 8 8 8 10 8 8 10 10 2 8 2 2 10 10 2 8 8 10 2 8 10 10 8 10 10 2 2 2 2 2 2 10 2 10 10 2 2 10 8 10 2 8
left_child=1 3 6 4 7 -6 9 39 18 10 11 -2 13 14 53 16 36 -15 19 23 30 -4 52 32 29 40 -23 -28 59 -19 -21 -27 46 -14 35 -13 -11 43 55 -1 -24 50 -43 -38 -20 -46 47 48 -3 -49 -12 -32 -8 -10 -55 -26 -56 -22 -34 -5 -44 -9
right_child=2 8 21 28 5 -7 22 61 12 15 41 34 33 17 -16 -17 -18 24 44 20 57 26 25 -25 38 31 27 -29 -30 -31 51 -33 58 -35 -36 -37 37 -39 -40 -41 -42 42 60 -45 45 -47 -48 49 -50 -51 -52 -53 -54 54 56 -57 -58 -59 -60 -61 -62 -63
leaf_value=-0.050808666077847564 0.020698385689796997 -0.0087965316842088265 -0.019939687108366157 -0.0071141519371980474 0.038134493948285393 -0.072512839567262025 -0.0093414914905703469 -0.016330635882829011 0.0050184649668068267 0.031627184193740464 0.0061562436463132959 -0.024820232073097664 -0.007574946143952154 -0.0013478798404238188 -0.010824039788737838 0.00015746307155342163 0.060083427241107115 0.043542576635126777 -0.0022116370682667883 0.00029386628076517548 -0.0012151554949912753 0.012018551441375383 0.037743176592617694 0.0035638163313529343 0.011703703731234959 0.010913075217653131 0.016893476902767792 0.035048753846854935 0.00053620475160832428 -0.010526363066877466 -0.035230087219690245 0.023719771877278487 -0.043930758971715229 0.004669473468074105 0.020045813615425179 0.0023606430508762064 0.0054616689126175816 0.00029218938848868398 -0.015700687835634195 -0.025815897617130535 0.0048664625337900931 -0.010241097740943133 0.0032849986500462858 0.02471556803918739 0.0058629386283617973 -0.059359432722095463 -0.0038914878190646133 -0.034297872812909601 -0.021940027341870186 -0.0079592383231906188 -0.00038336904226769585 -0.010977928929153571 0.0054573720626114181 0.020430963911667308 -0.0038061374150721362 0.02849488304799512 0.022695800439149098 0.010720982432715652 0.0041181610504215102 -0.054722192093942482 -0.010049186821963796 0.00081067395187970617
leaf_weight=211.11485293530859 1121.9488016031682 1665.0627853600308 142.30348933301866 11434.752012500307 217.05537450395059 46.632790673524141 573.60459244204685 759.35357185837347 5859.7804140269291 282.8518982110545 3035.3896175723057 227.43239068612456 3282.0387625559233 1934.8199546968099 1514.8165090577677 1773.997946084477 111.50956670381129 50.627966310828924 12983.779794045957 601.70267189270817 1526.6156006548554 2909.7164776506834 116.48647594824433 594.83489725925028 4376.2009939611889 2021.1768718138337 1293.1696413299069 645.64220523461699 2811.5954399355687 486.10798868909478 278.44530794559978 1299.0733257392421 47.958858800120652 1146.2247609263286 283.65597700700164 765.74182843812741 563.32128143729642 939.86786585953087 151.95417157094926 2654.203839101363 2863.1122237020172 2663.301064603962 2464.4172719162889 718.93258135952055 2448.7526877298951 26.435885610990226 719.87740951217711 693.19317136984318 1062.2203199780779 206.77843239950016 16489.103787599597 557.87525936029851 3519.2136206254363 240.19711867161095 3898.2538388036191 408.34370700083673 151.2033135574311 1349.5483709904365 555.85680775693618 45.069330387981609 737.51497606327757 622.88391476334073
leaf_count=2933 2712 9415 559 70687 431 216 1748 6184 20802 695 11136 928 15153 6961 8122 6077 175 99 53655 2527 7458 7510 251 2342 11343 4493 2902 1320 13933 1456 1732 3413 262 4401 719 2367 1687 2961 417 32541 7972 11095 8483 1629 7614 220 3855 5933 8248 1259 60032 2289 9443 581 14921 958 360 3946 2990 561 2562 3878
internal_value=-2.40792e-11 -0.00309879 0.00440572 -0.00896439 -0.0191182 0.0185667 0.00312271 -0.0214577 -0.000839679 0.00148826 0.000390291 0.0104517 0.0017851 0.00322246 0.000558331 0.00843761 0.0140516 0.00741724 -0.00327595 -0.00679675 -0.000728698 0.0153498 0.00818347 -0.0115172 0.0105158 0.011302 0.0163855 0.0229394 -0.00575921 -0.00542628 -0.0109575 0.0159238 -0.0133292 -0.00440556 0.00144799 -0.00386365 0.0120025 0.00950448 0.0122491 -0.0276573 0.00615177 -0.000560296 -0.00453366 0.0162569 -0.00103032 0.00516634 -0.0152225 -0.0174713 -0.0139157 -0.0282463 0.000633317 -0.0190525 0.00338333 0.00225717 -0.00151484 0.0131368 -0.00281658 0.0043855 0.000301812 -0.00730106 0.000213678 -0.00860617
internal_weight=115185 67622.2 47562.5 18802.7 4511.24 263.688 42571.7 4247.56 48819.5 32179 27788.5 2398.78 23500.6 19072.3 11664.3 4390.48 2616.48 7408.05 25318.9 9859.97 4314.19 4990.83 10392.7 5545.78 5473.23 6299.85 4848.53 1938.81 14291.4 536.736 1438.02 3320.25 4950.95 4428.26 1276.83 993.174 2504.97 2222.12 4936.5 2865.32 2979.6 25389.7 5865.23 1282.25 15459 2475.19 4347.13 3627.25 2727.28 899.972 19524.5 836.321 4092.82 10149.4 4289.65 4784.54 4049.46 2876.16 603.816 11479.8 3201.93 1382.24
internal_count=483552 330683 152869 131364 46183 647 140578 45536 199319 113258 100034 6726 85574 66020 44786 13224 7147 21234 113745 52256 17952 12291 27320 34304 14273 16129 11732 4222 85181 1555 6548 7906 31962 19554 4014 3295 6972 6277 12718 35474 8223 93308 22140 3316 61489 7834 28710 24855 17663 7192 71168 4021 11191 36664 15862 12301 15281 11404 3252 71248 11045 10062
is_linear=0
shrinkage=0.05


Tree=12
num_leaves=63
num_cat=0
split_feature=0 27 9 22 19 36 19 3 31 6 27 27 25 25 22 42 32 36 29 9 27 21 28 5 10 23 6 28 20 42 3 36 5 0 17 9 48 10 40 5 28 10 20 48 20 20 17 25 28 31 10 23 3 42 36 22 36 30 17 46 9 10
split_gain=801.047 430.705 257.038 209.214 200.285 156.863 140.66 104.043 98.3245 97.3772 91.8657 81.0093 77.2563 63.4851 59.001 58.0052 53.4553 140.984 57.0538 53.3738 52.2412 49.8234 46.996 45.6536 45.473 48.7963 49.0898 45.0659 44.6757 46.1706 44.1414 43.0116 42.6496 52.4639 41.8656 41.8216 40.8798 40.4095 49.8107 40.4168 39.1219 38.917 38.8386 38.7405 38.9516 38.7036 38.6688 44.2229 38.5748 37.7335 36.9495 36.8448 36.7668 36.635 36.6081 35.9208 35.5706 35.2032 35.1059 35.045 34.9668 34.3933
threshold=6.5000000000000009 0.11771776018099549 46.500000000000007 0.030457637600494747 0.17190241228070177 8.7784829873584691 0.11496255356642238 1.0000000180025095e-35 306.50000000000006 0.30151515151515157 0.066755793226381477 0.19586099299458534 374.50000000000006 111.50000000000001 0.57518796992481214 0.13714733542319751 1.0000000180025095e-35 8.5516815981129071 0.86607142857142871 127.50000000000001 0.16004640371229703 0.037210107303565255 0.62828947368421062 1.0000000180025095e-35 1.1666666666666667 16.500000000000004 0.2869249394673124 0.024695121951219517 0.20722186076772939 0.097619047619047633 0.31666666666666671 9.1194401276074046 1.5000000000000002 2.5000000000000004 1.1078315212340861 63.500000000000007 7.5000000000000009 1.5833333333333337 1.5000000000000002 6.5000000000000009 0.26365441906653431 1.5833333333333337 0.2869249394673124 5.5000000000000009 0.44636015325670503 0.098199935711989719 1.0000000180025095e-35 929.50000000000011 0.13359580052493442 4.5000000000000009 3.8333333333333335 239.50000000000003 0.43650793650793657 0.22902097902097904 9.4299897242332928 0.12678085805901695 10.476187348586711 163.50000000000003 1.5967353417845171 3.5000000000000004 82.500000000000014 5.166666666666667
decision_type=2 8 10 10 8 2 8 2 2 8 10 10 2 2 8 2 2 2 8 10 8 8 8 2 8 2 10 8 10 2 2 2 2 2 8 10 2 8 2 2 10 8 10 2 10 10 10 2 10 2 8 2 2 2 2 10 2 2 10 8 10 10
left_child=1 2 3 7 8 6 -2 13 24 42 27 30 16 50 15 19 18 -18 -6 32 23 -13 51 -11 31 26 -26 -5 -14 55 -7 -3 34 58 -4 -16 -15 56 39 -39 43 -27 -8 -10 60 -35 47 -23 -40 -43 -1 -12 -49 -44 -50 -30 -32 -33 -34 -47 -45 -29
right_child=5 4 14 10 12 11 9 -9 40 20 22 21 28 36 35 -17 17 -19 -20 -21 -22 46 -24 -25 25 41 -28 61 29 -31 37 57 33 45 -36 -37 -38 38 48 -41 -42 49 53 44 -46 59 -48 52 54 -51 -52 -53 -54 -55 -56 -57 -58 -59 -60 -61 -62 -63
leaf_value=0.0045153734025613719 0.0056691024917250449 0.023458365483249751 -0.012026926134123161 -0.022373112462350228 0.00392794099795665 -0.0023081307231146444 0.0074649727143521957 0.0083964884311490996 -0.010526854148788567 -0.0028989502967919248 -0.0085557071270318617 -0.014977108004860198 0.0064195574284461009 -0.0082390585933851991 -0.033080578354182842 -0.0082098236525278492 0.037891199183363457 -0.037484159877312788 -0.0076189976064511226 0.0064094324182118745 0.02990643438383497 0.0051425331763128405 0.0056743709334804698 0.020462453462845767 -0.012189855576733737 -0.023179067113070662 0.0138840723714313 -0.0078244046372550873 -0.0065162950517676128 0.0054520745446972876 0.030748568531503501 0.004317177770826827 -0.0030428230808886335 -0.00048552682586671802 -0.0034949965455762311 -0.0093570066387729193 -0.028708577234694152 0.012036291192752896 -0.0069365843778986429 -0.088857968449713581 0.015642038110758281 -0.016917491860604546 0.024605802130679134 0.0076668667371351919 0.036168281592778961 0.0013980466952417711 0.024650755156190356 0.0048015019103868689 0.025589959661548096 -0.0013166188965982601 -0.033277443570402805 0.0023316255113782834 0.048996244061849034 -0.010926974081241526 -0.00071931042410484155 0.020041360296097644 0.0058377540515620746 -0.038462921201684444 0.0035391191748560197 0.01925747137452799 -0.0039775149939051888 -0.056418059990180874
leaf_weight=67.312598382122815 3812.1955701801926 311.23716964293271 1999.4716081831139 1243.6263850817923 6842.8770292603876 3364.3433342562057 2186.8652180824429 240.36710222251713 424.03607345558703 233.32471704855561 3678.7420272498857 144.49607759527862 3860.01150170248 635.09497522981837 213.11344230733812 4294.7030638873111 287.69244611670729 79.091877676546574 1268.0032912320457 1774.2428664913168 1577.9139685621485 922.00587780680507 1002.9900448212866 2016.8288174010813 1922.9123092354275 210.91532672918402 199.21936567500234 1310.2196652396815 135.61864204518497 994.84626871254295 276.21533604152501 843.4801846833434 17742.592666435055 1279.6393505432643 5118.5620418023318 1447.9976777723059 395.99701465945691 1197.8717407728545 1225.1252118516713 10.008824519813059 839.72200040752068 394.71065984573215 660.5120006930083 2421.7986316329334 100.48022749274969 455.74560739984736 709.59118965640664 78.501631669700146 206.92157505638897 21477.298476620344 1649.9271431670059 985.2086337339133 117.49883259832859 81.489652682095766 366.252653200645 2081.5061839818954 297.80987051874399 50.995553160086274 2287.0014138352126 691.39008778519928 878.60099912527949 37.453706831205636
leaf_count=533 10002 876 10688 10593 20145 10312 5287 1132 1512 634 20718 433 10035 5562 2122 21442 611 405 5338 7554 3228 2264 4676 4449 12448 944 769 9109 368 2676 535 3286 81382 4752 32284 10000 4551 2598 4164 35 2257 2400 1395 7759 247 1389 1529 180 402 81407 25065 4135 206 174 1069 4538 861 185 12473 1792 3196 441
internal_value=6.37655e-12 -0.00190932 -0.00518717 -0.0118129 0.00157877 0.00922791 0.0133484 -0.0231486 -0.000803258 0.017681 -0.0077104 0.00434375 0.00618598 -0.0259075 -0.00318959 -0.00276032 0.00296707 0.0216376 0.00212277 -0.00201375 0.0229313 0.013287 -0.00414435 0.01804 -0.00202814 -0.00250021 -0.00974211 -0.015509 0.0100447 0.0144013 0.00180407 0.00744881 -0.00251908 -0.00145007 -0.00589163 -0.0124006 -0.0161005 0.00566834 0.00334712 0.0112003 0.00586934 -0.00180428 0.0108188 0.00372384 0.00550068 0.005493 0.0155217 0.00972747 -0.00192767 -0.00159816 -0.031796 -0.00625588 0.0312955 0.0207034 0.0087786 0.0184169 0.0178246 0.00187821 -0.00229129 0.0121621 0.00456701 -0.00917489
internal_weight=113662 94176.5 48551.4 11246.9 45625.1 19485.8 10569.1 2988.7 30075.4 6756.93 8258.24 8916.64 15549.6 2748.33 37304.5 35643.3 8477.66 366.784 8110.88 31348.6 3828.07 1972.09 5666.94 2250.15 25410.8 24205.1 2122.13 2591.3 7071.98 3211.97 6944.55 1205.71 29574.4 22456.4 7118.03 1661.11 1031.09 3580.21 3006.18 1207.88 4664.64 22082.9 2928.87 3824.92 3400.88 2426.78 1827.6 1118.01 1798.3 21872 1717.24 4663.95 196 742.002 573.174 2217.12 574.025 894.476 20029.6 1147.14 3300.4 1347.67
internal_count=483552 433795 272393 86515 161402 49757 25169 36843 117286 15167 49672 24588 44116 35711 185878 173756 26499 1016 25483 152314 8311 4612 29529 5083 102315 97968 13217 20143 17617 7582 19976 4347 144760 101788 42972 12122 10113 9664 8268 2633 14971 84751 6856 12714 11202 7933 4179 2650 5635 83807 25598 24853 386 1569 1471 4906 1396 3471 93855 3181 10955 9550
is_linear=0
shrinkage=0.05


Tree=13
num_leaves=63
num_cat=0
split_feature=24 0 7 0 36 24 24 7 27 36 11 7 0 47 24 33 30 36 24 47 24 27 3 20 6 25 19 22 42 49 27 3 36 42 36 27 15 10 42 11 11 11 25 22 40 27 11 36 33 27 25 25 26 36 33 44 11 25 29 17 42 19
split_gain=742.463 361.574 309.236 276.785 194.749 189.425 145.838 99.6927 97.5296 81.2254 79.258 78.4548 108.214 77.0305 76.8874 62.9952 86.2641 75.7213 61.6924 60.7513 59.8492 59.0989 56.2526 51.9701 48.7705 47.5751 47.4777 46.188 45.2491 43.7776 43.1901 43.1525 42.7738 42.2829 42.1801 41.7249 41.2235 41.0718 40.9233 39.5091 38.704 38.2892 36.5348 40.077 36.2245 36.1807 36.0625 38.7162 41.5344 35.8092 35.3281 35.2554 38.5939 47.3912 67.8948 40.8186 40.4019 34.7386 34.7117 38.314 34.6905 34.3112
threshold=0.1265369110607206 6.5000000000000009 inf 6.5000000000000009 8.81919728647898 0.21623392724310159 0.060988894202667523 0.44636015325670503 0.088270391688895153 8.2295134660943656 0.83333333333333359 0.030776515151515155 1.5000000000000002 29.500000000000004 0.25417363433667789 1.0000000180025095e-35 6.5000000000000009 8.4555940893887893 0.060361093038386472 30.500000000000004 0.069459064327485401 0.19772937208652877 0.10555555555555557 0.20568090249798551 0.6515151515151516 47.500000000000007 0.058902381327866273 0.40085470085470093 0.21980676328502416 5.5000000000000009 0.058919961427193836 0.43650793650793657 9.2591633152316266 0.63961038961038974 7.7311182172837762 0.064839839839839861 0.65108695652173931 3.8333333333333335 0.12771739130434787 -1.333333333333333 -3.1666666666666661 -2.1666666666666661 167.50000000000003 0.76388888888888895 1.0000000180025095e-35 0.10419600938967137 -0.33333333333333309 8.0891473986962144 1.5000000000000002 0.054370565763143537 8.5000000000000018 185.50000000000003 1.0000000180025095e-35 8.1401887284675123 3.5000000000000004 11.750000000000002 -0.83333333333333337 2.5000000000000004 0.23543552036199097 0.87486482706529456 0.16333333333333336 0.080039062500000022
decision_type=8 2 8 2 2 8 10 10 10 2 10 10 2 2 10 10 2 2 10 2 10 10 2 8 8 2 10 8 2 2 10 2 2 2 2 10 8 10 2 8 8 8 2 8 2 8 8 2 10 8 2 2 2 2 10 2 8 2 10 10 2 10
left_child=1 2 8 5 7 21 13 23 11 20 15 12 18 -4 24 16 17 34 38 49 -3 25 30 45 61 -2 -15 31 32 33 -8 39 -18 42 -7 -31 -24 -20 -1 -10 -26 -17 -11 -44 -32 -5 47 -23 -49 -14 -19 52 56 55 -55 -54 -43 -41 59 -42 -13 -6
right_child=3 9 6 4 14 10 22 -9 27 29 -12 60 19 26 -16 41 28 50 37 -21 -22 46 36 -25 40 -27 -28 -29 -30 35 44 -33 -34 -35 -36 -37 -38 -39 -40 57 58 51 43 -45 -46 -47 -48 48 -50 -51 -52 -53 53 54 -56 -57 -58 -59 -60 -61 -62 -63
leaf_value=-0.010001617842211763 -0.009729905906188753 0.0049078009155818043 0.00087592738751906749 -0.0097236408506874358 -0.037709423007227377 0.0030523778773736531 -0.022919306823724811 0.032976921142010861 -0.012620971746981567 0.0011237853739208992 0.023006818154379785 -0.0019701023930772505 -0.025190631751619726 -0.037509374541209554 0.023673832128103572 -0.030926774582191254 0.037531733533242288 -0.031393051380535351 0.0022648898938770509 -0.03628170504795851 0.018275977398741396 -0.04886443281800848 -0.020142391692278841 0.022636242089034683 -0.017675788408708697 0.00073456324907468951 -0.021470329001703689 -0.011268353920973161 -0.022088595456207363 -0.024060961028041884 -0.0072102265682857372 0.011991783013120599 0.00014575036509410769 -0.032277883962167998 0.057828976513881872 -0.0014870817525773411 0.0073729021935973749 -0.0070575707099682378 -0.03266431871715858 0.032118805544820085 0.010957690832876791 -0.033751678107209075 0.0095982255162802722 -0.04542984250522196 -0.020535393888898985 0.012804632666667244 0.0089961682704505011 -0.024154574211259983 0.0058732047098126287 -0.0080838244920556218 0.0030965858925809586 0.0085672150282846676 0.063580814885117312 0.026005639797979957 -0.081975508615293624 -0.023424107113016332 -0.0013652620890638905 -0.0012365478224611508 0.020201140390312622 -0.01056128930734419 -0.012089376351482037 -7.4118184398826826e-05
leaf_weight=4002.7497709214222 1150.0606494881213 1639.2516285469756 245.13639390165918 245.72412291914225 62.609917936380953 67.368767742416821 761.51665974874049 1398.9601464904845 769.9481809225399 3072.0128349391744 1050.0604211459868 9672.1860349772032 506.21895103668794 864.36728501867037 598.43979376833886 69.477002246305346 584.82525226590224 138.06191104091704 2164.1982553298585 446.07415978144854 1711.2890963507816 43.653121523559093 169.79698471166193 1166.2975967628881 121.01915903110057 19541.360987941036 989.68118052952923 1176.3946030146908 40.012429170310497 236.84435201063752 2705.8885286811274 610.05788778048009 88.021755307912827 77.395935098174959 73.473917052149773 1508.3776356079616 686.4220792024862 2601.867107266793 209.63145255250856 78.265480402391404 972.19273062236607 107.87045594025403 2850.7993285884149 33.476230066269636 628.49619374796748 648.7731648273766 3306.4944168669172 145.17447381280363 557.00701428484172 773.1044344449183 160.63494066987187 4186.4602198088542 69.253562793135643 43.96281715342775 21.763926919549704 16.738984752446413 897.59471375634894 29544.696360420552 718.51024564355612 262.75470954179764 928.21850438439287 1849.6149738784879
leaf_count=33074 5482 4215 1854 677 236 280 7793 2926 4329 8882 2348 51941 5485 13901 1328 299 1263 911 11700 5255 4075 153 830 2539 476 69794 10141 6444 104 968 15237 1730 250 317 87 4549 2673 14492 1948 393 2246 441 7334 130 4950 1488 8702 633 1612 5774 563 10736 88 171 132 59 3015 121340 1583 851 5388 4937
internal_value=1.4956e-11 -0.00305582 -0.00457864 0.00542006 0.0137199 0.00335663 -0.0144207 0.0226756 -0.00328106 0.0052271 0.0102522 -0.00590518 -0.0089247 -0.0254651 0.00696224 0.00821228 0.0188271 0.00140554 -0.00672083 -0.020393 0.0117356 0.00123433 -0.00973908 0.0156826 0.00445368 0.000152932 -0.0289478 -0.00154377 0.029569 0.00242375 -0.0121756 -0.00117477 0.0326409 0.00444105 0.0316279 -0.00455059 0.00191634 -0.00282438 -0.0111294 -0.00143906 0.00976322 0.0059525 0.00491818 0.00895954 -0.00972188 0.00661597 0.00675599 -0.00317536 -0.000334972 -0.0148529 -0.012845 0.006432 -0.00129278 0.0222139 -0.00974988 0.0466448 -0.00483981 -0.00114842 0.0114631 0.00637919 -0.00285619 -0.00130637
